{"learner":{"attributes":{"scikit_learn":"{\"_estimator_type\": \"classifier\"}"},"feature_names":["ret_1","ret_3","ret_7","ma_7","vol_14","arrival_3pct","arrival_7mean","arrival_spike","month","district_code","rain_anomaly_30d"],"feature_types":["float","float","float","float","float","float","float","float","float","int","int"],"gradient_booster":{"model":{"cats":{"enc":[],"feature_segments":[],"sorted_idx":[]},"gbtree_model_param":{"num_parallel_tree":"1","num_trees":"300"},"iteration_indptr":[0,1,2,3,4,5,6,7,8,9,10,11,12,13,14,15,16,17,18,19,20,21,22,23,24,25,26,27,28,29,30,31,32,33,34,35,36,37,38,39,40,41,42,43,44,45,46,47,48,49,50,51,52,53,54,55,56,57,58,59,60,61,62,63,64,65,66,67,68,69,70,71,72,73,74,75,76,77,78,79,80,81,82,83,84,85,86,87,88,89,90,91,92,93,94,95,96,97,98,99,100,101,102,103,104,105,106,107,108,109,110,111,112,113,114,115,116,117,118,119,120,121,122,123,124,125,126,127,128,129,130,131,132,133,134,135,136,137,138,139,140,141,142,143,144,145,146,147,148,149,150,151,152,153,154,155,156,157,158,159,160,161,162,163,164,165,166,167,168,169,170,171,172,173,174,175,176,177,178,179,180,181,182,183,184,185,186,187,188,189,190,191,192,193,194,195,196,197,198,199,200,201,202,203,204,205,206,207,208,209,210,211,212,213,214,215,216,217,218,219,220,221,222,223,224,225,226,227,228,229,230,231,232,233,234,235,236,237,238,239,240,241,242,243,244,245,246,247,248,249,250,251,252,253,254,255,256,257,258,259,260,261,262,263,264,265,266,267,268,269,270,271,272,273,274,275,276,277,278,279,280,281,282,283,284,285,286,287,288,289,290,291,292,293,294,295,296,297,298,299,300],"tree_info":[0,0,0,0,0,0,0,0,0,0,0,0,0,0,0,0,0,0,0,0,0,0,0,0,0,0,0,0,0,0,0,0,0,0,0,0,0,0,0,0,0,0,0,0,0,0,0,0,0,0,0,0,0,0,0,0,0,0,0,0,0,0,0,0,0,0,0,0,0,0,0,0,0,0,0,0,0,0,0,0,0,0,0,0,0,0,0,0,0,0,0,0,0,0,0,0,0,0,0,0,0,0,0,0,0,0,0,0,0,0,0,0,0,0,0,0,0,0,0,0,0,0,0,0,0,0,0,0,0,0,0,0,0,0,0,0,0,0,0,0,0,0,0,0,0,0,0,0,0,0,0,0,0,0,0,0,0,0,0,0,0,0,0,0,0,0,0,0,0,0,0,0,0,0,0,0,0,0,0,0,0,0,0,0,0,0,0,0,0,0,0,0,0,0,0,0,0,0,0,0,0,0,0,0,0,0,0,0,0,0,0,0,0,0,0,0,0,0,0,0,0,0,0,0,0,0,0,0,0,0,0,0,0,0,0,0,0,0,0,0,0,0,0,0,0,0,0,0,0,0,0,0,0,0,0,0,0,0,0,0,0,0,0,0,0,0,0,0,0,0,0,0,0,0,0,0,0,0,0,0,0,0,0,0,0,0,0,0,0,0,0,0,0,0,0,0,0,0,0,0],"trees":[{"base_weights":[-4.2345416E-9,-6.590386E-1,1.6352105E0,-9.256188E-1,1.8076576E0,7.2246283E-1,9.9576995E-2,-1.1466149E0,4.7581828E-1,5.0728244E-1,1.9810139E0,3.875809E-1,1.8576314E0,-8.377483E-2,-4.263934E-2,7.6158033E-3,4.6859607E-2,-1.3234657E-2,7.97938E-2,9.92844E-2,2.7434954E-2,-2.2789026E-3,6.307386E-2,5.3586442E-2,9.816583E-2],"categories":[],"categories_nodes":[],"categories_segments":[],"categories_sizes":[],"default_left":[0,0,0,0,0,0,0,0,0,0,0,0,0,0,0,0,0,0,0,0,0,0,0,0,0],"id":0,"left_children":[1,3,5,7,9,11,-1,13,15,17,19,21,23,-1,-1,-1,-1,-1,-1,-1,-1,-1,-1,-1,-1],"loss_changes":[3.7023247E3,1.6118242E3,3.195298E2,6.851554E2,5.2907776E1,1.0521234E2,0E0,2.9533447E2,4.490275E1,2.5193464E1,3.2092285E-1,8.1989685E1,3.1464996E0,0E0,0E0,0E0,0E0,0E0,0E0,0E0,0E0,0E0,0E0,0E0,0E0],"parents":[2147483647,0,0,1,1,2,2,3,3,4,4,5,5,7,7,8,8,9,9,10,10,11,11,12,12],"right_children":[2,4,6,8,10,12,-1,14,16,18,20,22,24,-1,-1,-1,-1,-1,-1,-1,-1,-1,-1,-1,-1],"split_conditions":[1.11883916E-1,1.5515077E-1,1.764706E-1,1.764706E-1,1.764706E-1,1.5515077E-1,9.9576995E-2,9.9966794E-2,3.04E-1,7.8708574E-2,1.1111111E-1,1.8041682E-1,1.764706E-1,-8.377483E-2,-4.263934E-2,7.6158033E-3,4.6859607E-2,-1.3234657E-2,7.97938E-2,9.92844E-2,2.7434954E-2,-2.2789026E-3,6.307386E-2,5.3586442E-2,9.816583E-2],"split_indices":[1,0,1,2,0,0,0,4,2,2,1,2,0,0,0,0,0,0,0,0,0,0,0,0,0],"split_type":[0,0,0,0,0,0,0,0,0,0,0,0,0,0,0,0,0,0,0,0,0,0,0,0,0],"sum_hessian":[3.4335E3,2.4476294E3,9.8587067E2,2.2094724E3,2.3815683E2,2.7766116E2,7.082095E2,1.9086713E3,3.0080127E2,2.847644E1,2.0968039E2,2.1544496E2,6.2216206E1,6.7999646E2,1.2286748E3,1.7760197E2,1.2319931E2,1.7103998E1,1.1372441E1,2.0861328E2,1.0671109E0,1.446801E2,7.076488E1,8.695442E0,5.3520763E1],"tree_param":{"num_deleted":"0","num_feature":"11","num_nodes":"25","size_leaf_vector":"1"}},{"base_weights":[1.3846734E-4,-6.2664837E-1,1.5569205E0,-8.8011324E-1,1.7219887E0,6.876305E-1,9.4843656E-2,-1.0965432E0,4.1560984E-1,4.8450208E-1,1.8872449E0,3.6860982E-1,1.7710001E0,-7.8252636E-2,-3.9753355E-2,5.4350053E-3,4.456018E-2,-1.2610011E-2,7.623996E-2,9.457951E-2,2.6729455E-2,-2.1657338E-3,6.002397E-2,5.1217E-2,9.357238E-2],"categories":[],"categories_nodes":[],"categories_segments":[],"categories_sizes":[],"default_left":[0,0,0,0,0,0,0,0,0,0,0,0,0,0,0,0,0,0,0,0,0,0,0,0,0],"id":1,"left_children":[1,3,5,7,9,11,-1,13,15,17,19,21,23,-1,-1,-1,-1,-1,-1,-1,-1,-1,-1,-1,-1],"loss_changes":[3.3480532E3,1.4577769E3,2.8975464E2,6.1983545E2,4.788495E1,9.558632E1,0E0,2.661045E2,4.615091E1,2.2960546E1,2.2399902E-1,7.419647E1,2.814087E0,0E0,0E0,0E0,0E0,0E0,0E0,0E0,0E0,0E0,0E0,0E0,0E0],"parents":[2147483647,0,0,1,1,2,2,3,3,4,4,5,5,7,7,8,8,9,9,10,10,11,11,12,12],"right_children":[2,4,6,8,10,12,-1,14,16,18,20,22,24,-1,-1,-1,-1,-1,-1,-1,-1,-1,-1,-1,-1],"split_conditions":[1.11883916E-1,1.5515077E-1,1.764706E-1,1.6733527E-1,1.764706E-1,1.5515077E-1,9.4843656E-2,1.0749842E-1,3.04E-1,7.8708574E-2,1.1111111E-1,1.8041682E-1,1.764706E-1,-7.8252636E-2,-3.9753355E-2,5.4350053E-3,4.456018E-2,-1.2610011E-2,7.623996E-2,9.457951E-2,2.6729455E-2,-2.1657338E-3,6.002397E-2,5.1217E-2,9.357238E-2],"split_indices":[1,0,1,2,0,0,0,4,2,2,1,2,0,0,0,0,0,0,0,0,0,0,0,0,0],"split_type":[0,0,0,0,0,0,0,0,0,0,0,0,0,0,0,0,0,0,0,0,0,0,0,0,0],"sum_hessian":[3.4291895E3,2.445277E3,9.8391254E2,2.2076526E3,2.3762454E2,2.774557E2,7.0645685E2,1.8918094E3,3.15843E2,2.8457607E1,2.0916693E2,2.1537445E2,6.2081234E1,7.39068E2,1.1527416E3,1.9271127E2,1.231317E2,1.7103249E1,1.1354359E1,2.0810002E2,1.06691E0,1.446799E2,7.069454E1,8.689203E0,5.339203E1],"tree_param":{"num_deleted":"0","num_feature":"11","num_nodes":"25","size_leaf_vector":"1"}},{"base_weights":[2.9694845E-4,-5.968971E-1,1.4878767E0,-8.3812076E-1,1.6471982E0,6.5540534E-1,9.075115E-2,-1.0388058E0,4.312236E-1,4.6332845E-1,1.8060819E0,3.5079134E-1,1.6951419E0,-7.6241545E-2,-3.8502965E-2,6.9672237E-3,4.241636E-2,-2.2454238E-2,6.1457347E-2,9.050862E-2,2.6047084E-2,-2.058206E-3,5.722561E-2,4.901152E-2,8.958685E-2],"categories":[],"categories_nodes":[],"categories_segments":[],"categories_sizes":[],"default_left":[0,0,0,0,0,0,0,0,0,0,0,0,0,0,0,0,0,0,0,0,0,0,0,0,0],"id":2,"left_children":[1,3,5,7,9,11,-1,13,15,17,19,21,23,-1,-1,-1,-1,-1,-1,-1,-1,-1,-1,-1,-1],"loss_changes":[3.0375032E3,1.3220786E3,2.655503E2,5.617887E2,4.3768005E1,8.741515E1,0E0,2.4739868E2,3.6592026E1,2.1098278E1,1.5429688E-1,6.7300415E1,2.5737915E0,0E0,0E0,0E0,0E0,0E0,0E0,0E0,0E0,0E0,0E0,0E0,0E0],"parents":[2147483647,0,0,1,1,2,2,3,3,4,4,5,5,7,7,8,8,9,9,10,10,11,11,12,12],"right_children":[2,4,6,8,10,12,-1,14,16,18,20,22,24,-1,-1,-1,-1,-1,-1,-1,-1,-1,-1,-1,-1],"split_conditions":[1.11883916E-1,1.5515077E-1,1.764706E-1,1.764706E-1,1.764706E-1,1.5515077E-1,9.075115E-2,9.9966794E-2,3.04E-1,1.2120445E-3,1.1111111E-1,1.8041682E-1,1.764706E-1,-7.6241545E-2,-3.8502965E-2,6.9672237E-3,4.241636E-2,-2.2454238E-2,6.1457347E-2,9.050862E-2,2.6047084E-2,-2.058206E-3,5.722561E-2,4.901152E-2,8.958685E-2],"split_indices":[1,0,1,2,0,0,0,4,2,2,1,2,0,0,0,0,0,0,0,0,0,0,0,0,0],"split_type":[0,0,0,0,0,0,0,0,0,0,0,0,0,0,0,0,0,0,0,0,0,0,0,0,0],"sum_hessian":[3.4171726E3,2.4387334E3,9.784392E2,2.202597E3,2.3613638E2,2.768803E2,7.0155896E2,1.9020603E3,3.0053668E2,2.8404644E1,2.0773174E2,2.1517683E2,6.1703465E1,6.7558984E2,1.2264705E3,1.7759442E2,1.2294225E2,1.315047E1,1.5254175E1,2.066654E2,1.0663286E0,1.4467937E2,7.0497475E1,8.671609E0,5.3031857E1],"tree_param":{"num_deleted":"0","num_feature":"11","num_nodes":"25","size_leaf_vector":"1"}},{"base_weights":[4.6135738E-4,-5.6942856E-1,1.4264327E0,-7.991863E-1,1.5811336E0,6.2544966E-1,8.718045E-2,-9.967738E-1,3.780044E-1,4.426117E-1,1.7351952E0,3.340169E-1,1.6281329E0,-7.107842E-2,-3.558844E-2,-2.049797E-2,2.7553761E-2,-1.1874979E-2,7.059879E-2,8.695445E-2,2.538673E-2,-2.1574106E-2,3.5361316E-2,4.6950575E-2,8.609842E-2],"categories":[],"categories_nodes":[],"categories_segments":[],"categories_sizes":[],"default_left":[0,0,0,0,0,0,0,0,0,0,0,0,0,0,0,0,0,0,0,0,0,0,0,0,0],"id":3,"left_children":[1,3,5,7,9,11,-1,13,15,17,19,21,23,-1,-1,-1,-1,-1,-1,-1,-1,-1,-1,-1,-1],"loss_changes":[2.763492E3,1.2017556E3,2.4559363E2,5.111067E2,4.0425476E1,8.039708E1,0E0,2.266521E2,4.3361794E1,1.9674583E1,1.0406494E-1,6.1977737E1,2.3999634E0,0E0,0E0,0E0,0E0,0E0,0E0,0E0,0E0,0E0,0E0,0E0,0E0],"parents":[2147483647,0,0,1,1,2,2,3,3,4,4,5,5,7,7,8,8,9,9,10,10,11,11,12,12],"right_children":[2,4,6,8,10,12,-1,14,16,18,20,22,24,-1,-1,-1,-1,-1,-1,-1,-1,-1,-1,-1,-1],"split_conditions":[1.11883916E-1,1.5515077E-1,1.764706E-1,1.6733527E-1,1.764706E-1,1.5515077E-1,8.718045E-2,1.097589E-1,8.7705635E-2,7.8708574E-2,1.1111111E-1,3.7037037E-2,1.764706E-1,-7.107842E-2,-3.558844E-2,-2.049797E-2,2.7553761E-2,-1.1874979E-2,7.059879E-2,8.695445E-2,2.538673E-2,-2.1574106E-2,3.5361316E-2,4.6950575E-2,8.609842E-2],"split_indices":[1,0,1,2,0,0,0,4,4,2,1,2,0,0,0,0,0,0,0,0,0,0,0,0,0],"split_type":[0,0,0,0,0,0,0,0,0,0,0,0,0,0,0,0,0,0,0,0,0,0,0,0,0],"sum_hessian":[3.3986077E3,2.4286125E3,9.6999506E2,2.194761E3,2.3385144E2,2.7599112E2,6.9400397E2,1.8794543E3,3.1530673E2,2.8334085E1,2.0551735E2,2.1487128E2,6.111983E1,7.530539E2,1.1264005E3,5.653648E1,2.5877026E2,1.7095078E1,1.1239009E1,2.0445195E2,1.0653963E0,7.0372475E1,1.4449881E2,8.644214E0,5.247562E1],"tree_param":{"num_deleted":"0","num_feature":"11","num_nodes":"25","size_leaf_vector":"1"}},{"base_weights":[6.166544E-4,-5.9392947E-1,1.256651E0,-7.939841E-1,8.376785E-2,5.2812856E-1,8.404044E-2,-9.7183913E-1,3.3511004E-1,2.6137546E-1,1.5693095E0,-6.8991944E-2,-3.517044E-2,-2.7132688E-2,2.5213767E-2,-4.39099E-3,4.9419586E-2,4.6583846E-2,8.283839E-2],"categories":[],"categories_nodes":[],"categories_segments":[],"categories_sizes":[],"default_left":[0,0,0,0,0,0,0,0,0,0,0,0,0,0,0,0,0,0,0],"id":4,"left_children":[1,3,5,7,-1,9,-1,11,13,15,17,-1,-1,-1,-1,-1,-1,-1,-1],"loss_changes":[2.521707E3,1.0418234E3,3.3435205E2,4.2342822E2,0E0,1.1087127E2,0E0,1.9840552E2,4.2958168E1,8.1364334E1,3.0023346E0,0E0,0E0,0E0,0E0,0E0,0E0,0E0,0E0],"parents":[2147483647,0,0,1,1,2,2,3,3,5,5,7,7,8,8,9,9,10,10],"right_children":[2,4,6,8,-1,10,-1,12,14,16,18,-1,-1,-1,-1,-1,-1,-1,-1],"split_conditions":[9.058206E-2,1.764706E-1,1.764706E-1,1.6733527E-1,8.376785E-2,1.5515077E-1,8.404044E-2,1.097589E-1,8.7705635E-2,1.8041682E-1,1.764706E-1,-6.8991944E-2,-3.517044E-2,-2.7132688E-2,2.5213767E-2,-4.39099E-3,4.9419586E-2,4.6583846E-2,8.283839E-2],"split_indices":[1,0,1,2,0,0,0,4,4,2,0,0,0,0,0,0,0,0,0],"split_type":[0,0,0,0,0,0,0,0,0,0,0,0,0,0,0,0,0,0,0],"sum_hessian":[3.3748176E3,2.2909292E3,1.0838883E3,2.1059263E3,1.8500311E2,3.9967023E2,6.8421814E2,1.8194635E3,2.8646274E2,3.1915338E2,8.051685E1,7.2038165E2,1.0990818E3,4.5930584E1,2.4053217E2,2.1619252E2,1.02960846E2,1.1117229E1,6.939962E1],"tree_param":{"num_deleted":"0","num_feature":"11","num_nodes":"19","size_leaf_vector":"1"}},{"base_weights":[7.6183095E-4,-5.203141E-1,1.3217523E0,-7.608172E-1,1.2405121E0,5.7273006E-1,8.1260055E-2,-9.307131E-1,4.2816344E-1,3.857208E-1,1.6173093E0,3.0534285E-1,1.5149134E0,-6.822945E-2,-3.453253E-2,6.2102987E-3,3.95758E-2,-4.0109814E-3,4.157066E-2,8.106049E-2,2.2688797E-2,-2.0299224E-2,3.2684322E-2,4.3136537E-2,8.029546E-2],"categories":[],"categories_nodes":[],"categories_segments":[],"categories_sizes":[],"default_left":[0,0,0,0,0,0,0,0,0,0,0,0,0,0,0,0,0,0,0,0,0,0,0,0,0],"id":5,"left_children":[1,3,5,7,9,11,-1,13,15,17,19,21,23,-1,-1,-1,-1,-1,-1,-1,-1,-1,-1,-1,-1],"loss_changes":[2.3049233E3,1.0178657E3,2.1436316E2,4.2730554E2,9.2442444E1,6.872873E1,0E0,1.9169226E2,2.9159649E1,1.8697676E1,1.7303467E-1,5.3585625E1,2.2026367E0,0E0,0E0,0E0,0E0,0E0,0E0,0E0,0E0,0E0,0E0,0E0,0E0],"parents":[2147483647,0,0,1,1,2,2,3,3,4,4,5,5,7,7,8,8,9,9,10,10,11,11,12,12],"right_children":[2,4,6,8,10,12,-1,14,16,18,20,22,24,-1,-1,-1,-1,-1,-1,-1,-1,-1,-1,-1,-1],"split_conditions":[1.11883916E-1,1.2508644E-1,1.764706E-1,1.9335903E-1,1.764706E-1,1.5515077E-1,8.1260055E-2,9.9966794E-2,3.04E-1,1.0531281E-2,1.1111111E-1,3.7037037E-2,1.764706E-1,-6.822945E-2,-3.453253E-2,6.2102987E-3,3.95758E-2,-4.0109814E-3,4.157066E-2,8.106049E-2,2.2688797E-2,-2.0299224E-2,3.2684322E-2,4.3136537E-2,8.029546E-2],"split_indices":[1,0,1,2,0,0,0,4,2,2,1,2,0,0,0,0,0,0,0,0,0,0,0,0,0],"split_type":[0,0,0,0,0,0,0,0,0,0,0,0,0,0,0,0,0,0,0,0,0,0,0,0,0],"sum_hessian":[3.3465432E3,2.400322E3,9.462214E2,2.1123708E3,2.8795105E2,2.7364737E2,6.72574E2,1.8484581E3,2.6391278E2,8.8716034E1,1.9923502E2,2.1418637E2,5.9461E1,6.567678E2,1.1916903E3,1.4443204E2,1.1948074E2,4.3773693E1,4.4942337E1,1.9817732E2,1.0576938E0,7.0354675E1,1.438317E2,8.5637865E0,5.0897213E1],"tree_param":{"num_deleted":"0","num_feature":"11","num_nodes":"25","size_leaf_vector":"1"}},{"base_weights":[9.314033E-4,-5.620791E-1,1.1349466E0,-7.830196E-1,1.1960049E0,4.72202E-1,7.87831E-2,-9.367076E-1,2.8430063E-1,3.098102E-1,7.850684E-2,2.3253861E-1,1.4772216E0,-6.0680807E-2,-3.071783E-2,-2.51889E-3,2.9885033E-2,-6.6151805E-3,3.5651356E-2,-7.296495E-3,4.141075E-2,4.484357E-2,7.776573E-2],"categories":[],"categories_nodes":[],"categories_segments":[],"categories_sizes":[],"default_left":[0,0,0,0,0,0,0,0,0,0,0,0,0,0,0,0,0,0,0,0,0,0,0],"id":6,"left_children":[1,3,5,7,9,11,-1,13,15,17,-1,19,21,-1,-1,-1,-1,-1,-1,-1,-1,-1,-1],"loss_changes":[2.1174072E3,8.617614E2,3.2062317E2,3.2330627E2,8.167569E1,1.0584654E2,0E0,1.5293616E2,2.6110357E1,1.3430342E1,0E0,8.064184E1,2.4439087E0,0E0,0E0,0E0,0E0,0E0,0E0,0E0,0E0,0E0,0E0],"parents":[2147483647,0,0,1,1,2,2,3,3,4,4,5,5,7,7,8,8,9,9,11,11,12,12],"right_children":[2,4,6,8,10,12,-1,14,16,18,-1,20,22,-1,-1,-1,-1,-1,-1,-1,-1,-1,-1],"split_conditions":[8.3333336E-2,1.294131E-1,1.764706E-1,1.764706E-1,1.764706E-1,1.5515077E-1,7.87831E-2,1.3689438E-1,2.6666668E-1,1.2120445E-3,7.850684E-2,1.4318137E-1,1.764706E-1,-6.0680807E-2,-3.071783E-2,-2.51889E-3,2.9885033E-2,-6.6151805E-3,3.5651356E-2,-7.296495E-3,4.141075E-2,4.484357E-2,7.776573E-2],"split_indices":[1,0,1,2,0,0,0,4,2,2,0,2,0,0,0,0,0,0,0,0,0,0,0],"split_type":[0,0,0,0,0,0,0,0,0,0,0,0,0,0,0,0,0,0,0,0,0,0,0],"sum_hessian":[3.3144175E3,2.2151533E3,1.0992644E3,1.9683438E3,2.4680951E2,4.39867E2,6.5939734E2,1.7206957E3,2.47648E2,7.380884E1,1.7300067E2,3.56165E2,8.370201E1,9.241017E2,7.96594E2,1.2016434E2,1.27483665E2,3.552679E1,3.8282047E1,2.1825175E2,1.3791325E2,1.1407985E1,7.229402E1],"tree_param":{"num_deleted":"0","num_feature":"11","num_nodes":"23","size_leaf_vector":"1"}},{"base_weights":[1.1028127E-3,-5.3849757E-1,1.0956444E0,-7.4959713E-1,1.1549557E0,4.514703E-1,7.656447E-2,-8.97494E-1,2.7062026E-1,2.948813E-1,7.629492E-2,2.2147183E-1,1.4327159E0,-6.332333E-2,-3.332123E-2,-2.3938527E-3,2.848812E-2,-1.5536293E-3,4.1172136E-2,-6.9364603E-3,3.9530274E-2,4.304771E-2,7.555089E-2],"categories":[],"categories_nodes":[],"categories_segments":[],"categories_sizes":[],"default_left":[0,0,0,0,0,0,0,0,0,0,0,0,0,0,0,0,0,0,0,0,0,0,0],"id":7,"left_children":[1,3,5,7,9,11,-1,13,15,17,-1,19,21,-1,-1,-1,-1,-1,-1,-1,-1,-1,-1],"loss_changes":[1.9380519E3,7.865791E2,3.0338245E2,2.952079E2,7.739703E1,9.8659676E1,0E0,1.4474268E2,2.3682213E1,1.2906715E1,0E0,7.3186615E1,2.4191895E0,0E0,0E0,0E0,0E0,0E0,0E0,0E0,0E0,0E0,0E0],"parents":[2147483647,0,0,1,1,2,2,3,3,4,4,5,5,7,7,8,8,9,9,11,11,12,12],"right_children":[2,4,6,8,10,12,-1,14,16,18,-1,20,22,-1,-1,-1,-1,-1,-1,-1,-1,-1,-1],"split_conditions":[8.3333336E-2,1.294131E-1,1.764706E-1,1.764706E-1,1.764706E-1,1.5515077E-1,7.656447E-2,1.0749842E-1,2.6666668E-1,1.8390617E-1,7.629492E-2,1.4318137E-1,1.764706E-1,-6.332333E-2,-3.332123E-2,-2.3938527E-3,2.848812E-2,-1.5536293E-3,4.1172136E-2,-6.9364603E-3,3.9530274E-2,4.304771E-2,7.555089E-2],"split_indices":[1,0,1,2,0,0,0,4,2,4,0,2,0,0,0,0,0,0,0,0,0,0,0],"split_type":[0,0,0,0,0,0,0,0,0,0,0,0,0,0,0,0,0,0,0,0,0,0,0],"sum_hessian":[3.279414E3,2.1968784E3,1.0825358E3,1.9538732E3,2.4300514E2,4.3756253E2,6.4497327E2,1.7065951E3,2.4727806E2,7.3765686E1,1.6923946E2,3.5546844E2,8.209409E1,6.5546497E2,1.0511301E3,1.2017133E2,1.27106735E2,4.6210037E1,2.755565E1,2.1815549E2,1.3731296E2,1.1333323E1,7.076077E1],"tree_param":{"num_deleted":"0","num_feature":"11","num_nodes":"23","size_leaf_vector":"1"}},{"base_weights":[1.2689787E-3,-4.5751178E-1,1.1969584E0,-6.676874E-1,1.1187645E0,5.0473017E-1,7.456755E-2,-8.187231E-1,3.710354E-1,3.4183574E-1,1.483619E0,2.8548455E-1,1.4598302E0,-6.176574E-2,-2.9743185E-2,4.96722E-3,3.4964338E-2,6.6236116E-4,4.432225E-2,7.439055E-2,1.8440071E-2,-1.5040108E-3,4.653865E-2,7.391006E-2,2.251106E-2],"categories":[],"categories_nodes":[],"categories_segments":[],"categories_sizes":[],"default_left":[0,0,0,0,0,0,0,0,0,0,0,0,0,0,0,0,0,0,0,0,0,0,0,0,0],"id":8,"left_children":[1,3,5,7,9,11,-1,13,15,17,19,21,23,-1,-1,-1,-1,-1,-1,-1,-1,-1,-1,-1,-1],"loss_changes":[1.7793048E3,7.77354E2,1.825415E2,3.2489618E2,7.7775696E1,5.609883E1,0E0,1.6775E2,2.3415928E1,1.6012856E1,3.28125E-1,4.497869E1,2.64534E-1,0E0,0E0,0E0,0E0,0E0,0E0,0E0,0E0,0E0,0E0,0E0,0E0],"parents":[2147483647,0,0,1,1,2,2,3,3,4,4,5,5,7,7,8,8,9,9,10,10,11,11,12,12],"right_children":[2,4,6,8,10,12,-1,14,16,18,20,22,24,-1,-1,-1,-1,-1,-1,-1,-1,-1,-1,-1,-1],"split_conditions":[1.11883916E-1,1.2508644E-1,1.764706E-1,1.9335903E-1,1.764706E-1,1.7E-1,7.456755E-2,9.9966794E-2,3.04E-1,7.8708574E-2,1.1111111E-1,1.8041682E-1,3.6861002E-1,-6.176574E-2,-2.9743185E-2,4.96722E-3,3.4964338E-2,6.6236116E-4,4.432225E-2,7.439055E-2,1.8440071E-2,-1.5040108E-3,4.653865E-2,7.391006E-2,2.251106E-2],"split_indices":[1,0,1,2,0,0,0,4,2,2,1,2,4,0,0,0,0,0,0,0,0,0,0,0,0],"split_type":[0,0,0,0,0,0,0,0,0,0,0,0,0,0,0,0,0,0,0,0,0,0,0,0,0],"sum_hessian":[3.241598E3,2.3431565E3,8.984414E2,2.0679932E3,2.751632E2,2.6889105E2,6.2955035E2,1.8056537E3,2.623396E2,8.8546745E1,1.8661646E2,2.1974658E2,4.9144466E1,6.295579E2,1.1760957E3,1.4424872E2,1.1809087E2,5.5865044E1,3.2681698E1,1.85584E2,1.0324478E0,1.4821738E2,7.1529205E1,4.781037E1,1.3340943E0],"tree_param":{"num_deleted":"0","num_feature":"11","num_nodes":"25","size_leaf_vector":"1"}},{"base_weights":[1.4498209E-3,-4.971384E-1,1.029596E0,-6.54868E-1,7.249769E-2,4.2315093E-1,7.276232E-2,-8.3028084E-1,9.760188E-2,2.1210912E-1,1.3571717E0,-5.4512717E-2,-2.600362E-2,-3.4235626E-2,1.4020917E-2,-5.760476E-3,3.6649775E-2,2.0741535E-2,6.982096E-2],"categories":[],"categories_nodes":[],"categories_segments":[],"categories_sizes":[],"default_left":[0,0,0,0,0,0,0,0,0,0,0,0,0,0,0,0,0,0,0],"id":9,"left_children":[1,3,5,7,-1,9,-1,11,13,15,17,-1,-1,-1,-1,-1,-1,-1,-1],"loss_changes":[1.64229E3,6.6353894E2,2.6945398E2,2.6360278E2,0E0,8.504305E1,0E0,1.3001172E2,5.4299713E1,6.0490124E1,2.3646698E0,0E0,0E0,0E0,0E0,0E0,0E0,0E0,0E0],"parents":[2147483647,0,0,1,1,2,2,3,3,5,5,7,7,8,8,9,9,10,10],"right_children":[2,4,6,8,-1,10,-1,12,14,16,18,-1,-1,-1,-1,-1,-1,-1,-1],"split_conditions":[8.3333336E-2,1.764706E-1,1.764706E-1,1.2E-1,7.249769E-2,1.5515077E-1,7.276232E-2,1.402073E-1,8.7705635E-2,1.4318137E-1,9.306371E-2,-5.4512717E-2,-2.600362E-2,-3.4235626E-2,1.4020917E-2,-5.760476E-3,3.6649775E-2,2.0741535E-2,6.982096E-2],"split_indices":[1,0,1,2,0,0,0,4,4,2,4,0,0,0,0,0,0,0,0],"split_type":[0,0,0,0,0,0,0,0,0,0,0,0,0,0,0,0,0,0,0],"sum_hessian":[3.20171E3,2.15647E3,1.0452401E3,1.9954839E3,1.6098604E2,4.3189383E2,6.133462E2,1.6181611E3,3.7732278E2,3.532942E2,7.859966E1,8.7899524E2,7.3916583E2,7.095299E1,3.063698E2,2.1743776E2,1.3585641E2,3.6053126E0,7.4994354E1],"tree_param":{"num_deleted":"0","num_feature":"11","num_nodes":"19","size_leaf_vector":"1"}},{"base_weights":[1.5901398E-3,-3.9323118E-1,1.209312E0,-5.913882E-1,1.0779568E0,5.060418E-1,7.112392E-2,-7.984151E-1,1.22629054E-1,3.9970598E-1,1.4161383E0,2.8840882E-1,6.988174E-2,-6.0461696E-2,-2.925094E-2,-2.602434E-2,1.5369165E-2,-2.571811E-3,3.7362915E-2,7.105155E-2,2.6304552E-2,3.179197E-3,4.3936577E-2],"categories":[],"categories_nodes":[],"categories_segments":[],"categories_sizes":[],"default_left":[0,0,0,0,0,0,0,0,0,0,0,0,0,0,0,0,0,0,0,0,0,0,0],"id":10,"left_children":[1,3,5,7,9,11,-1,13,15,17,19,21,-1,-1,-1,-1,-1,-1,-1,-1,-1,-1,-1],"loss_changes":[1.5084558E3,6.956625E2,1.1612146E2,3.1077838E2,6.442746E1,3.5075485E1,0E0,1.4214221E2,5.6394703E1,1.5038936E1,7.406616E-2,1.9616764E1,0E0,0E0,0E0,0E0,0E0,0E0,0E0,0E0,0E0,0E0,0E0],"parents":[2147483647,0,0,1,1,2,2,3,3,4,4,5,5,7,7,8,8,9,9,10,10,11,11],"right_children":[2,4,6,8,10,12,-1,14,16,18,20,22,-1,-1,-1,-1,-1,-1,-1,-1,-1,-1,-1],"split_conditions":[1.2943333E-1,1.2508644E-1,1.764706E-1,1.0714286E-1,1.764706E-1,1.764706E-1,7.112392E-2,9.9966794E-2,8.7705635E-2,1.2120445E-3,4.3214287E3,2.1538769E-1,6.988174E-2,-6.0461696E-2,-2.925094E-2,-2.602434E-2,1.5369165E-2,-2.571811E-3,3.7362915E-2,7.105155E-2,2.6304552E-2,3.179197E-3,4.3936577E-2],"split_indices":[1,0,1,2,0,0,0,4,4,2,3,2,0,0,0,0,0,0,0,0,0,0,0],"split_type":[0,0,0,0,0,0,0,0,0,0,0,0,0,0,0,0,0,0,0,0,0,0,0],"sum_hessian":[3.1614824E3,2.3830908E3,7.7839166E2,2.1007368E3,2.823541E2,1.8184148E2,5.9655023E2,1.6284537E3,4.72283E2,9.46692E1,1.8768489E2,1.4722751E2,3.4613968E1,5.5511346E2,1.0733403E3,1.0499299E2,3.6729E2,4.1566093E1,5.31031E1,1.8606549E2,1.619401E0,1.0742306E2,3.9804447E1],"tree_param":{"num_deleted":"0","num_feature":"11","num_nodes":"23","size_leaf_vector":"1"}},{"base_weights":[1.7369142E-3,-4.6041355E-1,9.731596E-1,-6.0427845E-1,6.936991E-2,4.009855E-1,6.963155E-2,-7.3973525E-1,2.3808153E-1,-2.274578E-1,6.8590415E-1,-4.8577573E-2,-1.9425042E-2,-2.327446E-2,1.8680422E-2,-3.4266286E-2,3.3099707E-2,2.4651876E-2,6.8819195E-2],"categories":[],"categories_nodes":[],"categories_segments":[],"categories_sizes":[],"default_left":[0,0,0,0,0,0,0,0,0,0,0,0,0,0,0,0,0,0,0],"id":11,"left_children":[1,3,5,7,-1,9,-1,11,13,15,17,-1,-1,-1,-1,-1,-1,-1,-1],"loss_changes":[1.4016251E3,5.632338E2,2.4100653E2,2.2421362E2,0E0,7.663931E1,0E0,1.3736432E2,2.6181786E1,5.502455E1,3.849362E1,0E0,0E0,0E0,0E0,0E0,0E0,0E0,0E0],"parents":[2147483647,0,0,1,1,2,2,3,3,5,5,7,7,8,8,9,9,10,10],"right_children":[2,4,6,8,-1,10,-1,12,14,16,18,-1,-1,-1,-1,-1,-1,-1,-1],"split_conditions":[8.3333336E-2,1.764706E-1,1.764706E-1,1.6733527E-1,6.936991E-2,9.9966794E-2,6.963155E-2,1.5252186E-1,8.7705635E-2,1.8041682E-1,1.7E-1,-4.8577573E-2,-1.9425042E-2,-2.327446E-2,1.8680422E-2,-3.4266286E-2,3.3099707E-2,2.4651876E-2,6.8819195E-2],"split_indices":[1,0,1,2,0,4,0,4,4,2,0,0,0,0,0,0,0,0,0],"split_type":[0,0,0,0,0,0,0,0,0,0,0,0,0,0,0,0,0,0,0],"sum_hessian":[3.120055E3,2.1145786E3,1.00547626E3,1.9624604E3,1.5211813E2,4.2614917E2,5.793271E2,1.6907062E3,2.7175433E2,1.3299799E2,2.9315118E2,1.0174311E3,6.73275E2,4.3499172E1,2.2825516E2,8.795198E1,4.504601E1,2.3048544E2,6.2665745E1],"tree_param":{"num_deleted":"0","num_feature":"11","num_nodes":"19","size_leaf_vector":"1"}},{"base_weights":[1.8734211E-3,-4.4209075E-1,9.442061E-1,-6.137421E-1,1.00981E0,3.8365236E-1,6.82677E-2,-7.328288E-1,2.692123E-1,2.946881E-1,6.8004146E-2,-2.1705237E-1,6.5665895E-1,-5.8914162E-2,-2.8159386E-2,2.024191E-3,2.7722934E-2,-1.0030886E-2,3.0700827E-2,-3.2680202E-2,3.1697016E-2,2.3445208E-2,6.741139E-2],"categories":[],"categories_nodes":[],"categories_segments":[],"categories_sizes":[],"default_left":[0,0,0,0,0,0,0,0,0,0,0,0,0,0,0,0,0,0,0,0,0,0,0],"id":12,"left_children":[1,3,5,7,9,11,-1,13,15,17,-1,19,21,-1,-1,-1,-1,-1,-1,-1,-1,-1,-1],"loss_changes":[1.288528E3,5.223842E2,2.3233081E2,1.9712494E2,5.5138306E1,6.9764694E1,0E0,1.2406415E2,1.4547165E1,1.1854832E1,0E0,4.9974617E1,3.7299522E1,0E0,0E0,0E0,0E0,0E0,0E0,0E0,0E0,0E0,0E0],"parents":[2147483647,0,0,1,1,2,2,3,3,4,4,5,5,7,7,8,8,9,9,11,11,12,12],"right_children":[2,4,6,8,10,12,-1,14,16,18,-1,20,22,-1,-1,-1,-1,-1,-1,-1,-1,-1,-1],"split_conditions":[8.3333336E-2,1.294131E-1,1.764706E-1,1.9335903E-1,1.764706E-1,9.9966794E-2,6.82677E-2,8.7705635E-2,3.04E-1,1.4571428E3,6.8004146E-2,1.8041682E-1,1.7E-1,-5.8914162E-2,-2.8159386E-2,2.024191E-3,2.7722934E-2,-1.0030886E-2,3.0700827E-2,-3.2680202E-2,3.1697016E-2,2.3445208E-2,6.741139E-2],"split_indices":[1,0,1,2,0,4,0,4,2,3,0,2,0,0,0,0,0,0,0,0,0,0,0],"split_type":[0,0,0,0,0,0,0,0,0,0,0,0,0,0,0,0,0,0,0,0,0,0,0],"sum_hessian":[3.0779382E3,2.0925835E3,9.853546E2,1.8718596E3,2.2072385E2,4.2353488E2,5.6181976E2,1.64955E3,2.2230965E2,7.317337E1,1.4755048E2,1.3240503E2,2.9112985E2,4.5330002E2,1.19625E3,1.2401143E2,9.8298225E1,2.8828949E1,4.434442E1,8.7665405E1,4.473962E1,2.30287E2,6.0842854E1],"tree_param":{"num_deleted":"0","num_feature":"11","num_nodes":"23","size_leaf_vector":"1"}},{"base_weights":[2.007375E-3,-2.9081857E-1,1.3403502E0,-4.6416277E-1,1.0902749E0,9.923584E-1,6.738112E-2,-6.746662E-1,1.7568894E-1,4.0033188E-1,6.690004E-2,-9.297854E-3,1.1710466E0,-5.2527267E-2,-2.213171E-2,-1.2894835E-3,2.9036527E-2,4.877161E-3,4.135533E-2,1.9501394E-2,6.1724957E-2],"categories":[],"categories_nodes":[],"categories_segments":[],"categories_sizes":[],"default_left":[0,0,0,0,0,0,0,0,0,0,0,0,0,0,0,0,0,0,0,0,0],"id":13,"left_children":[1,3,5,7,9,11,-1,13,15,17,-1,-1,19,-1,-1,-1,-1,-1,-1,-1,-1],"loss_changes":[1.1901018E3,5.9700433E2,4.2236328E-2,2.9838367E2,4.700482E1,3.3660736E0,0E0,1.4487762E2,4.4815136E1,9.599682E0,0E0,0E0,1.6874313E-1,0E0,0E0,0E0,0E0,0E0,0E0,0E0,0E0],"parents":[2147483647,0,0,1,1,2,2,3,3,4,4,5,5,7,7,8,8,9,9,12,12],"right_children":[2,4,6,8,10,12,-1,14,16,18,-1,-1,20,-1,-1,-1,-1,-1,-1,-1,-1],"split_conditions":[1.764706E-1,1.4285715E-1,1.8181819E-1,1.0714286E-1,1.764706E-1,-8.975127E-2,6.738112E-2,1.10509746E-1,2.6666668E-1,9.375E-2,6.690004E-2,-9.297854E-3,9.642857E2,-5.2527267E-2,-2.213171E-2,-1.2894835E-3,2.9036527E-2,4.877161E-3,4.135533E-2,1.9501394E-2,6.1724957E-2],"split_indices":[1,0,1,2,0,2,0,4,2,2,0,0,3,0,0,0,0,0,0,0,0],"split_type":[0,0,0,0,0,0,0,0,0,0,0,0,0,0,0,0,0,0,0,0,0],"sum_hessian":[3.0347427E3,2.4905906E3,5.441521E2,2.2134404E3,2.771501E2,1.3952703E1,5.301994E2,1.6654675E3,5.4797296E2,7.391231E1,2.0323778E2,1.8319145E0,1.2120789E1,6.343416E2,1.031126E3,3.6656833E2,1.8140462E2,4.395536E1,2.9956947E1,1.4477401E0,1.0673049E1],"tree_param":{"num_deleted":"0","num_feature":"11","num_nodes":"21","size_leaf_vector":"1"}},{"base_weights":[2.1559976E-3,-4.1152453E-1,8.990378E-1,-5.3695154E-1,6.559505E-2,3.6981124E-1,1.3174181E0,-6.863653E-1,7.94733E-2,-1.4231029E-1,6.5167266E-1,9.693123E-1,6.623819E-2,-5.624003E-2,-2.6461337E-2,-2.9583652E-2,1.1700489E-2,-2.9991955E-2,2.5227655E-2,2.3903323E-2,6.490378E-2,-8.9705335E-3,5.7432275E-2],"categories":[],"categories_nodes":[],"categories_segments":[],"categories_sizes":[],"default_left":[0,0,0,0,0,0,0,0,0,0,0,0,0,0,0,0,0,0,0,0,0,0,0],"id":14,"left_children":[1,3,5,7,-1,9,11,13,15,17,19,21,-1,-1,-1,-1,-1,-1,-1,-1,-1,-1,-1],"loss_changes":[1.1109508E3,4.4365604E2,2.0878644E2,1.7604755E2,0E0,6.0529026E1,6.47583E-2,1.0537518E2,3.889713E1,4.453461E1,2.9704918E1,3.21937E0,0E0,0E0,0E0,0E0,0E0,0E0,0E0,0E0,0E0,0E0,0E0],"parents":[2147483647,0,0,1,1,2,2,3,3,5,5,6,6,7,7,8,8,9,9,10,10,11,11],"right_children":[2,4,6,8,-1,10,12,14,16,18,20,22,-1,-1,-1,-1,-1,-1,-1,-1,-1,-1,-1],"split_conditions":[8.3333336E-2,1.764706E-1,1.764706E-1,1.2E-1,6.559505E-2,1.0799221E-1,1.8181819E-1,8.7705635E-2,8.7705635E-2,1.4235094E-1,1.7E-1,-8.975127E-2,6.623819E-2,-5.624003E-2,-2.6461337E-2,-2.9583652E-2,1.1700489E-2,-2.9991955E-2,2.5227655E-2,2.3903323E-2,6.490378E-2,-8.9705335E-3,5.7432275E-2],"split_indices":[1,0,1,2,0,4,1,4,4,2,0,2,0,0,0,0,0,0,0,0,0,0,0],"split_type":[0,0,0,0,0,0,0,0,0,0,0,0,0,0,0,0,0,0,0,0,0,0,0],"sum_hessian":[2.9922976E3,2.0481458E3,9.441519E2,1.9098403E3,1.3830536E2,4.176867E2,5.264652E2,1.5371423E3,3.726979E2,1.484532E2,2.6923352E2,1.3627339E1,5.128378E2,4.0394113E2,1.1332013E3,6.922547E1,3.034724E2,8.699443E1,6.145878E1,2.1360469E2,5.562881E1,1.8401E0,1.178724E1],"tree_param":{"num_deleted":"0","num_feature":"11","num_nodes":"23","size_leaf_vector":"1"}},{"base_weights":[2.2753377E-3,-2.6790044E-1,1.2962769E0,-4.8851362E-1,6.987194E-1,9.4648224E-1,6.5186776E-2,-6.785403E-1,1.1691613E-1,2.645152E-1,6.469216E-2,-8.655312E-3,1.1266441E0,-5.5337638E-2,-2.6045129E-2,-2.2359306E-3,2.912866E-2,-3.7753403E-3,2.8893387E-2,5.9676178E-2,1.7008102E-2],"categories":[],"categories_nodes":[],"categories_segments":[],"categories_sizes":[],"default_left":[0,0,0,0,0,0,0,0,0,0,0,0,0,0,0,0,0,0,0,0,0],"id":15,"left_children":[1,3,5,7,9,11,-1,13,15,17,-1,-1,19,-1,-1,-1,-1,-1,-1,-1,-1],"loss_changes":[1.0318649E3,5.210308E2,9.613037E-2,2.2885947E2,1.1700748E2,3.077981E0,0E0,1.0159949E2,3.5845436E1,2.815285E1,0E0,0E0,2.4859715E-1,0E0,0E0,0E0,0E0,0E0,0E0,0E0,0E0],"parents":[2147483647,0,0,1,1,2,2,3,3,4,4,5,5,7,7,8,8,9,9,12,12],"right_children":[2,4,6,8,10,12,-1,14,16,18,-1,-1,20,-1,-1,-1,-1,-1,-1,-1,-1],"split_conditions":[1.764706E-1,8.377717E-2,1.8181819E-1,1.0714286E-1,1.764706E-1,-8.975127E-2,6.5186776E-2,8.7705635E-2,3.04E-1,1.4155221E-1,6.469216E-2,-8.655312E-3,1.8E1,-5.5337638E-2,-2.6045129E-2,-2.2359306E-3,2.912866E-2,-3.7753403E-3,2.8893387E-2,5.9676178E-2,1.7008102E-2],"split_indices":[1,0,1,2,0,2,0,4,2,4,0,0,9,0,0,0,0,0,0,0,0],"split_type":[0,0,0,0,0,0,0,0,0,0,0,0,0,0,0,0,0,0,0,0,0],"sum_hessian":[2.9494985E3,2.4406963E3,5.0880225E2,1.9875657E3,4.531306E2,1.3292762E1,4.955095E2,1.512664E3,4.749017E2,2.6282043E2,1.9031018E2,1.8479738E0,1.1444788E1,4.0540027E2,1.1072637E3,3.5320447E2,1.21697235E2,1.2641035E2,1.364101E2,1.0070854E1,1.3739337E0],"tree_param":{"num_deleted":"0","num_feature":"11","num_nodes":"21","size_leaf_vector":"1"}},{"base_weights":[2.3979761E-3,-2.5711E-1,1.2767678E0,-4.829148E-1,6.159267E-1,9.2537606E-1,6.421737E-2,-6.645281E-1,1.003246E-1,2.2595756E-1,6.369336E-2,-8.35172E-3,1.1064615E0,-4.076971E-2,-1.1959026E-2,-1.9858354E-3,2.5633603E-2,-1.4350228E-2,2.6118282E-2,1.6596455E-2,5.8682747E-2],"categories":[],"categories_nodes":[],"categories_segments":[],"categories_sizes":[],"default_left":[0,0,0,0,0,0,0,0,0,0,0,0,0,0,0,0,0,0,0,0,0],"id":16,"left_children":[1,3,5,7,9,11,-1,13,15,17,-1,-1,19,-1,-1,-1,-1,-1,-1,-1,-1],"loss_changes":[9.6224133E2,4.768486E2,1.22558594E-1,2.0356573E2,1.272805E2,2.9486885E0,0E0,9.382318E1,2.6413054E1,4.7798725E1,0E0,0E0,2.409935E-1,0E0,0E0,0E0,0E0,0E0,0E0,0E0,0E0],"parents":[2147483647,0,0,1,1,2,2,3,3,4,4,5,5,7,7,8,8,9,9,12,12],"right_children":[2,4,6,8,10,12,-1,14,16,18,-1,-1,20,-1,-1,-1,-1,-1,-1,-1,-1],"split_conditions":[1.764706E-1,7.474878E-2,1.8181819E-1,1.0714286E-1,1.764706E-1,-8.975127E-2,6.421737E-2,1.9219717E-1,3.04E-1,1.2105288E-1,6.369336E-2,-8.35172E-3,9.642857E2,-4.076971E-2,-1.1959026E-2,-1.9858354E-3,2.5633603E-2,-1.4350228E-2,2.6118282E-2,1.6596455E-2,5.8682747E-2],"split_indices":[1,0,1,2,0,2,0,4,2,4,0,0,3,0,0,0,0,0,0,0,0],"split_type":[0,0,0,0,0,0,0,0,0,0,0,0,0,0,0,0,0,0,0,0,0],"sum_hessian":[2.9076375E3,2.4163743E3,4.9126324E2,1.9201799E3,4.9619418E2,1.2971675E1,4.7829156E2,1.4641295E3,4.560505E2,3.1238394E2,1.8381026E2,1.8555479E0,1.1116127E1,1.0801094E3,3.8402005E2,3.4110742E2,1.149431E2,1.1441306E2,1.9797087E2,1.3615505E0,9.754577E0],"tree_param":{"num_deleted":"0","num_feature":"11","num_nodes":"21","size_leaf_vector":"1"}},{"base_weights":[2.5304523E-3,-3.709444E-1,8.410699E-1,-4.803162E-1,6.262935E-2,3.553561E-1,1.2587131E0,-9.773838E-1,-3.226016E-1,-1.6092284E-1,5.933438E-1,9.0514344E-1,6.33217E-2,-5.1995046E-2,9.070291E-3,-3.454373E-2,-1.7636456E-3,-2.6806507E-2,2.8282667E-2,2.2261461E-2,6.255136E-2,-8.05927E-3,5.4363903E-2],"categories":[],"categories_nodes":[],"categories_segments":[],"categories_sizes":[],"default_left":[0,0,0,0,0,0,0,0,0,0,0,0,0,0,0,0,0,0,0,0,0,0,0],"id":17,"left_children":[1,3,5,7,-1,9,11,13,15,17,19,21,-1,-1,-1,-1,-1,-1,-1,-1,-1,-1,-1],"loss_changes":[8.9841364E2,3.5303275E2,1.7887341E2,1.4551596E2,0E0,5.048124E1,1.5020752E-1,3.2612427E1,1.4956114E2,3.5791405E1,2.6806587E1,2.8270702E0,0E0,0E0,0E0,0E0,0E0,0E0,0E0,0E0,0E0,0E0,0E0],"parents":[2147483647,0,0,1,1,2,2,3,3,5,5,6,6,7,7,8,8,9,9,10,10,11,11],"right_children":[2,4,6,8,-1,10,12,14,16,18,20,22,-1,-1,-1,-1,-1,-1,-1,-1,-1,-1,-1],"split_conditions":[8.3333336E-2,1.764706E-1,1.764706E-1,8.7705635E-2,6.262935E-2,9.9966794E-2,1.8181819E-1,2.2580644E-1,-7.692308E-2,1.8041682E-1,1.764706E-1,-8.975127E-2,6.33217E-2,-5.1995046E-2,9.070291E-3,-3.454373E-2,-1.7636456E-3,-2.6806507E-2,2.8282667E-2,2.2261461E-2,6.255136E-2,-8.05927E-3,5.4363903E-2],"split_indices":[1,0,1,4,0,4,1,2,1,2,0,2,0,0,0,0,0,0,0,0,0,0,0],"split_type":[0,0,0,0,0,0,0,0,0,0,0,0,0,0,0,0,0,0,0,0,0,0,0],"sum_hessian":[2.8667456E3,1.9837611E3,8.829845E2,1.8592162E3,1.2454491E2,4.0908026E2,4.7390424E2,4.4656967E2,1.4126465E3,1.2917598E2,2.7990427E2,1.2654008E1,4.612502E2,4.238077E2,2.276197E1,6.1850104E2,7.941455E2,8.535855E1,4.3817432E1,2.2982349E2,5.008079E1,1.8628345E0,1.0791173E1],"tree_param":{"num_deleted":"0","num_feature":"11","num_nodes":"23","size_leaf_vector":"1"}},{"base_weights":[2.6388904E-3,-2.3663206E-1,1.2419517E0,-4.546509E-1,5.5426013E-1,8.848543E-1,6.2492546E-2,-6.500959E-1,3.385456E-2,2.0785698E-1,1.2386582E0,-7.777532E-3,1.0681609E0,-3.994346E-2,-1.2180201E-2,-2.528876E-2,8.248503E-3,-1.2191933E-2,2.410143E-2,6.2199462E-2,2.4102671E-2,5.6969922E-2,1.4280237E-2],"categories":[],"categories_nodes":[],"categories_segments":[],"categories_sizes":[],"default_left":[0,0,0,0,0,0,0,0,0,0,0,0,0,0,0,0,0,0,0,0,0,0,0],"id":18,"left_children":[1,3,5,7,9,11,-1,13,15,17,19,-1,21,-1,-1,-1,-1,-1,-1,-1,-1,-1,-1],"loss_changes":[8.3883496E2,4.090923E2,1.8536377E-1,1.775346E2,1.21320786E2,2.7085915E0,0E0,8.011597E1,3.774177E1,4.2432846E1,9.463501E-2,0E0,3.135233E-1,0E0,0E0,0E0,0E0,0E0,0E0,0E0,0E0,0E0,0E0],"parents":[2147483647,0,0,1,1,2,2,3,3,4,4,5,5,7,7,8,8,9,9,10,10,12,12],"right_children":[2,4,6,8,10,12,-1,14,16,18,20,-1,22,-1,-1,-1,-1,-1,-1,-1,-1,-1,-1],"split_conditions":[1.764706E-1,7.013843E-2,1.8181819E-1,7.4870415E-2,1.764706E-1,-8.975127E-2,6.2492546E-2,1.9219717E-1,7.745474E-2,1.2105288E-1,4.3214287E3,-7.777532E-3,1.8E1,-3.994346E-2,-1.2180201E-2,-2.528876E-2,8.248503E-3,-1.2191933E-2,2.410143E-2,6.2199462E-2,2.4102671E-2,5.6969922E-2,1.4280237E-2],"split_indices":[1,0,1,2,0,2,0,4,4,4,3,0,9,0,0,0,0,0,0,0,0,0,0],"split_type":[0,0,0,0,0,0,0,0,0,0,0,0,0,0,0,0,0,0,0,0,0,0,0],"sum_hessian":[2.8268308E3,2.3700588E3,4.567721E2,1.8582384E3,5.118204E2,1.2331221E1,4.444409E2,1.3269938E3,5.3124457E2,3.4068756E2,1.7113284E2,1.8698443E0,1.0461376E1,9.7074316E2,3.5625064E2,1.032877E2,4.2795688E2,1.2872491E2,2.1196266E2,1.692958E2,1.8370328E0,9.170567E0,1.29081E0],"tree_param":{"num_deleted":"0","num_feature":"11","num_nodes":"23","size_leaf_vector":"1"}},{"base_weights":[2.7473788E-3,-2.2698388E-1,1.2263889E0,-3.3700868E-1,1.2226475E0,8.660231E-1,6.172359E-2,-5.454542E-1,1.3583848E-1,6.1404288E-2,2.3531755E-2,-7.506059E-3,1.0505598E0,-4.5530934E-2,-1.7147211E-2,-1.0066287E-3,2.6696896E-2,1.3926648E-2,5.6124073E-2],"categories":[],"categories_nodes":[],"categories_segments":[],"categories_sizes":[],"default_left":[0,0,0,0,0,0,0,0,0,0,0,0,0,0,0,0,0,0,0],"id":19,"left_children":[1,3,5,7,9,11,-1,13,15,-1,-1,-1,17,-1,-1,-1,-1,-1,-1],"loss_changes":[7.841601E2,3.7500333E2,2.1520996E-1,2.1530637E2,1.00479126E-1,2.5998182E0,0E0,1.1177927E2,4.1545204E1,0E0,0E0,0E0,3.062849E-1,0E0,0E0,0E0,0E0,0E0,0E0],"parents":[2147483647,0,0,1,1,2,2,3,3,4,4,5,5,7,7,8,8,12,12],"right_children":[2,4,6,8,10,12,-1,14,16,-1,-1,-1,18,-1,-1,-1,-1,-1,-1],"split_conditions":[1.764706E-1,1.764706E-1,1.8181819E-1,7.8708574E-2,4.3214287E3,-8.975127E-2,6.172359E-2,1.10509746E-1,2.6666668E-1,6.1404288E-2,2.3531755E-2,-7.506059E-3,9.642857E2,-4.5530934E-2,-1.7147211E-2,-1.0066287E-3,2.6696896E-2,1.3926648E-2,5.6124073E-2],"split_indices":[1,0,1,2,3,2,0,4,2,0,0,0,3,0,0,0,0,0,0],"split_type":[0,0,0,0,0,0,0,0,0,0,0,0,0,0,0,0,0,0,0],"sum_hessian":[2.7875356E3,2.347602E3,4.399335E2,2.1827056E3,1.648965E2,1.2023461E1,4.2791003E2,1.5147874E3,6.679182E2,1.6308408E2,1.8124133E0,1.8765892E0,1.0146872E1,5.39132E2,9.756554E2,4.8058115E2,1.8733707E2,1.2799766E0,8.866896E0],"tree_param":{"num_deleted":"0","num_feature":"11","num_nodes":"19","size_leaf_vector":"1"}},{"base_weights":[2.8623757E-3,-2.177835E-1,1.2118999E0,-4.216417E-1,5.2959085E-1,8.478402E-1,6.1009277E-2,-5.839185E-1,8.6435676E-2,2.0943049E-1,1.2077065E0,-7.2444617E-3,1.033688E0,-5.0984144E-2,-2.233481E-2,-4.9886983E-3,1.7763888E-2,-1.0767989E-2,2.3266925E-2,6.0663372E-2,2.297504E-2,5.5378318E-2,1.2981183E-2],"categories":[],"categories_nodes":[],"categories_segments":[],"categories_sizes":[],"default_left":[0,0,0,0,0,0,0,0,0,0,0,0,0,0,0,0,0,0,0,0,0,0,0],"id":20,"left_children":[1,3,5,7,9,11,-1,13,15,17,19,-1,21,-1,-1,-1,-1,-1,-1,-1,-1,-1,-1],"loss_changes":[7.336244E2,3.5455212E2,2.456665E-1,1.5074939E2,1.0804971E2,2.4968243E0,0E0,8.2389496E1,2.222914E1,3.70683E1,1.0726929E-1,0E0,3.3225536E-1,0E0,0E0,0E0,0E0,0E0,0E0,0E0,0E0,0E0,0E0],"parents":[2147483647,0,0,1,1,2,2,3,3,4,4,5,5,7,7,8,8,9,9,10,10,12,12],"right_children":[2,4,6,8,10,12,-1,14,16,18,20,-1,22,-1,-1,-1,-1,-1,-1,-1,-1,-1,-1],"split_conditions":[1.764706E-1,7.013843E-2,1.8181819E-1,1.0714286E-1,1.764706E-1,-8.975127E-2,6.1009277E-2,8.428605E-2,3.846154E-2,1.2105288E-1,4.3214287E3,-7.2444617E-3,1.8E1,-5.0984144E-2,-2.233481E-2,-4.9886983E-3,1.7763888E-2,-1.0767989E-2,2.3266925E-2,6.0663372E-2,2.297504E-2,5.5378318E-2,1.2981183E-2],"split_indices":[1,0,1,2,0,2,0,4,1,4,3,0,9,0,0,0,0,0,0,0,0,0,0],"split_type":[0,0,0,0,0,0,0,0,0,0,0,0,0,0,0,0,0,0,0,0,0,0,0],"sum_hessian":[2.7480454E3,2.3246274E3,4.2341794E2,1.8267799E3,4.978474E2,1.1721398E1,4.1169656E2,1.3844469E3,4.4233307E2,3.3907022E2,1.5877718E2,1.8830789E0,9.838319E0,3.3001556E2,1.0544313E3,2.616995E2,1.8063356E2,1.2753275E2,2.1153746E2,1.5698882E2,1.7883615E0,8.587832E0,1.250487E0],"tree_param":{"num_deleted":"0","num_feature":"11","num_nodes":"23","size_leaf_vector":"1"}},{"base_weights":[2.9534223E-3,-2.0895459E-1,1.198384E0,-3.091753E-1,1.1937343E0,8.301971E-1,6.0344648E-2,-5.05143E-1,1.2815684E-1,5.997166E-2,2.2432033E-2,-6.9923303E-3,1.0174136E0,-4.3161154E-2,-1.5631733E-2,-2.037747E-2,1.1854942E-2,1.2656242E-2,5.46088E-2],"categories":[],"categories_nodes":[],"categories_segments":[],"categories_sizes":[],"default_left":[0,0,0,0,0,0,0,0,0,0,0,0,0,0,0,0,0,0,0],"id":21,"left_children":[1,3,5,7,9,11,-1,13,15,-1,-1,-1,17,-1,-1,-1,-1,-1,-1],"loss_changes":[6.8684326E2,3.241362E2,2.770996E-1,1.8435341E2,1.1489868E-1,2.398881E0,0E0,1.0210516E2,3.897609E1,0E0,0E0,0E0,3.2559013E-1,0E0,0E0,0E0,0E0,0E0,0E0],"parents":[2147483647,0,0,1,1,2,2,3,3,4,4,5,5,7,7,8,8,12,12],"right_children":[2,4,6,8,10,12,-1,14,16,-1,-1,-1,18,-1,-1,-1,-1,-1,-1],"split_conditions":[1.764706E-1,1.764706E-1,1.8181819E-1,7.8708574E-2,4.3214287E3,-8.975127E-2,6.0344648E-2,1.10509746E-1,7.4074E-2,5.997166E-2,2.2432033E-2,-6.9923303E-3,9.642857E2,-4.3161154E-2,-1.5631733E-2,-2.037747E-2,1.1854942E-2,1.2656242E-2,5.46088E-2],"split_indices":[1,0,1,2,3,2,0,4,4,0,0,0,3,0,0,0,0,0,0],"split_type":[0,0,0,0,0,0,0,0,0,0,0,0,0,0,0,0,0,0,0],"sum_hessian":[2.7093635E3,2.302106E3,4.072576E2,2.1493188E3,1.5278711E2,1.1425648E1,3.9583194E2,1.4841287E3,6.651902E2,1.5102223E2,1.7648764E0,1.8893242E0,9.536324E0,5.176941E2,9.664345E2,1.1195025E2,5.532399E2,1.2405033E0,8.29582E0],"tree_param":{"num_deleted":"0","num_feature":"11","num_nodes":"19","size_leaf_vector":"1"}},{"base_weights":[3.038188E-3,-3.1467152E-1,7.6426005E-1,-4.0151143E-1,5.8912586E-2,3.4450367E-1,1.1857563E0,-8.77349E-1,-2.6116127E-1,-1.10071E-1,5.4800326E-1,8.130919E-1,5.9725363E-2,-4.702802E-2,8.967028E-3,-3.0656055E-2,5.15714E-4,-2.2775589E-2,2.6966918E-2,2.1448892E-2,5.8805954E-2,-6.749318E-3,5.0086647E-2],"categories":[],"categories_nodes":[],"categories_segments":[],"categories_sizes":[],"default_left":[0,0,0,0,0,0,0,0,0,0,0,0,0,0,0,0,0,0,0,0,0,0,0],"id":22,"left_children":[1,3,5,7,-1,9,11,13,15,17,19,21,-1,-1,-1,-1,-1,-1,-1,-1,-1,-1,-1],"loss_changes":[6.4670154E2,2.4506271E2,1.3890369E2,1.1888956E2,0E0,3.668577E1,3.086548E-1,2.7276642E1,1.3174898E2,2.789846E1,1.995472E1,2.3057985E0,0E0,0E0,0E0,0E0,0E0,0E0,0E0,0E0,0E0,0E0,0E0],"parents":[2147483647,0,0,1,1,2,2,3,3,5,5,6,6,7,7,8,8,9,9,10,10,11,11],"right_children":[2,4,6,8,-1,10,12,14,16,18,20,22,-1,-1,-1,-1,-1,-1,-1,-1,-1,-1,-1],"split_conditions":[8.3333336E-2,1.764706E-1,1.764706E-1,8.7705635E-2,5.8912586E-2,9.805932E-2,1.8181819E-1,2.2580644E-1,-7.692308E-2,1.8041682E-1,1.764706E-1,-8.975127E-2,5.9725363E-2,-4.702802E-2,8.967028E-3,-3.0656055E-2,5.15714E-4,-2.2775589E-2,2.6966918E-2,2.1448892E-2,5.8805954E-2,-6.749318E-3,5.0086647E-2],"split_indices":[1,0,1,4,0,4,1,2,1,2,0,2,0,0,0,0,0,0,0,0,0,0,0],"split_type":[0,0,0,0,0,0,0,0,0,0,0,0,0,0,0,0,0,0,0,0,0,0,0],"sum_hessian":[2.6720103E3,1.8856055E3,7.864049E2,1.7826442E3,1.02961266E2,3.9492624E2,3.9147867E2,4.0483994E2,1.3778042E3,1.22266975E2,2.7265927E2,1.113654E1,3.8034213E2,3.82093E2,2.2746979E1,5.994182E2,7.78386E2,8.000724E1,4.225973E1,2.3063737E2,4.20219E1,1.8953342E0,9.241205E0],"tree_param":{"num_deleted":"0","num_feature":"11","num_nodes":"23","size_leaf_vector":"1"}},{"base_weights":[3.1180421E-3,-1.9221061E-1,1.173919E0,-3.7769616E-1,4.990165E-1,7.956244E-1,5.9147503E-2,-4.9406746E-1,2.2766572E-1,2.1500698E-1,1.1686908E0,6.87615E-2,5.3703465E-2,-3.1374104E-2,-1.5550246E-3,-5.787205E-3,2.0874867E-2,-8.866136E-3,2.241627E-2,5.8740985E-2,2.0616118E-2,-3.878203E-2,4.046188E-2],"categories":[],"categories_nodes":[],"categories_segments":[],"categories_sizes":[],"default_left":[0,0,0,0,0,0,0,0,0,0,0,0,0,0,0,0,0,0,0,0,0,0,0],"id":23,"left_children":[1,3,5,7,9,11,-1,13,15,17,19,21,-1,-1,-1,-1,-1,-1,-1,-1,-1,-1,-1],"loss_changes":[6.0314886E2,2.899896E2,3.4710693E-1,1.2569594E2,9.078399E1,2.3238063E0,0E0,9.235556E1,1.8830894E1,3.0957787E1,1.7532349E-1,3.3473208E0,0E0,0E0,0E0,0E0,0E0,0E0,0E0,0E0,0E0,0E0,0E0],"parents":[2147483647,0,0,1,1,2,2,3,3,4,4,5,5,7,7,8,8,9,9,10,10,11,11],"right_children":[2,4,6,8,10,12,-1,14,16,18,20,22,-1,-1,-1,-1,-1,-1,-1,-1,-1,-1,-1],"split_conditions":[1.764706E-1,7.013843E-2,1.8181819E-1,1.764706E-1,1.764706E-1,1.0571428E3,5.9147503E-2,2.1158E-1,-1.4917641E-2,1.2105288E-1,4.3214287E3,5E0,5.3703465E-2,-3.1374104E-2,-1.5550246E-3,-5.787205E-3,2.0874867E-2,-8.866136E-3,2.241627E-2,5.8740985E-2,2.0616118E-2,-3.878203E-2,4.046188E-2],"split_indices":[1,0,1,2,0,3,0,4,1,4,3,8,0,0,0,0,0,0,0,0,0,0,0],"split_type":[0,0,0,0,0,0,0,0,0,0,0,0,0,0,0,0,0,0,0,0,0,0,0],"sum_hessian":[2.6354104E3,2.2593167E3,3.760936E2,1.7816721E3,4.7764456E2,1.0846657E1,3.6524695E2,1.4945519E3,2.8712027E2,3.3632843E2,1.4131615E2,3.3496232E0,7.4970336E0,1.1599346E3,3.3461725E2,1.0235249E2,1.8476776E2,1.2551403E2,2.1081439E2,1.3963147E2,1.6846725E0,1.5428009E0,1.8068224E0],"tree_param":{"num_deleted":"0","num_feature":"11","num_nodes":"23","size_leaf_vector":"1"}},{"base_weights":[3.225651E-3,-1.8429162E-1,1.1628212E0,-3.6200857E-1,4.8038018E-1,7.790039E-1,5.8607604E-2,-5.2910936E-1,3.5054095E-2,2.0442002E-1,1.1571039E0,6.62334E-2,5.2986443E-2,-4.4326942E-2,-1.886438E-2,-3.7565432E-2,5.2653584E-3,-2.6138492E-3,2.658884E-2,5.8170773E-2,2.0130157E-2,-3.713357E-2,3.9790414E-2],"categories":[],"categories_nodes":[],"categories_segments":[],"categories_sizes":[],"default_left":[0,0,0,0,0,0,0,0,0,0,0,0,0,0,0,0,0,0,0,0,0,0,0],"id":24,"left_children":[1,3,5,7,9,11,-1,13,15,17,19,21,-1,-1,-1,-1,-1,-1,-1,-1,-1,-1,-1],"loss_changes":[5.656993E2,2.6470663E2,3.8381958E-1,1.17296265E2,8.807391E1,2.2461553E0,0E0,6.717709E1,2.9053698E1,2.8356495E1,1.829071E-1,3.1509588E0,0E0,0E0,0E0,0E0,0E0,0E0,0E0,0E0,0E0,0E0,0E0],"parents":[2147483647,0,0,1,1,2,2,3,3,4,4,5,5,7,7,8,8,9,9,10,10,11,11],"right_children":[2,4,6,8,10,12,-1,14,16,18,20,22,-1,-1,-1,-1,-1,-1,-1,-1,-1,-1,-1],"split_conditions":[1.764706E-1,7.013843E-2,1.8181819E-1,7.4870415E-2,1.764706E-1,1.0571428E3,5.8607604E-2,9.9966794E-2,5.2386962E-2,1.508151E-1,4.3214287E3,5E0,5.2986443E-2,-4.4326942E-2,-1.886438E-2,-3.7565432E-2,5.2653584E-3,-2.6138492E-3,2.658884E-2,5.8170773E-2,2.0130157E-2,-3.713357E-2,3.9790414E-2],"split_indices":[1,0,1,2,0,3,0,4,4,4,3,8,0,0,0,0,0,0,0,0,0,0,0],"split_type":[0,0,0,0,0,0,0,0,0,0,0,0,0,0,0,0,0,0,0,0,0,0,0],"sum_hessian":[2.5995981E3,2.2384597E3,3.611385E2,1.7665759E3,4.718838E2,1.0576374E1,3.505621E2,1.2430961E3,5.234799E2,3.3611996E2,1.3576381E2,3.3377209E0,7.2386537E0,3.6915826E2,8.7393774E2,4.2136765E1,4.8134317E2,1.8886313E2,1.4725685E2,1.3410005E2,1.6637511E0,1.5742948E0,1.763426E0],"tree_param":{"num_deleted":"0","num_feature":"11","num_nodes":"23","size_leaf_vector":"1"}},{"base_weights":[3.2794587E-3,-1.7673519E-1,1.1524063E0,-2.598584E-1,1.1461829E0,7.629724E-1,5.810252E-2,-4.443192E-1,1.52734E-1,1.1526924E0,1.9655768E-2,6.404296E-2,5.2296754E-2,-3.6081832E-2,-9.817142E-3,-2.3985442E-2,1.5894309E-2,2.5806641E-2,5.8013856E-2,-3.55733E-2,3.9138164E-2],"categories":[],"categories_nodes":[],"categories_segments":[],"categories_sizes":[],"default_left":[0,0,0,0,0,0,0,0,0,0,0,0,0,0,0,0,0,0,0,0,0],"id":25,"left_children":[1,3,5,7,9,11,-1,13,15,17,-1,19,-1,-1,-1,-1,-1,-1,-1,-1,-1],"loss_changes":[5.3092456E2,2.443104E2,4.189453E-1,1.5902734E2,1.9082642E-1,2.1702313E0,0E0,9.913196E1,6.76299E1,2.746582E-2,0E0,2.96765E0,0E0,0E0,0E0,0E0,0E0,0E0,0E0,0E0,0E0],"parents":[2147483647,0,0,1,1,2,2,3,3,4,4,5,5,7,7,8,8,9,9,11,11],"right_children":[2,4,6,8,10,12,-1,14,16,18,-1,20,-1,-1,-1,-1,-1,-1,-1,-1,-1],"split_conditions":[1.764706E-1,1.764706E-1,1.8181819E-1,2.8113758E-2,4.3214287E3,1.0571428E3,5.810252E-2,1.402073E-1,7.57203E-2,-4.111628E-1,1.9655768E-2,5E0,5.2296754E-2,-3.6081832E-2,-9.817142E-3,-2.3985442E-2,1.5894309E-2,2.5806641E-2,5.8013856E-2,-3.55733E-2,3.9138164E-2],"split_indices":[1,0,1,1,3,3,0,4,4,2,0,8,0,0,0,0,0,0,0,0,0],"split_type":[0,0,0,0,0,0,0,0,0,0,0,0,0,0,0,0,0,0,0,0,0],"sum_hessian":[2.5646084E3,2.2179976E3,3.4661072E2,2.087629E3,1.3036888E2,1.0312165E1,3.3629855E2,1.4425986E3,6.450302E2,1.2872552E2,1.6433672E0,3.3251748E0,6.9869905E0,6.8010834E2,7.6249023E2,1.3316733E2,5.1186288E2,2.3287518E0,1.2639677E2,1.6042552E0,1.7209197E0],"tree_param":{"num_deleted":"0","num_feature":"11","num_nodes":"21","size_leaf_vector":"1"}},{"base_weights":[3.356592E-3,-1.692727E-1,1.1426182E0,-2.4850693E-1,1.1359066E0,7.474863E-1,5.7629466E-2,-4.907911E-1,4.511046E-2,1.1426288E0,1.9192617E-2,6.2159035E-2,5.163178E-2,-4.4219747E-2,-1.7408056E-2,-2.4340188E-2,8.594128E-3,2.5235746E-2,5.752148E-2,3.953863E-2,-3.3071622E-2],"categories":[],"categories_nodes":[],"categories_segments":[],"categories_sizes":[],"default_left":[0,0,0,0,0,0,0,0,0,0,0,0,0,0,0,0,0,0,0,0,0],"id":26,"left_children":[1,3,5,7,9,11,-1,13,15,17,-1,19,-1,-1,-1,-1,-1,-1,-1,-1,-1],"loss_changes":[4.9847336E2,2.2790527E2,4.5251465E-1,1.4770021E2,1.9915771E-1,2.0960464E0,0E0,6.354901E1,6.3432423E1,3.904724E-2,0E0,2.7964423E0,0E0,0E0,0E0,0E0,0E0,0E0,0E0,0E0,0E0],"parents":[2147483647,0,0,1,1,2,2,3,3,4,4,5,5,7,7,8,8,9,9,11,11],"right_children":[2,4,6,8,10,12,-1,14,16,18,-1,20,-1,-1,-1,-1,-1,-1,-1,-1,-1],"split_conditions":[1.764706E-1,1.764706E-1,1.8181819E-1,4.065694E-3,4.3214287E3,1.0571428E3,5.7629466E-2,9.9966794E-2,7.651114E-2,-4.111628E-1,1.9192617E-2,8.785714E2,5.163178E-2,-4.4219747E-2,-1.7408056E-2,-2.4340188E-2,8.594128E-3,2.5235746E-2,5.752148E-2,3.953863E-2,-3.3071622E-2],"split_indices":[1,0,1,2,3,3,0,4,4,2,0,3,0,0,0,0,0,0,0,0,0],"split_type":[0,0,0,0,0,0,0,0,0,0,0,0,0,0,0,0,0,0,0,0,0],"sum_hessian":[2.532585E3,2.2000662E3,3.3251877E2,2.0749128E3,1.25153275E2,1.0054282E1,3.2246448E2,1.1364648E3,9.3844794E2,1.2352976E2,1.6235123E0,3.3120632E0,6.742219E0,3.00899E2,8.355659E2,1.8006902E2,7.583789E2,2.2860775E0,1.2124368E2,1.6040432E0,1.7080199E0],"tree_param":{"num_deleted":"0","num_feature":"11","num_nodes":"21","size_leaf_vector":"1"}},{"base_weights":[3.4101226E-3,-1.6219734E-1,1.1333792E0,-3.2372853E-1,4.514714E-1,7.3207164E-1,5.7185896E-2,-5.6891996E-1,-8.4690616E-2,2.0630364E-1,1.1261874E0,-7.784723E-3,9.340415E-1,-3.8388103E-2,-1.1016526E-3,-2.915672E-2,5.155968E-3,-7.193806E-3,2.0631805E-2,1.8820269E-2,5.666926E-2,5.1140815E-2,7.2246157E-3],"categories":[],"categories_nodes":[],"categories_segments":[],"categories_sizes":[],"default_left":[0,0,0,0,0,0,0,0,0,0,0,0,0,0,0,0,0,0,0,0,0,0,0],"id":27,"left_children":[1,3,5,7,9,11,-1,13,15,17,19,-1,21,-1,-1,-1,-1,-1,-1,-1,-1,-1,-1],"loss_changes":[4.6828714E2,2.1649927E2,4.8983765E-1,1.0125229E2,7.506825E1,2.084062E0,0E0,9.2745514E1,8.209738E1,2.4272463E1,2.2692871E-1,0E0,4.7961426E-1,0E0,0E0,0E0,0E0,0E0,0E0,0E0,0E0,0E0,0E0],"parents":[2147483647,0,0,1,1,2,2,3,3,4,4,5,5,7,7,8,8,9,9,10,10,12,12],"right_children":[2,4,6,8,10,12,-1,14,16,18,20,-1,22,-1,-1,-1,-1,-1,-1,-1,-1,-1,-1],"split_conditions":[1.764706E-1,7.013843E-2,1.8181819E-1,-2.8932301E-2,1.764706E-1,-8.975127E-2,5.7185896E-2,2.20917E-1,8.428605E-2,1.2105288E-1,8.856431E-2,-7.784723E-3,1.8E1,-3.8388103E-2,-1.1016526E-3,-2.915672E-2,5.155968E-3,-7.193806E-3,2.0631805E-2,1.8820269E-2,5.666926E-2,5.1140815E-2,7.2246157E-3],"split_indices":[1,0,1,1,0,2,0,4,4,4,4,0,9,0,0,0,0,0,0,0,0,0,0],"split_type":[0,0,0,0,0,0,0,0,0,0,0,0,0,0,0,0,0,0,0,0,0,0,0],"sum_hessian":[2.5004695E3,2.181593E3,3.1887625E2,1.7273807E3,4.5421237E2,9.812139E0,3.0906412E2,8.520335E2,8.753472E2,3.3411328E2,1.2009909E2,1.8610299E0,7.9511085E0,6.2455005E2,2.2748347E2,2.3898392E2,6.3636334E2,1.2398807E2,2.101252E2,1.6487132E0,1.1845038E2,6.881884E0,1.0692245E0],"tree_param":{"num_deleted":"0","num_feature":"11","num_nodes":"23","size_leaf_vector":"1"}},{"base_weights":[3.45037E-3,-1.5534781E-1,1.1246756E0,-2.2737847E-1,1.1169168E0,7.16992E-1,5.676951E-2,-4.0112767E-1,1.544365E-1,1.1242257E0,1.7528953E-2,4.426423E-2,5.0528336E-2,-3.339371E-2,-8.505057E-3,-2.0740522E-2,1.4993831E-2,2.3414552E-2,5.6631006E-2,-3.3853E-2,3.763638E-2],"categories":[],"categories_nodes":[],"categories_segments":[],"categories_sizes":[],"default_left":[0,0,0,0,0,0,0,0,0,0,0,0,0,0,0,0,0,0,0,0,0],"id":28,"left_children":[1,3,5,7,9,11,-1,13,15,17,-1,19,-1,-1,-1,-1,-1,-1,-1,-1,-1],"loss_changes":[4.4012698E2,1.9868661E2,5.255432E-1,1.3606636E2,2.5668335E-1,2.0422063E0,0E0,8.673091E1,5.3266582E1,1.0084534E-1,0E0,2.6846921E0,0E0,0E0,0E0,0E0,0E0,0E0,0E0,0E0,0E0],"parents":[2147483647,0,0,1,1,2,2,3,3,4,4,5,5,7,7,8,8,9,9,11,11],"right_children":[2,4,6,8,10,12,-1,14,16,18,-1,20,-1,-1,-1,-1,-1,-1,-1,-1,-1],"split_conditions":[1.764706E-1,1.764706E-1,1.8181819E-1,2.8113758E-2,4.3214287E3,1.0571428E3,5.676951E-2,1.402073E-1,7.57203E-2,-4.111628E-1,1.7528953E-2,5E0,5.0528336E-2,-3.339371E-2,-8.505057E-3,-2.0740522E-2,1.4993831E-2,2.3414552E-2,5.6631006E-2,-3.3853E-2,3.763638E-2],"split_indices":[1,0,1,1,3,3,0,4,4,2,0,8,0,0,0,0,0,0,0,0,0],"split_type":[0,0,0,0,0,0,0,0,0,0,0,0,0,0,0,0,0,0,0,0,0],"sum_hessian":[2.4699685E3,2.1643018E3,3.0566678E2,2.0491104E3,1.15191345E2,9.567E0,2.9609976E2,1.4082291E3,6.4088116E2,1.1364048E2,1.5508593E0,3.256194E0,6.3108068E0,6.5270996E2,7.5551917E2,1.3004356E2,5.108376E2,2.1534886E0,1.1148699E2,1.6354162E0,1.6207781E0],"tree_param":{"num_deleted":"0","num_feature":"11","num_nodes":"21","size_leaf_vector":"1"}},{"base_weights":[3.5115327E-3,-1.487228E-1,1.1164682E0,-3.712988E-1,2.4477442E-1,7.0269793E-1,5.637824E-2,-5.5696464E-1,-6.246128E-2,1.00000285E-1,1.1081636E0,4.334833E-2,4.9919095E-2,-3.47257E-2,-7.7197747E-3,-4.5496378E-2,-3.3311627E-4,-2.4256E-2,1.1605169E-2,1.7177736E-2,5.579848E-2,3.8291138E-2,-3.2119293E-2],"categories":[],"categories_nodes":[],"categories_segments":[],"categories_sizes":[],"default_left":[0,0,0,0,0,0,0,0,0,0,0,0,0,0,0,0,0,0,0,0,0,0,0],"id":29,"left_children":[1,3,5,7,9,11,-1,13,15,17,19,21,-1,-1,-1,-1,-1,-1,-1,-1,-1,-1,-1],"loss_changes":[4.1384268E2,1.8827835E2,5.570679E-1,7.868207E1,9.699637E1,1.9706368E0,0E0,4.736087E1,2.4420649E1,5.1624138E1,2.8186035E-1,2.5943398E0,0E0,0E0,0E0,0E0,0E0,0E0,0E0,0E0,0E0,0E0,0E0],"parents":[2147483647,0,0,1,1,2,2,3,3,4,4,5,5,7,7,8,8,9,9,10,10,11,11],"right_children":[2,4,6,8,10,12,-1,14,16,18,20,22,-1,-1,-1,-1,-1,-1,-1,-1,-1,-1,-1],"split_conditions":[1.764706E-1,9.176988E-3,1.8181819E-1,1.4765716E-2,1.764706E-1,1.0571428E3,5.637824E-2,2.1158E-1,5.2386962E-2,7.651114E-2,8.856431E-2,8.785714E2,4.9919095E-2,-3.47257E-2,-7.7197747E-3,-4.5496378E-2,-3.3311627E-4,-2.4256E-2,1.1605169E-2,1.7177736E-2,5.579848E-2,3.8291138E-2,-3.2119293E-2],"split_indices":[1,0,1,2,0,3,0,4,4,4,4,3,0,0,0,0,0,0,0,0,0,0,0],"split_type":[0,0,0,0,0,0,0,0,0,0,0,0,0,0,0,0,0,0,0,0,0,0,0],"sum_hessian":[2.4405754E3,2.147675E3,2.9290054E2,1.3717953E3,7.758797E2,9.329937E0,2.8357062E2,8.5624036E2,5.155549E2,6.6541754E2,1.1046219E2,3.2435985E0,6.086339E0,6.3764526E2,2.185951E2,3.0902657E1,4.8465225E2,1.2206894E2,5.433486E2,1.5712134E0,1.08890976E2,1.5226138E0,1.7209846E0],"tree_param":{"num_deleted":"0","num_feature":"11","num_nodes":"23","size_leaf_vector":"1"}},{"base_weights":[3.5197837E-3,-1.4244339E-1,1.1086806E0,-2.0790014E-1,1.099774E0,6.8839216E-1,5.6010187E-2,-4.343582E-1,5.9421632E-2,1.1077358E0,1.5929528E-2,-8.277018E-3,8.984075E-1,-4.120281E-2,-1.5047577E-2,-3.6690723E-2,6.382993E-3,2.1637945E-2,5.5840116E-2,4.966845E-2,5.5377414E-3],"categories":[],"categories_nodes":[],"categories_segments":[],"categories_sizes":[],"default_left":[0,0,0,0,0,0,0,0,0,0,0,0,0,0,0,0,0,0,0,0,0],"id":30,"left_children":[1,3,5,7,9,11,-1,13,15,17,-1,-1,19,-1,-1,-1,-1,-1,-1,-1,-1],"loss_changes":[3.8934357E2,1.7358734E2,5.925598E-1,1.2268333E2,3.1184387E-1,1.961555E0,0E0,5.678502E1,5.043999E1,1.6171265E-1,0E0,0E0,5.084491E-1,0E0,0E0,0E0,0E0,0E0,0E0,0E0,0E0],"parents":[2147483647,0,0,1,1,2,2,3,3,4,4,5,5,7,7,8,8,9,9,12,12],"right_children":[2,4,6,8,10,12,-1,14,16,18,-1,-1,20,-1,-1,-1,-1,-1,-1,-1,-1],"split_conditions":[1.764706E-1,1.764706E-1,1.8181819E-1,4.065694E-3,4.3214287E3,-8.975127E-2,5.6010187E-2,9.9966794E-2,5.2386962E-2,-4.111628E-1,1.5929528E-2,-8.277018E-3,1.8E1,-4.120281E-2,-1.5047577E-2,-3.6690723E-2,6.382993E-3,2.1637945E-2,5.5840116E-2,4.966845E-2,5.5377414E-3],"split_indices":[1,0,1,2,3,2,0,4,4,2,0,0,9,0,0,0,0,0,0,0,0],"split_type":[0,0,0,0,0,0,0,0,0,0,0,0,0,0,0,0,0,0,0,0,0],"sum_hessian":[2.411615E3,2.1310317E3,2.805831E2,2.0251522E3,1.0587966E2,9.108411E0,2.714747E2,1.0960355E3,9.291167E2,1.0439762E2,1.4820375E0,1.8397343E0,7.2686763E0,2.7820013E2,8.178353E2,7.282365E1,8.56293E2,2.0296338E0,1.0236799E2,6.253555E0,1.0151212E0],"tree_param":{"num_deleted":"0","num_feature":"11","num_nodes":"21","size_leaf_vector":"1"}},{"base_weights":[3.5385697E-3,-1.3638547E-1,1.1013018E0,-3.4675297E-1,2.3575903E-1,6.7405355E-1,5.5663645E-2,-6.1793065E-1,-1.5149316E-1,1.03140116E-1,1.0918276E0,2.7498642E-2,4.890858E-2,-3.99646E-2,-8.388885E-3,-2.764006E-2,8.391239E-4,-9.974697E-3,1.662924E-2,1.559408E-2,5.5015594E-2,-3.205547E-2,3.7525926E-2],"categories":[],"categories_nodes":[],"categories_segments":[],"categories_sizes":[],"default_left":[0,0,0,0,0,0,0,0,0,0,0,0,0,0,0,0,0,0,0,0,0,0,0],"id":31,"left_children":[1,3,5,7,9,11,-1,13,15,17,19,21,-1,-1,-1,-1,-1,-1,-1,-1,-1,-1,-1],"loss_changes":[3.6642926E2,1.6572809E2,6.289673E-1,7.150343E1,8.670694E1,1.9168406E0,0E0,4.6051147E1,5.318571E1,4.6120888E1,3.349228E-1,2.5072684E0,0E0,0E0,0E0,0E0,0E0,0E0,0E0,0E0,0E0,0E0,0E0],"parents":[2147483647,0,0,1,1,2,2,3,3,4,4,5,5,7,7,8,8,9,9,10,10,11,11],"right_children":[2,4,6,8,10,12,-1,14,16,18,20,22,-1,-1,-1,-1,-1,-1,-1,-1,-1,-1,-1],"split_conditions":[1.764706E-1,9.176988E-3,1.8181819E-1,-6.0606062E-2,1.764706E-1,1.0571428E3,5.5663645E-2,2.1158E-1,9.9966794E-2,1.23424724E-1,8.856431E-2,8.3800845E-2,4.890858E-2,-3.99646E-2,-8.388885E-3,-2.764006E-2,8.391239E-4,-9.974697E-3,1.662924E-2,1.559408E-2,5.5015594E-2,-3.205547E-2,3.7525926E-2],"split_indices":[1,0,1,2,0,3,0,4,4,4,4,5,0,0,0,0,0,0,0,0,0,0,0],"split_type":[0,0,0,0,0,0,0,0,0,0,0,0,0,0,0,0,0,0,0,0,0,0,0],"sum_hessian":[2.3835757E3,2.1148826E3,2.6869324E2,1.3511606E3,7.6372186E2,8.885315E0,2.5980792E2,5.6471594E2,7.8644476E2,6.622492E2,1.0147267E2,3.1912143E0,5.694101E0,4.019852E2,1.6273071E2,2.3166914E2,5.5477563E2,2.8563345E2,3.7661572E2,1.4982646E0,9.99744E1,1.7168539E0,1.4743606E0],"tree_param":{"num_deleted":"0","num_feature":"11","num_nodes":"23","size_leaf_vector":"1"}},{"base_weights":[3.5475485E-3,-1.3058212E-1,1.0942976E0,-1.9008239E-1,1.0841731E0,6.6034776E-1,5.533702E-2,-3.54136E-1,1.6329868E-1,1.0928581E0,1.4390411E-2,2.3995994E-2,4.8823792E-2,-2.7654005E-2,-4.175808E-3,-1.724207E-2,1.4506851E-2,1.9902727E-2,5.5133995E-2,-3.9725836E-2,3.809134E-2],"categories":[],"categories_nodes":[],"categories_segments":[],"categories_sizes":[],"default_left":[0,0,0,0,0,0,0,0,0,0,0,0,0,0,0,0,0,0,0,0,0],"id":32,"left_children":[1,3,5,7,9,11,-1,13,15,17,-1,19,-1,-1,-1,-1,-1,-1,-1,-1,-1],"loss_changes":[3.4502155E2,1.5199512E2,6.635437E-1,1.1617022E2,3.647232E-1,1.9233909E0,0E0,7.361322E1,4.107152E1,2.216034E-1,0E0,3.1642158E0,0E0,0E0,0E0,0E0,0E0,0E0,0E0,0E0,0E0],"parents":[2147483647,0,0,1,1,2,2,3,3,4,4,5,5,7,7,8,8,9,9,11,11],"right_children":[2,4,6,8,10,12,-1,14,16,18,-1,20,-1,-1,-1,-1,-1,-1,-1,-1,-1],"split_conditions":[1.764706E-1,1.764706E-1,1.8181819E-1,2.8113758E-2,4.3214287E3,5E0,5.533702E-2,1.63408E-1,7.57203E-2,-4.111628E-1,1.4390411E-2,1.4240205E-1,4.8823792E-2,-2.7654005E-2,-4.175808E-3,-1.724207E-2,1.4506851E-2,1.9902727E-2,5.5133995E-2,-3.9725836E-2,3.809134E-2],"split_indices":[1,0,1,1,3,8,0,4,4,2,0,4,0,0,0,0,0,0,0,0,0],"split_type":[0,0,0,0,0,0,0,0,0,0,0,0,0,0,0,0,0,0,0,0,0],"sum_hessian":[2.356307E3,2.099065E3,2.57242E2,2.0018551E3,9.720989E1,8.677561E0,2.4856445E2,1.3671619E3,6.346932E2,9.579289E1,1.4169996E0,3.2371757E0,5.440385E0,7.873233E2,5.7983856E2,1.2643805E2,5.0825516E2,1.914117E0,9.387878E1,1.4982566E0,1.7389191E0],"tree_param":{"num_deleted":"0","num_feature":"11","num_nodes":"21","size_leaf_vector":"1"}},{"base_weights":[3.593908E-3,-1.2490873E-1,1.0876428E0,-3.2271358E-1,2.2521065E-1,6.467093E-1,5.5028882E-2,-5.869527E-1,-1.3505918E-1,1.0348041E-1,1.0768993E0,-9.03201E-3,8.6571556E-1,-3.8221102E-2,-7.892348E-3,-2.9296866E-2,5.604153E-6,-2.1172976E-2,1.0944822E-2,1.4066273E-2,5.4306794E-2,5.1819896E-3,4.8235822E-2],"categories":[],"categories_nodes":[],"categories_segments":[],"categories_sizes":[],"default_left":[0,0,0,0,0,0,0,0,0,0,0,0,0,0,0,0,0,0,0,0,0,0,0],"id":33,"left_children":[1,3,5,7,9,11,-1,13,15,17,19,-1,21,-1,-1,-1,-1,-1,-1,-1,-1,-1,-1],"loss_changes":[3.2494623E2,1.4450273E2,6.9818115E-1,6.601897E1,7.800455E1,1.8723099E0,0E0,4.2011154E1,4.7584152E1,4.0253006E1,3.86055E-1,0E0,4.779787E-1,0E0,0E0,0E0,0E0,0E0,0E0,0E0,0E0,0E0,0E0],"parents":[2147483647,0,0,1,1,2,2,3,3,4,4,5,5,7,7,8,8,9,9,10,10,12,12],"right_children":[2,4,6,8,10,12,-1,14,16,18,20,-1,22,-1,-1,-1,-1,-1,-1,-1,-1,-1,-1],"split_conditions":[1.764706E-1,9.176988E-3,1.8181819E-1,-6.0606062E-2,1.764706E-1,-8.975127E-2,5.5028882E-2,2.1158E-1,8.7705635E-2,7.651114E-2,8.856431E-2,-9.03201E-3,9.642857E2,-3.8221102E-2,-7.892348E-3,-2.9296866E-2,5.604153E-6,-2.1172976E-2,1.0944822E-2,1.4066273E-2,5.4306794E-2,5.1819896E-3,4.8235822E-2],"split_indices":[1,0,1,2,0,2,0,4,4,4,4,0,3,0,0,0,0,0,0,0,0,0,0],"split_type":[0,0,0,0,0,0,0,0,0,0,0,0,0,0,0,0,0,0,0,0,0,0,0],"sum_hessian":[2.3306804E3,2.084473E3,2.4620766E2,1.3320122E3,7.5246063E2,8.470072E0,2.3773758E2,5.5225104E2,7.7976117E2,6.593434E2,9.31172E1,1.8094847E0,6.6605873E0,3.9012277E2,1.6212822E2,1.7908138E2,6.006798E2,1.179887E2,5.413547E2,1.4297026E0,9.16875E1,1.0011241E0,5.659463E0],"tree_param":{"num_deleted":"0","num_feature":"11","num_nodes":"23","size_leaf_vector":"1"}},{"base_weights":[3.576047E-3,-1.19566225E-1,1.0812991E0,-1.7362967E-1,1.0698553E0,6.330787E-1,5.4737903E-2,-5.1513815E-1,-1.7462216E-2,1.0793387E0,1.2908498E-2,5.5790613E-3,4.7873568E-2,-3.7417773E-2,-3.8262762E-3,-2.6926253E-2,5.8831666E-3,1.8206803E-2,5.450018E-2,-3.889237E-2,3.7172526E-2],"categories":[],"categories_nodes":[],"categories_segments":[],"categories_sizes":[],"default_left":[0,0,0,0,0,0,0,0,0,0,0,0,0,0,0,0,0,0,0,0,0],"id":34,"left_children":[1,3,5,7,9,11,-1,13,15,17,-1,19,-1,-1,-1,-1,-1,-1,-1,-1,-1],"loss_changes":[3.0619302E2,1.3333505E2,7.341614E-1,1.0566671E2,4.153824E-1,1.8812828E0,0E0,6.3540863E1,9.587011E1,2.8047943E-1,0E0,2.9855897E0,0E0,0E0,0E0,0E0,0E0,0E0,0E0,0E0,0E0],"parents":[2147483647,0,0,1,1,2,2,3,3,4,4,5,5,7,7,8,8,9,9,11,11],"right_children":[2,4,6,8,10,12,-1,14,16,18,-1,20,-1,-1,-1,-1,-1,-1,-1,-1,-1],"split_conditions":[1.764706E-1,1.764706E-1,1.8181819E-1,-7.692308E-2,4.3214287E3,5E0,5.4737903E-2,2.1349822E-1,7.651114E-2,-4.111628E-1,1.2908498E-2,1.4240205E-1,4.7873568E-2,-3.7417773E-2,-3.8262762E-3,-2.6926253E-2,5.8831666E-3,1.8206803E-2,5.450018E-2,-3.889237E-2,3.7172526E-2],"split_indices":[1,0,1,1,3,8,0,4,4,2,0,4,0,0,0,0,0,0,0,0,0],"split_type":[0,0,0,0,0,0,0,0,0,0,0,0,0,0,0,0,0,0,0,0,0],"sum_hessian":[2.305203E3,2.0696147E3,2.3558827E2,1.9804502E3,8.916449E1,8.268324E0,2.2731995E2,6.20731E2,1.3597192E3,8.780883E1,1.3556557E0,3.1643865E0,5.1039376E0,4.0479102E2,2.1593999E2,2.793853E2,1.0803339E3,1.8065083E0,8.600233E1,1.5085373E0,1.6558492E0],"tree_param":{"num_deleted":"0","num_feature":"11","num_nodes":"21","size_leaf_vector":"1"}},{"base_weights":[3.5767336E-3,-1.1435648E-1,1.0752615E0,-3.006297E-1,2.153232E-1,6.2003654E-1,5.446287E-2,-3.9186507E-1,2.1464083E-1,1.0368709E-1,1.0631393E0,5.2272244E-3,4.7311407E-2,-2.6480427E-2,-2.4001137E-4,-4.714848E-3,2.2160659E-2,-4.1419584E-3,2.0244148E-2,1.2592009E-2,5.366036E-2,-3.728476E-2,3.661041E-2],"categories":[],"categories_nodes":[],"categories_segments":[],"categories_sizes":[],"default_left":[0,0,0,0,0,0,0,0,0,0,0,0,0,0,0,0,0,0,0,0,0,0,0],"id":35,"left_children":[1,3,5,7,9,11,-1,13,15,17,19,21,-1,-1,-1,-1,-1,-1,-1,-1,-1,-1,-1],"loss_changes":[2.886067E2,1.2639606E2,7.6690674E-1,6.189814E1,7.023842E1,1.8147523E0,0E0,5.9574814E1,1.4054687E1,3.6994972E1,4.352417E-1,2.8120098E0,0E0,0E0,0E0,0E0,0E0,0E0,0E0,0E0,0E0,0E0,0E0],"parents":[2147483647,0,0,1,1,2,2,3,3,4,4,5,5,7,7,8,8,9,9,10,10,11,11],"right_children":[2,4,6,8,10,12,-1,14,16,18,20,22,-1,-1,-1,-1,-1,-1,-1,-1,-1,-1,-1],"split_conditions":[1.764706E-1,9.176988E-3,1.8181819E-1,1.9335903E-1,1.764706E-1,5E0,5.446287E-2,2.1158E-1,-5.631118E-3,1.5252186E-1,8.856431E-2,1.4240205E-1,4.7311407E-2,-2.6480427E-2,-2.4001137E-4,-4.714848E-3,2.2160659E-2,-4.1419584E-3,2.0244148E-2,1.2592009E-2,5.366036E-2,-3.728476E-2,3.661041E-2],"split_indices":[1,0,1,2,0,8,0,4,1,4,4,4,0,0,0,0,0,0,0,0,0,0,0],"split_type":[0,0,0,0,0,0,0,0,0,0,0,0,0,0,0,0,0,0,0,0,0,0,0],"sum_hessian":[2.2815386E3,2.056162E3,2.2537642E2,1.3138872E3,7.4227484E2,8.073741E0,2.1730267E2,1.1164454E3,1.9744177E2,6.5689996E2,8.537493E1,3.1509056E0,4.9228354E0,8.2314667E2,2.9329877E2,8.421052E1,1.13231255E2,4.061204E2,2.5077956E2,1.3653427E0,8.400959E1,1.5372684E0,1.6136372E0],"tree_param":{"num_deleted":"0","num_feature":"11","num_nodes":"23","size_leaf_vector":"1"}},{"base_weights":[3.615877E-3,-1.0939913E-1,1.0695022E0,-1.5853342E-1,1.0565996E0,6.073927E-1,5.4202653E-2,-3.030409E-1,1.8157399E-1,5.0603014E-1,5.3965874E-2,-9.5862225E-3,8.346216E-1,-2.7115434E-2,-5.412373E-3,3.8343319E-3,3.9024476E-2,-1.2310479E-2,4.0816754E-2,8.072331E-3,4.672725E-2],"categories":[],"categories_nodes":[],"categories_segments":[],"categories_sizes":[],"default_left":[0,0,0,0,0,0,0,0,0,0,0,0,0,0,0,0,0,0,0,0,0],"id":36,"left_children":[1,3,5,7,9,11,-1,13,15,17,-1,-1,19,-1,-1,-1,-1,-1,-1,-1,-1],"loss_changes":[2.7212653E2,1.1718378E2,7.9774475E-1,9.642389E1,4.8847198E-1,1.7734127E0,0E0,6.409569E1,3.6708725E1,1.405608E0,0E0,0E0,3.2703495E-1,0E0,0E0,0E0,0E0,0E0,0E0,0E0,0E0],"parents":[2147483647,0,0,1,1,2,2,3,3,4,4,5,5,7,7,8,8,9,9,12,12],"right_children":[2,4,6,8,10,12,-1,14,16,18,-1,-1,20,-1,-1,-1,-1,-1,-1,-1,-1],"split_conditions":[1.764706E-1,1.764706E-1,1.8181819E-1,3.6813423E-2,1.8204413E-1,-8.975127E-2,5.4202653E-2,1.402073E-1,2.6666668E-1,7E0,5.3965874E-2,-9.5862225E-3,9.882243E2,-2.7115434E-2,-5.412373E-3,3.8343319E-3,3.9024476E-2,-1.2310479E-2,4.0816754E-2,8.072331E-3,4.672725E-2],"split_indices":[1,0,1,1,0,2,0,4,2,9,0,0,3,0,0,0,0,0,0,0,0],"split_type":[0,0,0,0,0,0,0,0,0,0,0,0,0,0,0,0,0,0,0,0,0],"sum_hessian":[2.2570684E3,2.0415066E3,2.1556183E2,1.9597867E3,8.1719864E1,7.885191E0,2.0767664E2,1.3754738E3,5.84313E2,4.160652E0,7.755921E1,1.7803426E0,6.1048484E0,6.164701E2,7.5900366E2,4.9819308E2,8.61199E1,1.2753972E0,2.8852549E0,1.1271359E0,4.9777126E0],"tree_param":{"num_deleted":"0","num_feature":"11","num_nodes":"21","size_leaf_vector":"1"}},{"base_weights":[3.6713164E-3,-1.0458314E-1,1.0639657E0,-2.7977306E-1,2.0520358E-1,5.9453726E-1,5.395624E-2,-5.3398657E-1,-1.02979735E-1,1.0271155E-1,1.0502917E0,-1.1069031E-2,4.643047E-2,9.029525E-3,-3.1295937E-2,-2.3358664E-2,2.0783036E-3,-7.934274E-3,1.4844077E-2,2.4730185E-2,5.3693134E-2,-3.6546525E-2,3.5752796E-2],"categories":[],"categories_nodes":[],"categories_segments":[],"categories_sizes":[],"default_left":[0,0,0,0,0,0,0,0,0,0,0,0,0,0,0,0,0,0,0,0,0,0,0],"id":37,"left_children":[1,3,5,7,9,11,-1,13,15,17,19,21,-1,-1,-1,-1,-1,-1,-1,-1,-1,-1,-1],"loss_changes":[2.5664633E2,1.10165955E2,8.324585E-1,5.8208603E1,6.3420998E1,1.7717865E0,0E0,3.5029953E1,4.033641E1,3.3304115E1,5.0655365E-1,2.6571956E0,0E0,0E0,0E0,0E0,0E0,0E0,0E0,0E0,0E0,0E0,0E0],"parents":[2147483647,0,0,1,1,2,2,3,3,4,4,5,5,7,7,8,8,9,9,10,10,11,11],"right_children":[2,4,6,8,10,12,-1,14,16,18,20,22,-1,-1,-1,-1,-1,-1,-1,-1,-1,-1,-1],"split_conditions":[1.764706E-1,9.176988E-3,1.8181819E-1,-6.0606062E-2,1.764706E-1,5E0,5.395624E-2,2.9857144E2,9.9966794E-2,1.23424724E-1,1.8204413E-1,1.4240205E-1,4.643047E-2,9.029525E-3,-3.1295937E-2,-2.3358664E-2,2.0783036E-3,-7.934274E-3,1.4844077E-2,2.4730185E-2,5.3693134E-2,-3.6546525E-2,3.5752796E-2],"split_indices":[1,0,1,2,0,8,0,6,4,4,0,4,0,0,0,0,0,0,0,0,0,0,0],"split_type":[0,0,0,0,0,0,0,0,0,0,0,0,0,0,0,0,0,0,0,0,0,0,0],"sum_hessian":[2.2339846E3,2.027846E3,2.0613864E2,1.2953815E3,7.324645E2,7.706706E0,1.9843193E2,5.3051965E2,7.648618E2,6.5424E2,7.822449E1,3.0836067E0,4.6230993E0,6.0362812E1,4.7015683E2,2.1668257E2,5.4817926E2,2.7892548E2,3.753145E2,4.077618E0,7.4146866E1,1.5451585E0,1.5384483E0],"tree_param":{"num_deleted":"0","num_feature":"11","num_nodes":"23","size_leaf_vector":"1"}},{"base_weights":[3.672705E-3,-9.999559E-2,1.0586894E0,-1.4466262E-1,1.044151E0,5.8243144E-1,5.372265E-2,-4.6868932E-1,1.3464938E-3,1.055561E0,9.431618E-3,-1.0454414E-2,4.589475E-2,-3.465147E-2,-3.1421313E-3,-2.4497505E-2,6.2327078E-3,1.4159369E-2,5.3414237E-2,-3.5066236E-2,3.5219524E-2],"categories":[],"categories_nodes":[],"categories_segments":[],"categories_sizes":[],"default_left":[0,0,0,0,0,0,0,0,0,0,0,0,0,0,0,0,0,0,0,0,0],"id":38,"left_children":[1,3,5,7,9,11,-1,13,15,17,-1,19,-1,-1,-1,-1,-1,-1,-1,-1,-1],"loss_changes":[2.421505E2,1.03177734E2,8.6135864E-1,9.1835205E1,5.4146576E-1,1.7061858E0,0E0,5.4855576E1,8.1185684E1,4.3110657E-1,0E0,2.5046184E0,0E0,0E0,0E0,0E0,0E0,0E0,0E0,0E0,0E0],"parents":[2147483647,0,0,1,1,2,2,3,3,4,4,5,5,7,7,8,8,9,9,11,11],"right_children":[2,4,6,8,10,12,-1,14,16,18,-1,20,-1,-1,-1,-1,-1,-1,-1,-1,-1],"split_conditions":[1.764706E-1,1.764706E-1,1.8181819E-1,-7.692308E-2,4.3214287E3,5E0,5.372265E-2,2.1349822E-1,7.651114E-2,-4.111628E-1,9.431618E-3,1.4240205E-1,4.589475E-2,-3.465147E-2,-3.1421313E-3,-2.4497505E-2,6.2327078E-3,1.4159369E-2,5.3414237E-2,-3.5066236E-2,3.5219524E-2],"split_indices":[1,0,1,1,3,8,0,4,4,2,0,4,0,0,0,0,0,0,0,0,0],"split_type":[0,0,0,0,0,0,0,0,0,0,0,0,0,0,0,0,0,0,0,0,0],"sum_hessian":[2.2120444E3,2.0149557E3,1.9708882E2,1.940089E3,7.486675E1,7.5302253E0,1.8955861E2,6.019711E2,1.3381178E3,7.365065E1,1.2161007E0,3.0711765E0,4.4590487E0,3.8721982E2,2.1475133E2,2.6786917E2,1.0702487E3,1.570539E0,7.208011E1,1.5713959E0,1.4997807E0],"tree_param":{"num_deleted":"0","num_feature":"11","num_nodes":"21","size_leaf_vector":"1"}},{"base_weights":[3.6531638E-3,-9.55877E-2,1.0536314E0,-1.3816158E-1,1.0382584E0,5.7068866E-1,5.350101E-2,-2.882237E-1,1.6362405E-1,4.592691E-1,5.3194035E-2,-1.00493925E-2,8.05529E-1,-3.585666E-2,-9.177107E-3,2.276985E-4,1.9333111E-2,-1.4214309E-2,3.9398246E-2,6.4480877E-3,4.5616884E-2],"categories":[],"categories_nodes":[],"categories_segments":[],"categories_sizes":[],"default_left":[0,0,0,0,0,0,0,0,0,0,0,0,0,0,0,0,0,0,0,0,0],"id":39,"left_children":[1,3,5,7,9,11,-1,13,15,17,-1,-1,19,-1,-1,-1,-1,-1,-1,-1,-1],"loss_changes":[2.2854709E2,9.6879196E1,8.8845825E-1,8.7555504E1,5.889969E-1,1.6768086E0,0E0,5.7830444E1,2.2788952E1,1.4064159E0,0E0,0E0,3.599105E-1,0E0,0E0,0E0,0E0,0E0,0E0,0E0,0E0],"parents":[2147483647,0,0,1,1,2,2,3,3,4,4,5,5,7,7,8,8,9,9,12,12],"right_children":[2,4,6,8,10,12,-1,14,16,18,-1,-1,20,-1,-1,-1,-1,-1,-1,-1,-1],"split_conditions":[1.764706E-1,1.764706E-1,1.8181819E-1,7.8708574E-2,1.8204413E-1,-8.975127E-2,5.350101E-2,8.7705635E-2,4.700816E-2,7E0,5.3194035E-2,-1.00493925E-2,9.882243E2,-3.585666E-2,-9.177107E-3,2.276985E-4,1.9333111E-2,-1.4214309E-2,3.9398246E-2,6.4480877E-3,4.5616884E-2],"split_indices":[1,0,1,2,0,2,0,4,1,9,0,0,3,0,0,0,0,0,0,0,0],"split_type":[0,0,0,0,0,0,0,0,0,0,0,0,0,0,0,0,0,0,0,0,0],"sum_hessian":[2.1913677E3,2.0029625E3,1.8840518E2,1.931323E3,7.163956E1,7.359457E0,1.8104572E2,1.2899457E3,6.413773E2,3.8379352E0,6.780162E1,1.7507403E0,5.6087165E0,2.5191785E2,1.0380278E3,3.749702E2,2.6640707E2,1.2179263E0,2.620009E0,1.0656825E0,4.543034E0],"tree_param":{"num_deleted":"0","num_feature":"11","num_nodes":"21","size_leaf_vector":"1"}},{"base_weights":[3.6594053E-3,-9.1400534E-2,1.0487187E0,-2.5364217E-1,1.9608447E-1,5.5834496E-1,5.3290505E-2,-4.9550557E-1,-8.836175E-2,1.0897403E-1,5.295548E-2,-2.47789E-2,4.505886E-2,-3.32787E-2,-5.707726E-3,7.917876E-3,-1.3879935E-2,-2.9263133E-3,1.8739609E-2,-3.4396455E-2,3.4413993E-2],"categories":[],"categories_nodes":[],"categories_segments":[],"categories_sizes":[],"default_left":[0,0,0,0,0,0,0,0,0,0,0,0,0,0,0,0,0,0,0,0,0],"id":40,"left_children":[1,3,5,7,9,11,-1,13,15,17,-1,19,-1,-1,-1,-1,-1,-1,-1,-1,-1],"loss_changes":[2.157586E2,9.2904785E1,9.2259216E-1,5.084651E1,5.391972E1,1.6614451E0,0E0,3.3426994E1,3.5408916E1,2.9139944E1,0E0,2.369173E0,0E0,0E0,0E0,0E0,0E0,0E0,0E0,0E0,0E0],"parents":[2147483647,0,0,1,1,2,2,3,3,4,4,5,5,7,7,8,8,9,9,11,11],"right_children":[2,4,6,8,10,12,-1,14,16,18,-1,20,-1,-1,-1,-1,-1,-1,-1,-1,-1],"split_conditions":[1.764706E-1,9.176988E-3,1.8181819E-1,-6.0606062E-2,1.8204413E-1,5E0,5.3290505E-2,2.1158E-1,2.0714285E3,1.5252186E-1,5.295548E-2,1.4240205E-1,4.505886E-2,-3.32787E-2,-5.707726E-3,7.917876E-3,-1.3879935E-2,-2.9263133E-3,1.8739609E-2,-3.4396455E-2,3.4413993E-2],"split_indices":[1,0,1,2,0,8,0,4,6,4,0,4,0,0,0,0,0,0,0,0,0],"split_type":[0,0,0,0,0,0,0,0,0,0,0,0,0,0,0,0,0,0,0,0,0],"sum_hessian":[2.1698843E3,1.9898019E3,1.800824E2,1.272044E3,7.1775793E2,7.199113E0,1.7288329E2,5.1557635E2,7.5646765E2,6.5297534E2,6.4782555E1,3.0089347E0,4.1901784E0,3.5604718E2,1.5952917E2,3.2843326E2,4.2803436E2,4.0104453E2,2.5193083E2,1.5772874E0,1.4316473E0],"tree_param":{"num_deleted":"0","num_feature":"11","num_nodes":"21","size_leaf_vector":"1"}},{"base_weights":[3.6415237E-3,-8.7332025E-2,1.0440359E0,-3.7495285E-1,6.826413E-2,5.471065E-1,5.3090353E-2,-5.8119065E-1,5.345343E-2,-6.5036917E-1,1.4950405E-1,-2.9450778E-2,4.4330716E-2,1.3023311E-2,-3.1835254E-2,-3.2474037E-2,9.246586E-3,-4.535879E-2,3.5390798E-2,-2.7073009E-2,1.0248474E-2,-3.0347764E-2,3.3716004E-2],"categories":[],"categories_nodes":[],"categories_segments":[],"categories_sizes":[],"default_left":[0,0,0,0,0,0,0,0,0,0,0,0,0,0,0,0,0,0,0,0,0,0,0],"id":41,"left_children":[1,3,5,7,9,11,-1,13,15,17,19,21,-1,-1,-1,-1,-1,-1,-1,-1,-1,-1,-1],"loss_changes":[2.0375005E2,8.8619934E1,9.477234E-1,6.144822E1,7.514773E1,1.599818E0,0E0,2.209439E1,2.1081945E1,4.6246994E1,4.440512E1,2.0136397E0,0E0,0E0,0E0,0E0,0E0,0E0,0E0,0E0,0E0,0E0,0E0],"parents":[2147483647,0,0,1,1,2,2,3,3,4,4,5,5,7,7,8,8,9,9,10,10,11,11],"right_children":[2,4,6,8,10,12,-1,14,16,18,20,22,-1,-1,-1,-1,-1,-1,-1,-1,-1,-1,-1],"split_conditions":[1.764706E-1,-6.153846E-2,1.8181819E-1,2.20917E-1,5.7043638E-2,1.0571428E3,5.3090353E-2,1E2,-3.125E-1,1.8781061E-1,-1.5E-1,8.3800845E-2,4.4330716E-2,1.3023311E-2,-3.1835254E-2,-3.2474037E-2,9.246586E-3,-4.535879E-2,3.5390798E-2,-2.7073009E-2,1.0248474E-2,-3.0347764E-2,3.3716004E-2],"split_indices":[1,1,1,4,4,3,0,6,0,2,0,5,0,0,0,0,0,0,0,0,0,0,0],"split_type":[0,0,0,0,0,0,0,0,0,0,0,0,0,0,0,0,0,0,0,0,0,0,0],"sum_hessian":[2.150742E3,1.9786427E3,1.7209923E2,6.9412915E2,1.2845134E3,7.039547E0,1.6505968E2,4.6831998E2,2.258092E2,1.2975137E2,1.1547621E3,2.947431E0,4.0921164E0,2.874987E1,4.395701E2,3.4959934E1,1.9084926E2,1.0939834E2,2.035304E1,8.5156555E1,1.0696056E3,1.6945081E0,1.2529229E0],"tree_param":{"num_deleted":"0","num_feature":"11","num_nodes":"23","size_leaf_vector":"1"}},{"base_weights":[3.5050649E-3,-8.3453216E-2,1.0395061E0,-1.2199022E-1,1.0262474E0,5.361597E-1,5.2899834E-2,-2.1778785E-1,2.960875E-1,6.997389E-3,1.0395465E0,-3.310641E-2,4.4190712E-2,-3.96057E-2,-7.1412534E-3,-2.6966078E-2,1.7133875E-2,1.1545013E-2,5.2705612E-2,-3.2629006E-2,3.330131E-2],"categories":[],"categories_nodes":[],"categories_segments":[],"categories_sizes":[],"default_left":[0,0,0,0,0,0,0,0,0,0,0,0,0,0,0,0,0,0,0,0,0],"id":42,"left_children":[1,3,5,7,9,11,-1,13,15,-1,17,19,-1,-1,-1,-1,-1,-1,-1,-1,-1],"loss_changes":[1.9248741E2,8.4423584E1,9.72641E-1,7.639974E1,6.3557434E-1,1.5907695E0,0E0,6.667177E1,1.4030663E1,0E0,5.237198E-1,2.147719E0,0E0,0E0,0E0,0E0,0E0,0E0,0E0,0E0,0E0],"parents":[2147483647,0,0,1,1,2,2,3,3,4,4,5,5,7,7,8,8,10,10,11,11],"right_children":[2,4,6,8,10,12,-1,14,16,-1,18,20,-1,-1,-1,-1,-1,-1,-1,-1,-1],"split_conditions":[1.764706E-1,1.764706E-1,1.8181819E-1,1.764706E-1,8.856431E-2,5E0,5.2899834E-2,6.581079E-2,-1.8125E-1,6.997389E-3,-4.111628E-1,1.4240205E-1,4.4190712E-2,-3.96057E-2,-7.1412534E-3,-2.6966078E-2,1.7133875E-2,1.1545013E-2,5.2705612E-2,-3.2629006E-2,3.330131E-2],"split_indices":[1,0,1,2,4,8,0,4,0,0,2,4,0,0,0,0,0,0,0,0,0],"split_type":[0,0,0,0,0,0,0,0,0,0,0,0,0,0,0,0,0,0,0,0,0],"sum_hessian":[2.1346765E3,1.9702223E3,1.644541E2,1.9049581E3,6.5264145E1,6.890079E0,1.5756403E2,1.5502219E3,3.547362E2,1.1351793E0,6.412897E1,2.9554524E0,3.9346266E0,1.7787428E2,1.3723477E3,1.817963E1,3.3655658E2,1.4328578E0,6.269611E1,1.6023022E0,1.3531504E0],"tree_param":{"num_deleted":"0","num_feature":"11","num_nodes":"21","size_leaf_vector":"1"}},{"base_weights":[3.4959335E-3,-7.97677E-2,1.0351453E0,-6.136414E-1,-1.9715722E-3,5.2550274E-1,5.2718308E-2,-8.34995E-1,-1.7412633E-1,-1.9997644E-1,2.7845395E-1,-1.0809216E-2,7.703005E-1,-1.1907307E-3,-4.5998413E-2,-4.4940647E-2,-5.0678977E-5,-3.0278865E-2,-2.9593867E-3,-1.8191352E-2,2.0228488E-2,5.235139E-3,4.4205107E-2],"categories":[],"categories_nodes":[],"categories_segments":[],"categories_sizes":[],"default_left":[0,0,0,0,0,0,0,0,0,0,0,0,0,0,0,0,0,0,0,0,0,0,0],"id":43,"left_children":[1,3,5,7,9,11,-1,13,15,17,19,-1,21,-1,-1,-1,-1,-1,-1,-1,-1,-1,-1],"loss_changes":[1.8187747E2,8.137317E1,9.948883E-1,2.4097641E1,9.506382E1,1.571924E0,0E0,1.1383049E1,1.0628333E1,5.726814E1,5.7542393E1,0E0,3.648517E-1,0E0,0E0,0E0,0E0,0E0,0E0,0E0,0E0,0E0,0E0],"parents":[2147483647,0,0,1,1,2,2,3,3,4,4,5,5,7,7,8,8,9,9,10,10,12,12],"right_children":[2,4,6,8,10,12,-1,14,16,18,20,-1,22,-1,-1,-1,-1,-1,-1,-1,-1,-1,-1],"split_conditions":[1.764706E-1,-1.5755695E-1,1.8181819E-1,2.5945237E-1,1.5252186E-1,-8.975127E-2,5.2718308E-2,2.17E2,-4.7826087E-1,-5.3498764E-2,-1.9476338E-1,-1.0809216E-2,9.882243E2,-1.1907307E-3,-4.5998413E-2,-4.4940647E-2,-5.0678977E-5,-3.0278865E-2,-2.9593867E-3,-1.8191352E-2,2.0228488E-2,5.235139E-3,4.4205107E-2],"split_indices":[1,0,1,4,4,2,0,6,0,1,2,0,3,0,0,0,0,0,0,0,0,0,0],"split_type":[0,0,0,0,0,0,0,0,0,0,0,0,0,0,0,0,0,0,0,0,0,0,0],"sum_hessian":[2.1153828E3,1.9582562E3,1.5712666E2,2.4818765E2,1.7100685E3,6.7405324E0,1.5038614E2,1.644604E2,8.372725E1,1.0025017E3,7.0756683E2,1.7016791E0,5.038853E0,1.5715522E1,1.4874489E2,1.5335893E1,6.839136E1,2.5746494E2,7.450368E2,1.1582255E2,5.9174426E2,1.0160826E0,4.0227704E0],"tree_param":{"num_deleted":"0","num_feature":"11","num_nodes":"23","size_leaf_vector":"1"}},{"base_weights":[3.3498853E-3,-7.6225854E-2,1.0308406E0,-1.1268163E-1,1.019811E0,5.1384515E-1,5.254513E-2,-4.0473673E-1,1.5488422E-2,4.1211915E-1,5.2455414E-2,-4.487997E-2,4.3398883E-2,-3.0691523E-2,-2.3909311E-3,-3.4070205E-2,4.1505084E-3,-1.5675861E-2,3.79185E-2,-3.202459E-2,3.256156E-2],"categories":[],"categories_nodes":[],"categories_segments":[],"categories_sizes":[],"default_left":[0,0,0,0,0,0,0,0,0,0,0,0,0,0,0,0,0,0,0,0,0],"id":44,"left_children":[1,3,5,7,9,11,-1,13,15,17,-1,19,-1,-1,-1,-1,-1,-1,-1,-1,-1],"loss_changes":[1.7189525E2,7.808171E1,1.0273743E0,7.0730194E1,6.877136E-1,1.5430686E0,0E0,4.2979416E1,6.189032E1,1.3785782E0,0E0,2.03404E0,0E0,0E0,0E0,0E0,0E0,0E0,0E0,0E0,0E0],"parents":[2147483647,0,0,1,1,2,2,3,3,4,4,5,5,7,7,8,8,9,9,11,11],"right_children":[2,4,6,8,10,12,-1,14,16,18,-1,20,-1,-1,-1,-1,-1,-1,-1,-1,-1],"split_conditions":[1.764706E-1,1.764706E-1,1.8181819E-1,-7.692308E-2,1.8204413E-1,5E0,5.254513E-2,2.1349822E-1,5.416608E-2,7E0,5.2455414E-2,1.4240205E-1,4.3398883E-2,-3.0691523E-2,-2.3909311E-3,-3.4070205E-2,4.1505084E-3,-1.5675861E-2,3.79185E-2,-3.202459E-2,3.256156E-2],"split_indices":[1,0,1,1,0,8,0,4,4,9,0,4,0,0,0,0,0,0,0,0,0],"split_type":[0,0,0,0,0,0,0,0,0,0,0,0,0,0,0,0,0,0,0,0,0],"sum_hessian":[2.1003901E3,1.9502738E3,1.5011641E2,1.8883613E3,6.1912437E1,6.6018047E0,1.435146E2,5.752983E2,1.3130631E3,3.5405223E0,5.8371918E1,2.8998675E0,3.7019372E0,3.623201E2,2.1297813E2,1.1518156E2,1.1978815E3,1.1742303E0,2.366292E0,1.6058005E0,1.2940669E0],"tree_param":{"num_deleted":"0","num_feature":"11","num_nodes":"21","size_leaf_vector":"1"}},{"base_weights":[3.318507E-3,-7.2793685E-2,1.0267408E0,-5.963188E-1,-4.7999367E-4,5.0366443E-1,5.2379735E-2,-8.432669E-1,-2.0018256E-1,-1.8824977E-1,2.6227683E-1,-1.0759785E-2,7.5156987E-1,-4.3631293E-2,3.8519993E-2,-2.225375E-2,1.6995143E-2,-2.4383293E-2,-6.9465267E-4,-1.6572254E-2,1.893482E-2,1.1183798E-2,4.299684E-2],"categories":[],"categories_nodes":[],"categories_segments":[],"categories_sizes":[],"default_left":[0,0,0,0,0,0,0,0,0,0,0,0,0,0,0,0,0,0,0,0,0,0,0],"id":45,"left_children":[1,3,5,7,9,11,-1,13,15,17,19,-1,21,-1,-1,-1,-1,-1,-1,-1,-1,-1,-1],"loss_changes":[1.6249268E2,7.350828E1,1.0475159E0,2.288382E1,8.427086E1,1.4915693E0,0E0,7.5345383E0,1.2293382E1,5.1998158E1,4.933089E1,0E0,1.3780594E-1,0E0,0E0,0E0,0E0,0E0,0E0,0E0,0E0,0E0,0E0],"parents":[2147483647,0,0,1,1,2,2,3,3,4,4,5,5,7,7,8,8,9,9,10,10,12,12],"right_children":[2,4,6,8,10,12,-1,14,16,18,20,-1,22,-1,-1,-1,-1,-1,-1,-1,-1,-1,-1],"split_conditions":[1.764706E-1,-1.6236858E-1,1.8181819E-1,2.5015202E-1,1.5252186E-1,-8.975127E-2,5.2379735E-2,4.4082725E-1,9E0,-1.4917641E-2,-1.9476338E-1,-1.0759785E-2,7.221098E-4,-4.3631293E-2,3.8519993E-2,-2.225375E-2,1.6995143E-2,-2.4383293E-2,-6.9465267E-4,-1.6572254E-2,1.893482E-2,1.1183798E-2,4.299684E-2],"split_indices":[1,0,1,4,4,2,0,2,8,1,2,0,0,0,0,0,0,0,0,0,0,0,0],"split_type":[0,0,0,0,0,0,0,0,0,0,0,0,0,0,0,0,0,0,0,0,0,0,0],"sum_hessian":[2.0840906E3,1.9406898E3,1.4340076E2,2.3465144E2,1.7060385E3,6.4622045E0,1.3693855E2,1.4384863E2,9.080281E1,9.9516376E2,7.1087463E2,1.690922E0,4.771282E0,1.4172926E2,2.119379E0,6.2595757E1,2.8207052E1,3.6557642E2,6.2958734E2,1.1623698E2,5.946377E2,1.334503E0,3.4367793E0],"tree_param":{"num_deleted":"0","num_feature":"11","num_nodes":"23","size_leaf_vector":"1"}},{"base_weights":[3.223311E-3,-6.9522604E-2,1.0226463E0,-1.0401231E-1,1.0136085E0,4.9266234E-1,5.2221563E-2,-1.9252764E-1,2.7792227E-1,3.982279E-1,5.221522E-2,-5.2120656E-2,4.2589188E-2,-3.7784155E-2,-6.098837E-3,2.3709661E-4,2.0577153E-2,-1.5190437E-2,3.7311405E-2,-3.145463E-2,3.1986088E-2],"categories":[],"categories_nodes":[],"categories_segments":[],"categories_sizes":[],"default_left":[0,0,0,0,0,0,0,0,0,0,0,0,0,0,0,0,0,0,0,0,0],"id":46,"left_children":[1,3,5,7,9,11,-1,13,15,17,-1,19,-1,-1,-1,-1,-1,-1,-1,-1,-1],"loss_changes":[1.5363388E2,7.234389E1,1.078598E0,6.3440777E1,7.1313095E-1,1.4805961E0,0E0,6.0409794E1,1.2890236E1,1.3153608E0,0E0,1.9428097E0,0E0,0E0,0E0,0E0,0E0,0E0,0E0,0E0,0E0],"parents":[2147483647,0,0,1,1,2,2,3,3,4,4,5,5,7,7,8,8,9,9,11,11],"right_children":[2,4,6,8,10,12,-1,14,16,18,-1,20,-1,-1,-1,-1,-1,-1,-1,-1,-1],"split_conditions":[1.764706E-1,1.764706E-1,1.8181819E-1,1.764706E-1,1.8204413E-1,5E0,5.2221563E-2,6.581079E-2,-2.9411765E-2,7E0,5.221522E-2,1.4240205E-1,4.2589188E-2,-3.7784155E-2,-6.098837E-3,2.3709661E-4,2.0577153E-2,-1.5190437E-2,3.7311405E-2,-3.145463E-2,3.1986088E-2],"split_indices":[1,0,1,2,0,8,0,4,0,9,0,4,0,0,0,0,0,0,0,0,0],"split_type":[0,0,0,0,0,0,0,0,0,0,0,0,0,0,0,0,0,0,0,0,0],"sum_hessian":[2.0697275E3,1.9327393E3,1.3698827E2,1.8739712E3,5.8768147E1,6.340916E0,1.3064734E2,1.5217854E3,3.5218576E2,3.4560404E0,5.5312107E1,2.858886E0,3.4820302E0,1.6834012E2,1.3534453E3,1.16021545E2,2.3616422E2,1.1874765E0,2.268564E0,1.6083113E0,1.2505747E0],"tree_param":{"num_deleted":"0","num_feature":"11","num_nodes":"21","size_leaf_vector":"1"}},{"base_weights":[3.2310868E-3,-6.640013E-2,1.0187598E0,-2.0804717E-1,1.8396254E-1,4.829543E-1,5.207011E-2,-6.0480005E-1,-1.2729861E-1,1.1195161E-1,5.2014064E-2,-5.467383E-2,4.196316E-2,-3.8215857E-2,1.4385302E-3,-1.4960197E-2,8.0687115E-3,3.5780338E-3,5.339964E-2,-2.9297167E-2,3.176745E-2],"categories":[],"categories_nodes":[],"categories_segments":[],"categories_sizes":[],"default_left":[0,0,0,0,0,0,0,0,0,0,0,0,0,0,0,0,0,0,0,0,0],"id":47,"left_children":[1,3,5,7,9,11,-1,13,15,17,-1,19,-1,-1,-1,-1,-1,-1,-1,-1,-1],"loss_changes":[1.4529079E2,6.8229294E1,1.0965424E0,3.9281982E1,4.276072E1,1.4271102E0,0E0,2.0991745E1,5.0766968E1,2.4734577E1,0E0,1.7699924E0,0E0,0E0,0E0,0E0,0E0,0E0,0E0,0E0,0E0],"parents":[2147483647,0,0,1,1,2,2,3,3,4,4,5,5,7,7,8,8,9,9,11,11],"right_children":[2,4,6,8,10,12,-1,14,16,18,-1,20,-1,-1,-1,-1,-1,-1,-1,-1,-1],"split_conditions":[1.764706E-1,9.176988E-3,1.8181819E-1,-1.7542551E-1,1.8204413E-1,1.0571428E3,5.207011E-2,3.34115E-1,1.63408E-1,4.1110116E-1,5.2014064E-2,8.3800845E-2,4.196316E-2,-3.8215857E-2,1.4385302E-3,-1.4960197E-2,8.0687115E-3,3.5780338E-3,5.339964E-2,-2.9297167E-2,3.176745E-2],"split_indices":[1,0,1,0,0,3,0,4,4,2,0,5,0,0,0,0,0,0,0,0,0],"split_type":[0,0,0,0,0,0,0,0,0,0,0,0,0,0,0,0,0,0,0,0,0],"sum_hessian":[2.0527122E3,1.921871E3,1.308413E2,1.2275387E3,6.9433234E2,6.2103386E0,1.2463096E2,2.0648717E2,1.02105145E3,6.415157E2,5.2816624E1,2.8127642E0,3.3975744E0,1.6479068E2,4.1696487E1,6.399333E2,3.8111816E2,6.165428E2,2.4972923E1,1.6744157E0,1.1383486E0],"tree_param":{"num_deleted":"0","num_feature":"11","num_nodes":"21","size_leaf_vector":"1"}},{"base_weights":[3.243124E-3,-6.33341E-2,1.0149472E0,-1.8656509E-1,2.1026683E-1,4.7344717E-1,5.192488E-2,-6.344551E-1,-9.8424956E-2,1.2523888E-1,7.0179147E-1,-5.6717265E-2,4.177248E-2,-3.4975447E-2,1.5906235E-2,-2.1918496E-2,3.8418898E-3,-1.4651439E-2,1.1551727E-2,4.2183798E-2,-3.000858E-3,-3.0304331E-2,3.23604E-2],"categories":[],"categories_nodes":[],"categories_segments":[],"categories_sizes":[],"default_left":[0,0,0,0,0,0,0,0,0,0,0,0,0,0,0,0,0,0,0,0,0,0,0],"id":48,"left_children":[1,3,5,7,9,11,-1,13,15,17,19,21,-1,-1,-1,-1,-1,-1,-1,-1,-1,-1,-1],"loss_changes":[1.3741722E2,6.4579575E1,1.1147156E0,5.205992E1,2.4775331E1,1.4077135E0,0E0,1.3664726E1,6.583357E1,2.256446E1,9.51033E0,1.8665829E0,0E0,0E0,0E0,0E0,0E0,0E0,0E0,0E0,0E0,0E0,0E0],"parents":[2147483647,0,0,1,1,2,2,3,3,4,4,5,5,7,7,8,8,9,9,10,10,11,11],"right_children":[2,4,6,8,10,12,-1,14,16,18,20,22,-1,-1,-1,-1,-1,-1,-1,-1,-1,-1,-1],"split_conditions":[1.764706E-1,3.6813423E-2,1.8181819E-1,8.7705635E-2,2.6666668E-1,5E0,5.192488E-2,2.2580644E-1,-8.646115E-2,7.745474E-2,2.1E1,6.8385713E3,4.177248E-2,-3.4975447E-2,1.5906235E-2,-2.1918496E-2,3.8418898E-3,-1.4651439E-2,1.1551727E-2,4.2183798E-2,-3.000858E-3,-3.0304331E-2,3.23604E-2],"split_indices":[1,1,1,4,2,8,0,2,0,4,9,6,0,0,0,0,0,0,0,0,0,0,0],"split_type":[0,0,0,0,0,0,0,0,0,0,0,0,0,0,0,0,0,0,0,0,0,0,0],"sum_hessian":[2.038195E3,1.9132285E3,1.2496646E2,1.3193196E3,5.939089E2,6.087971E0,1.18878494E2,2.1591827E2,1.1034014E3,5.0739102E2,8.651785E1,2.8124173E0,3.275554E0,2.0236404E2,1.3554228E1,3.7484308E2,7.285583E2,1.0207265E2,4.0531836E2,7.284351E1,1.3674342E1,1.657687E0,1.1547303E0],"tree_param":{"num_deleted":"0","num_feature":"11","num_nodes":"23","size_leaf_vector":"1"}},{"base_weights":[3.170967E-3,-6.0516544E-2,1.0111842E0,-9.170342E-2,1.0022343E0,4.6390802E-1,5.1785428E-2,-3.5996488E-1,2.389604E-2,3.788764E-1,5.178793E-2,-1.0078589E-2,7.295507E-1,1.8796153E-2,-2.2908648E-2,-3.3320464E-2,4.039024E-3,-1.5487055E-2,3.667569E-2,6.808997E-3,4.2183645E-2],"categories":[],"categories_nodes":[],"categories_segments":[],"categories_sizes":[],"default_left":[0,0,0,0,0,0,0,0,0,0,0,0,0,0,0,0,0,0,0,0,0],"id":49,"left_children":[1,3,5,7,9,11,-1,13,15,17,-1,-1,19,-1,-1,-1,-1,-1,-1,-1,-1],"loss_changes":[1.3001657E2,6.3229076E1,1.1348648E0,5.7426792E1,7.4422836E-1,1.3797832E0,0E0,4.047406E1,5.090127E1,1.2901647E0,0E0,0E0,2.3725605E-1,0E0,0E0,0E0,0E0,0E0,0E0,0E0,0E0],"parents":[2147483647,0,0,1,1,2,2,3,3,4,4,5,5,7,7,8,8,9,9,12,12],"right_children":[2,4,6,8,10,12,-1,14,16,18,-1,-1,20,-1,-1,-1,-1,-1,-1,-1,-1],"split_conditions":[1.764706E-1,1.764706E-1,1.8181819E-1,-7.692308E-2,1.8204413E-1,9.766943E2,5.1785428E-2,2.4657143E2,5.2386962E-2,7E0,5.178793E-2,-1.0078589E-2,-3.1133536E-3,1.8796153E-2,-2.2908648E-2,-3.3320464E-2,4.039024E-3,-1.5487055E-2,3.667569E-2,6.808997E-3,4.2183645E-2],"split_indices":[1,0,1,1,0,3,0,6,4,9,0,0,0,0,0,0,0,0,0,0,0],"split_type":[0,0,0,0,0,0,0,0,0,0,0,0,0,0,0,0,0,0,0,0,0],"sum_hessian":[2.0232948E3,1.9039414E3,1.1935338E2,1.8505499E3,5.3391476E1,5.9732285E0,1.1338015E2,5.5665533E2,1.2938947E3,3.3526773E0,5.00388E1,1.7729305E0,4.2002983E0,6.520871E1,4.914466E2,9.7689964E1,1.1962047E3,1.1827227E0,2.1699548E0,1.0313165E0,3.1689818E0],"tree_param":{"num_deleted":"0","num_feature":"11","num_nodes":"21","size_leaf_vector":"1"}},{"base_weights":[3.1499204E-3,-5.772128E-2,1.0073717E0,-8.744205E-2,9.9714166E-1,4.5328808E-1,5.1651318E-2,-2.5400427E-1,9.379345E-2,3.6965308E-1,5.1600534E-2,-6.613894E-2,4.104298E-2,-3.130419E-2,-7.4803084E-3,-2.5057463E-2,6.8946625E-3,-1.4964555E-2,3.621796E-2,-3.042451E-2,3.0732766E-2],"categories":[],"categories_nodes":[],"categories_segments":[],"categories_sizes":[],"default_left":[0,0,0,0,0,0,0,0,0,0,0,0,0,0,0,0,0,0,0,0,0],"id":50,"left_children":[1,3,5,7,9,11,-1,13,15,17,-1,19,-1,-1,-1,-1,-1,-1,-1,-1,-1],"loss_changes":[1.22999405E2,5.9567184E1,1.1664047E0,5.5753166E1,7.577934E-1,1.3660985E0,0E0,3.72856E1,2.3284933E1,1.2369106E0,0E0,1.766992E0,0E0,0E0,0E0,0E0,0E0,0E0,0E0,0E0,0E0],"parents":[2147483647,0,0,1,1,2,2,3,3,4,4,5,5,7,7,8,8,9,9,11,11],"right_children":[2,4,6,8,10,12,-1,14,16,18,-1,20,-1,-1,-1,-1,-1,-1,-1,-1,-1],"split_conditions":[1.764706E-1,1.764706E-1,1.8181819E-1,4.065694E-3,1.8204413E-1,5E0,5.1651318E-2,9.9966794E-2,5.2386962E-2,7E0,5.1600534E-2,1.4240205E-1,4.104298E-2,-3.130419E-2,-7.4803084E-3,-2.5057463E-2,6.8946625E-3,-1.4964555E-2,3.621796E-2,-3.042451E-2,3.0732766E-2],"split_indices":[1,0,1,2,0,8,0,4,4,9,0,4,0,0,0,0,0,0,0,0,0],"split_type":[0,0,0,0,0,0,0,0,0,0,0,0,0,0,0,0,0,0,0,0,0],"sum_hessian":[2.0102043E3,1.8962076E3,1.1399667E2,1.845138E3,5.106966E1,5.8707447E0,1.0812593E2,9.612821E2,8.8385583E2,3.2992337E0,4.7770428E1,2.7726665E0,3.098078E0,2.0952574E2,7.517564E2,6.027895E1,8.235769E2,1.1973557E0,2.1018782E0,1.60236E0,1.1703066E0],"tree_param":{"num_deleted":"0","num_feature":"11","num_nodes":"21","size_leaf_vector":"1"}},{"base_weights":[3.119251E-3,-5.511265E-2,1.0037926E0,-5.6025946E-1,5.2974643E-3,4.4451228E-1,5.1522147E-2,-7.183994E-1,5.3118035E-2,-1.6339359E-1,2.3425551E-1,-1.1467224E-2,7.0244974E-1,-6.11842E-3,-3.9763834E-2,-4.236303E-2,2.3585021E-2,-2.700583E-2,-1.8436228E-3,-1.5257987E-2,1.7044254E-2,8.63196E-3,4.0999226E-2],"categories":[],"categories_nodes":[],"categories_segments":[],"categories_sizes":[],"default_left":[0,0,0,0,0,0,0,0,0,0,0,0,0,0,0,0,0,0,0,0,0,0,0],"id":51,"left_children":[1,3,5,7,9,11,-1,13,15,17,19,-1,21,-1,-1,-1,-1,-1,-1,-1,-1,-1,-1],"loss_changes":[1.1641219E2,5.7615814E1,1.1794434E0,1.9600235E1,6.5206566E1,1.3353082E0,0E0,7.2525787E0,1.6329872E1,4.631334E1,4.12977E1,0E0,1.7799139E-1,0E0,0E0,0E0,0E0,0E0,0E0,0E0,0E0,0E0,0E0],"parents":[2147483647,0,0,1,1,2,2,3,3,4,4,5,5,7,7,8,8,9,9,10,10,12,12],"right_children":[2,4,6,8,10,12,-1,14,16,18,20,-1,22,-1,-1,-1,-1,-1,-1,-1,-1,-1,-1],"split_conditions":[1.764706E-1,-1.7542551E-1,1.8181819E-1,3.34115E-1,1.5252186E-1,-8.975127E-2,5.1522147E-2,2.3571428E2,-4.7826087E-1,-5.3498764E-2,-1.9476338E-1,-1.1467224E-2,7.221098E-4,-6.11842E-3,-3.9763834E-2,-4.236303E-2,2.3585021E-2,-2.700583E-2,-1.8436228E-3,-1.5257987E-2,1.7044254E-2,8.63196E-3,4.0999226E-2],"split_indices":[1,0,1,4,4,2,0,6,0,1,2,0,0,0,0,0,0,0,0,0,0,0,0],"split_type":[0,0,0,0,0,0,0,0,0,0,0,0,0,0,0,0,0,0,0,0,0,0,0],"sum_hessian":[1.995819E3,1.8869567E3,1.088622E2,2.0067197E2,1.6862848E3,5.7555695E0,1.0310663E2,1.594036E2,4.1268383E1,9.710924E2,7.151923E2,1.6239315E0,4.1316376E0,1.8507378E1,1.4089621E2,1.2771827E1,2.8496557E1,2.4332149E2,7.2777094E2,1.1773503E2,5.974573E2,1.1984098E0,2.933228E0],"tree_param":{"num_deleted":"0","num_feature":"11","num_nodes":"23","size_leaf_vector":"1"}},{"base_weights":[2.9861494E-3,-5.265349E-2,1.000109E0,-8.0825776E-2,9.91378E-1,4.345613E-1,5.139751E-2,-1.8782584E-1,1.753815E-1,3.5683745E-1,5.1395454E-2,-7.868766E-2,4.0203333E-2,-1.6137982E-2,3.4934375E-3,5.234336E-3,3.649653E-2,-1.4541179E-2,3.5634853E-2,-2.885344E-2,3.016216E-2],"categories":[],"categories_nodes":[],"categories_segments":[],"categories_sizes":[],"default_left":[0,0,0,0,0,0,0,0,0,0,0,0,0,0,0,0,0,0,0,0,0],"id":52,"left_children":[1,3,5,7,9,11,-1,13,15,17,-1,19,-1,-1,-1,-1,-1,-1,-1,-1,-1],"loss_changes":[1.10190025E2,5.5411953E1,1.2060852E0,5.0275333E1,7.8074646E-1,1.3258321E0,0E0,4.499223E1,2.1110481E1,1.1814053E0,0E0,1.6047597E0,0E0,0E0,0E0,0E0,0E0,0E0,0E0,0E0,0E0],"parents":[2147483647,0,0,1,1,2,2,3,3,4,4,5,5,7,7,8,8,9,9,11,11],"right_children":[2,4,6,8,10,12,-1,14,16,18,-1,20,-1,-1,-1,-1,-1,-1,-1,-1,-1],"split_conditions":[1.764706E-1,1.764706E-1,1.8181819E-1,4.1666668E-2,1.8204413E-1,1.0571428E3,5.139751E-2,2.27905E3,3.1240347E-1,7E0,5.1395454E-2,8.3800845E-2,4.0203333E-2,-1.6137982E-2,3.4934375E-3,5.234336E-3,3.649653E-2,-1.4541179E-2,3.5634853E-2,-2.885344E-2,3.016216E-2],"split_indices":[1,0,1,1,0,3,0,3,2,9,0,5,0,0,0,0,0,0,0,0,0],"split_type":[0,0,0,0,0,0,0,0,0,0,0,0,0,0,0,0,0,0,0,0,0],"sum_hessian":[1.9841884E3,1.880219E3,1.03969376E2,1.8317144E3,4.8504642E1,5.657388E0,9.831199E1,1.2922837E3,5.3943066E2,3.2266202E0,4.5278023E1,2.6975262E0,2.959862E0,8.4800146E2,4.4428217E2,4.7949292E2,5.9937737E1,1.2090032E0,2.017617E0,1.6473511E0,1.0501751E0],"tree_param":{"num_deleted":"0","num_feature":"11","num_nodes":"21","size_leaf_vector":"1"}},{"base_weights":[3.0280119E-3,-5.014856E-2,9.9660397E-1,-7.607563E-2,5.1218923E-2,4.261659E-1,5.1277053E-2,-3.243802E-1,2.9010843E-2,-7.6804556E-2,3.9963026E-2,4.3279976E-3,-2.466648E-2,-2.9656578E-2,4.2112526E-3,-3.0061183E-2,3.1007001E-2],"categories":[],"categories_nodes":[],"categories_segments":[],"categories_sizes":[],"default_left":[0,0,0,0,0,0,0,0,0,0,0,0,0,0,0,0,0],"id":53,"left_children":[1,3,5,7,-1,9,-1,11,13,15,-1,-1,-1,-1,-1,-1,-1],"loss_changes":[1.04301025E2,5.228238E1,1.2183609E0,4.7777138E1,0E0,1.2910433E0,0E0,3.7843E1,4.4266293E1,1.7262478E0,0E0,0E0,0E0,0E0,0E0,0E0,0E0],"parents":[2147483647,0,0,1,1,2,2,3,3,5,5,7,7,8,8,9,9],"right_children":[2,4,6,8,-1,10,-1,12,14,16,-1,-1,-1,-1,-1,-1,-1],"split_conditions":[1.764706E-1,1.8204413E-1,1.8181819E-1,-7.692308E-2,5.1218923E-2,5E0,5.1277053E-2,6.742857E2,5.416608E-2,6.8385713E3,3.9963026E-2,4.3279976E-3,-2.466648E-2,-2.9656578E-2,4.2112526E-3,-3.0061183E-2,3.1007001E-2],"split_indices":[1,0,1,1,0,8,0,6,4,6,0,0,0,0,0,0,0],"split_type":[0,0,0,0,0,0,0,0,0,0,0,0,0,0,0,0,0],"sum_hessian":[1.9721451E3,1.8728586E3,9.92866E1,1.8296407E3,4.3217873E1,5.552732E0,9.3733864E1,5.434524E2,1.2861884E3,2.7029774E0,2.8497543E0,1.5847562E2,3.8497678E2,1.0404852E2,1.1821398E3,1.6207674E0,1.0822101E0],"tree_param":{"num_deleted":"0","num_feature":"11","num_nodes":"17","size_leaf_vector":"1"}},{"base_weights":[2.9857433E-3,-4.7831092E-2,9.9310577E-1,-5.282148E-1,8.991016E-3,4.1777784E-1,5.1160425E-2,-6.8402743E-1,6.453393E-2,-1.5244843E-1,2.2744125E-1,-8.393597E-2,3.9500933E-2,-5.802326E-3,-3.7958827E-2,-4.048429E-2,2.308528E-2,-2.5374738E-2,-1.8017637E-3,-1.4143668E-2,1.6376225E-2,-2.7832875E-2,2.920661E-2],"categories":[],"categories_nodes":[],"categories_segments":[],"categories_sizes":[],"default_left":[0,0,0,0,0,0,0,0,0,0,0,0,0,0,0,0,0,0,0,0,0,0,0],"id":54,"left_children":[1,3,5,7,9,11,-1,13,15,17,19,21,-1,-1,-1,-1,-1,-1,-1,-1,-1,-1,-1],"loss_changes":[9.875418E1,5.0966248E1,1.231987E0,1.828408E1,5.8946434E1,1.2716848E0,0E0,6.5905685E0,1.4964409E1,3.9709328E1,3.6370094E1,1.4788072E0,0E0,0E0,0E0,0E0,0E0,0E0,0E0,0E0,0E0,0E0,0E0],"parents":[2147483647,0,0,1,1,2,2,3,3,4,4,5,5,7,7,8,8,9,9,10,10,11,11],"right_children":[2,4,6,8,10,12,-1,14,16,18,20,22,-1,-1,-1,-1,-1,-1,-1,-1,-1,-1,-1],"split_conditions":[1.764706E-1,-1.7542551E-1,1.8181819E-1,3.34115E-1,1.5252186E-1,1.0571428E3,5.1160425E-2,2.3571428E2,-4.7826087E-1,-5.3498764E-2,-1.9476338E-1,8.3800845E-2,3.9500933E-2,-5.802326E-3,-3.7958827E-2,-4.048429E-2,2.308528E-2,-2.5374738E-2,-1.8017637E-3,-1.4143668E-2,1.6376225E-2,-2.7832875E-2,2.920661E-2],"split_indices":[1,0,1,4,4,3,0,6,0,1,2,5,0,0,0,0,0,0,0,0,0,0,0],"split_type":[0,0,0,0,0,0,0,0,0,0,0,0,0,0,0,0,0,0,0,0,0,0,0],"sum_hessian":[1.9607837E3,1.8659667E3,9.4817024E1,1.9649223E2,1.6694744E3,5.4541893E0,8.936283E1,1.5547054E2,4.1021687E1,9.601816E2,7.092928E2,2.6529717E0,2.8012176E0,1.8463875E1,1.3700667E2,1.249036E1,2.8531328E1,2.3625931E2,7.2392224E2,1.1599901E2,5.932938E2,1.6512918E0,1.00168E0],"tree_param":{"num_deleted":"0","num_feature":"11","num_nodes":"23","size_leaf_vector":"1"}},{"base_weights":[2.859009E-3,-4.56965E-2,9.896714E-1,-7.026302E-2,5.1026274E-2,4.0984797E-1,5.1047284E-2,-1.8314745E-1,1.4570099E-1,-7.8129284E-2,3.9194673E-2,-2.3906616E-2,-3.305896E-3,8.428748E-4,1.6384348E-2,-2.9080048E-2,3.0302266E-2],"categories":[],"categories_nodes":[],"categories_segments":[],"categories_sizes":[],"default_left":[0,0,0,0,0,0,0,0,0,0,0,0,0,0,0,0,0],"id":55,"left_children":[1,3,5,7,-1,9,-1,11,13,15,-1,-1,-1,-1,-1,-1,-1],"loss_changes":[9.353414E1,4.880675E1,1.2416229E0,4.4387135E1,0E0,1.2213342E0,0E0,4.1237225E1,1.465354E1,1.6157002E0,0E0,0E0,0E0,0E0,0E0,0E0,0E0],"parents":[2147483647,0,0,1,1,2,2,3,3,5,5,7,7,8,8,9,9],"right_children":[2,4,6,8,-1,10,-1,12,14,16,-1,-1,-1,-1,-1,-1,-1],"split_conditions":[1.764706E-1,1.8204413E-1,1.8181819E-1,7.8708574E-2,5.1026274E-2,5E0,5.1047284E-2,1.10509746E-1,4.700816E-2,6.8385713E3,3.9194673E-2,-2.3906616E-2,-3.305896E-3,8.428748E-4,1.6384348E-2,-2.9080048E-2,3.0302266E-2],"split_indices":[1,0,1,2,0,8,0,4,1,6,0,0,0,0,0,0,0],"split_type":[0,0,0,0,0,0,0,0,0,0,0,0,0,0,0,0,0],"sum_hessian":[1.9501335E3,1.8595874E3,9.054619E1,1.8186191E3,4.0968197E1,5.355759E0,8.519043E1,1.1944381E3,6.24181E2,2.667231E0,2.6885283E0,3.3839456E2,8.5604364E2,3.6608832E2,2.580927E2,1.622895E0,1.044336E0],"tree_param":{"num_deleted":"0","num_feature":"11","num_nodes":"17","size_leaf_vector":"1"}},{"base_weights":[2.850046E-3,-4.2121466E-2,5.0937314E-2,-4.6823502E-1,1.7276473E-2,-7.0108056E-1,-1.0033498E-1,-3.3405986E-1,1.107281E-1,-3.9635945E-2,-5.2445843E-3,-1.6815646E-2,2.0702563E-2,-2.380405E-2,2.6875282E-2,-4.3466405E-4,1.7953059E-2],"categories":[],"categories_nodes":[],"categories_segments":[],"categories_sizes":[],"default_left":[0,0,0,0,0,0,0,0,0,0,0,0,0,0,0,0,0],"id":56,"left_children":[1,3,-1,5,7,9,11,13,15,-1,-1,-1,-1,-1,-1,-1,-1],"loss_changes":[8.859832E1,4.7012405E1,0E0,1.939574E1,5.358381E1,7.5106583E0,1.0971924E1,4.270084E1,3.822953E1,0E0,0E0,0E0,0E0,0E0,0E0,0E0,0E0],"parents":[2147483647,0,0,1,1,3,3,4,4,5,5,6,6,7,7,8,8],"right_children":[2,4,-1,6,8,10,12,14,16,-1,-1,-1,-1,-1,-1,-1,-1],"split_conditions":[1.8181819E-1,-1.5755695E-1,5.0937314E-2,2.5015202E-1,8.7705635E-2,1.2E1,9E0,2.2222222E-1,2.27905E3,-3.9635945E-2,-5.2445843E-3,-1.6815646E-2,2.0702563E-2,-2.380405E-2,2.6875282E-2,-4.3466405E-4,1.7953059E-2],"split_indices":[1,0,0,4,4,8,8,2,3,0,0,0,0,0,0,0,0],"split_type":[0,0,0,0,0,0,0,0,0,0,0,0,0,0,0,0,0],"sum_hessian":[1.9373324E3,1.8561244E3,8.1208046E1,2.2623796E2,1.6298865E3,1.3799481E2,8.824314E1,3.4190433E2,1.287982E3,1.1932422E2,1.8670593E1,6.0729355E1,2.751379E1,2.9438776E2,4.7516567E1,8.7038556E2,4.175965E2],"tree_param":{"num_deleted":"0","num_feature":"11","num_nodes":"17","size_leaf_vector":"1"}},{"base_weights":[2.7311235E-3,-4.169693E-2,9.8282415E-1,-6.505352E-2,5.0841738E-2,4.0314147E-1,5.083021E-2,-2.7649146E-1,4.378658E-2,-8.5537866E-2,3.880694E-2,2.9552564E-2,-1.6973024E-2,-7.0324303E-3,9.845922E-3,-2.5187701E-2,1.6524913E-2],"categories":[],"categories_nodes":[],"categories_segments":[],"categories_sizes":[],"default_left":[0,0,0,0,0,0,0,0,0,0,0,0,0,0,0,0,0],"id":57,"left_children":[1,3,5,7,-1,9,-1,11,13,15,-1,-1,-1,-1,-1,-1,-1],"loss_changes":[8.4018326E1,4.5703773E1,1.2286148E0,4.1596367E1,0E0,1.2082717E0,0E0,3.3753788E1,3.374372E1,7.9504E-1,0E0,0E0,0E0,0E0,0E0,0E0,0E0],"parents":[2147483647,0,0,1,1,2,2,3,3,5,5,7,7,8,8,9,9],"right_children":[2,4,6,8,-1,10,-1,12,14,16,-1,-1,-1,-1,-1,-1,-1],"split_conditions":[1.764706E-1,1.8204413E-1,1.8181819E-1,-6.0606062E-2,5.0841738E-2,1.0571428E3,5.083021E-2,1E2,1.3147491E-1,4E0,3.880694E-2,2.9552564E-2,-1.6973024E-2,-7.0324303E-3,9.845922E-3,-2.5187701E-2,1.6524913E-2],"split_indices":[1,0,1,2,0,3,0,6,4,8,0,0,0,0,0,0,0],"split_type":[0,0,0,0,0,0,0,0,0,0,0,0,0,0,0,0,0],"sum_hessian":[1.9275796E3,1.8449066E3,8.267298E1,1.8059957E3,3.8910904E1,5.264576E0,7.740841E1,6.132081E2,1.1927876E3,2.612502E0,2.6520736E0,4.09291E1,5.72279E2,5.4112585E2,6.5166174E2,1.1976922E0,1.4148101E0],"tree_param":{"num_deleted":"0","num_feature":"11","num_nodes":"17","size_leaf_vector":"1"}},{"base_weights":[2.7309954E-3,-3.8298696E-2,5.0725676E-2,-1.5538463E-1,1.6778757E-1,2.2119115E-1,-2.2726052E-1,1.1611111E-1,5.0689775E-2,6.5838033E-3,5.6531202E-2,-2.6469672E-2,-6.7424425E-3,4.0313615E-3,4.948183E-2],"categories":[],"categories_nodes":[],"categories_segments":[],"categories_sizes":[],"default_left":[0,0,0,0,0,0,0,0,0,0,0,0,0,0,0],"id":58,"left_children":[1,3,-1,5,7,9,11,13,-1,-1,-1,-1,-1,-1,-1],"loss_changes":[7.966029E1,4.452623E1,0E0,3.1895922E1,2.9114262E1,1.5243818E1,2.7527592E1,1.9487288E1,0E0,0E0,0E0,0E0,0E0,0E0,0E0],"parents":[2147483647,0,0,1,1,3,3,4,4,5,5,6,6,7,7],"right_children":[2,4,-1,6,8,10,12,14,-1,-1,-1,-1,-1,-1,-1],"split_conditions":[1.8181819E-1,9.176988E-3,5.0725676E-2,3.842857E2,1.8204413E-1,1.2E1,-1.4285715E-1,4.1110116E-1,5.0689775E-2,6.5838033E-3,5.6531202E-2,-2.6469672E-2,-6.7424425E-3,4.0313615E-3,4.948183E-2],"split_indices":[1,0,0,6,0,8,2,2,0,0,0,0,0,0,0],"split_type":[0,0,0,0,0,0,0,0,0,0,0,0,0,0,0],"sum_hessian":[1.9169823E3,1.8431992E3,7.3783066E1,1.1755614E3,6.676379E2,1.8808092E2,9.8748047E2,6.302761E2,3.7361732E1,1.7226932E2,1.58116045E1,2.301837E2,7.5729675E2,6.067225E2,2.355365E1],"tree_param":{"num_deleted":"0","num_feature":"11","num_nodes":"15","size_leaf_vector":"1"}},{"base_weights":[2.7492768E-3,-3.6436882E-2,5.0623424E-2,-4.8038676E-1,1.5004843E-2,-6.3221323E-1,7.8601E-2,-1.3190739E-1,2.1171102E-1,-4.8886336E-2,-2.4964986E-2,-3.8700193E-2,2.2820065E-2,-2.3665559E-2,-1.1454155E-3,-2.6533166E-3,1.9406542E-2],"categories":[],"categories_nodes":[],"categories_segments":[],"categories_sizes":[],"default_left":[0,0,0,0,0,0,0,0,0,0,0,0,0,0,0,0,0],"id":59,"left_children":[1,3,-1,5,7,9,11,13,15,-1,-1,-1,-1,-1,-1,-1,-1],"loss_changes":[7.554016E1,4.198063E1,0E0,1.6249523E1,4.765367E1,6.4104233E0,1.3772699E1,3.5119476E1,3.295214E1,0E0,0E0,0E0,0E0,0E0,0E0,0E0,0E0],"parents":[2147483647,0,0,1,1,3,3,4,4,5,5,6,6,7,7,8,8],"right_children":[2,4,-1,6,8,10,12,14,16,-1,-1,-1,-1,-1,-1,-1,-1],"split_conditions":[1.8181819E-1,-1.7542551E-1,5.0623424E-2,3.34115E-1,1.5252186E-1,-2.985333E-1,-4.7826087E-1,-5.3498764E-2,5E0,-4.8886336E-2,-2.4964986E-2,-3.8700193E-2,2.2820065E-2,-2.3665559E-2,-1.1454155E-3,-2.6533166E-3,1.9406542E-2],"split_indices":[1,0,0,4,4,0,0,1,8,0,0,0,0,0,0,0,0],"split_type":[0,0,0,0,0,0,0,0,0,0,0,0,0,0,0,0,0],"sum_hessian":[1.9072377E3,1.8369128E3,7.0324776E1,1.8988014E2,1.6470327E3,1.4921965E2,4.0660492E1,9.430412E2,7.039915E2,3.9689423E1,1.0953022E2,1.2162938E1,2.8497555E1,2.2741043E2,7.156308E2,2.8178198E2,4.2220956E2],"tree_param":{"num_deleted":"0","num_feature":"11","num_nodes":"17","size_leaf_vector":"1"}},{"base_weights":[2.5977087E-3,-3.481406E-2,5.052318E-2,-5.5985294E-2,5.0510403E-2,1.2623397E-1,