{"learner":{"attributes":{"scikit_learn":"{\"_estimator_type\": \"classifier\"}"},"feature_names":["ret_1","ret_3","ret_7","ma_7","vol_14","arrival_3pct","arrival_7mean","arrival_spike","month","district_code","rain_anomaly_30d"],"feature_types":["float","float","float","float","float","float","float","float","float","int","int"],"gradient_booster":{"model":{"cats":{"enc":[],"feature_segments":[],"sorted_idx":[]},"gbtree_model_param":{"num_parallel_tree":"1","num_trees":"300"},"iteration_indptr":[0,1,2,3,4,5,6,7,8,9,10,11,12,13,14,15,16,17,18,19,20,21,22,23,24,25,26,27,28,29,30,31,32,33,34,35,36,37,38,39,40,41,42,43,44,45,46,47,48,49,50,51,52,53,54,55,56,57,58,59,60,61,62,63,64,65,66,67,68,69,70,71,72,73,74,75,76,77,78,79,80,81,82,83,84,85,86,87,88,89,90,91,92,93,94,95,96,97,98,99,100,101,102,103,104,105,106,107,108,109,110,111,112,113,114,115,116,117,118,119,120,121,122,123,124,125,126,127,128,129,130,131,132,133,134,135,136,137,138,139,140,141,142,143,144,145,146,147,148,149,150,151,152,153,154,155,156,157,158,159,160,161,162,163,164,165,166,167,168,169,170,171,172,173,174,175,176,177,178,179,180,181,182,183,184,185,186,187,188,189,190,191,192,193,194,195,196,197,198,199,200,201,202,203,204,205,206,207,208,209,210,211,212,213,214,215,216,217,218,219,220,221,222,223,224,225,226,227,228,229,230,231,232,233,234,235,236,237,238,239,240,241,242,243,244,245,246,247,248,249,250,251,252,253,254,255,256,257,258,259,260,261,262,263,264,265,266,267,268,269,270,271,272,273,274,275,276,277,278,279,280,281,282,283,284,285,286,287,288,289,290,291,292,293,294,295,296,297,298,299,300],"tree_info":[0,0,0,0,0,0,0,0,0,0,0,0,0,0,0,0,0,0,0,0,0,0,0,0,0,0,0,0,0,0,0,0,0,0,0,0,0,0,0,0,0,0,0,0,0,0,0,0,0,0,0,0,0,0,0,0,0,0,0,0,0,0,0,0,0,0,0,0,0,0,0,0,0,0,0,0,0,0,0,0,0,0,0,0,0,0,0,0,0,0,0,0,0,0,0,0,0,0,0,0,0,0,0,0,0,0,0,0,0,0,0,0,0,0,0,0,0,0,0,0,0,0,0,0,0,0,0,0,0,0,0,0,0,0,0,0,0,0,0,0,0,0,0,0,0,0,0,0,0,0,0,0,0,0,0,0,0,0,0,0,0,0,0,0,0,0,0,0,0,0,0,0,0,0,0,0,0,0,0,0,0,0,0,0,0,0,0,0,0,0,0,0,0,0,0,0,0,0,0,0,0,0,0,0,0,0,0,0,0,0,0,0,0,0,0,0,0,0,0,0,0,0,0,0,0,0,0,0,0,0,0,0,0,0,0,0,0,0,0,0,0,0,0,0,0,0,0,0,0,0,0,0,0,0,0,0,0,0,0,0,0,0,0,0,0,0,0,0,0,0,0,0,0,0,0,0,0,0,0,0,0,0,0,0,0,0,0,0,0,0,0,0,0,0,0,0,0,0,0,0],"trees":[{"base_weights":[-8.185564E-9,-6.9820285E-1,1.7920464E0,-1.0238984E0,9.96976E-2,8.216473E-1,9.9898286E-2,-1.2013481E0,8.008229E-1,2.7323297E-1,9.6406996E-2,-8.500203E-2,-3.9031636E-2,-1.3804781E-3,5.370133E-2,-3.7536506E-2,4.0302176E-2],"categories":[],"categories_nodes":[],"categories_segments":[],"categories_sizes":[],"default_left":[0,0,0,0,0,0,0,0,0,0,0,0,0,0,0,0,0],"id":0,"left_children":[1,3,5,7,-1,9,-1,11,13,15,-1,-1,-1,-1,-1,-1,-1],"loss_changes":[5.3220293E3,2.6859314E3,2.3666333E2,8.853281E2,0E0,1.2718576E2,0E0,5.210049E2,5.4952545E1,7.801377E1,0E0,0E0,0E0,0E0,0E0,0E0,0E0],"parents":[2147483647,0,0,1,1,2,2,3,3,5,5,7,7,8,8,9,9],"right_children":[2,4,6,8,-1,10,-1,12,14,16,-1,-1,-1,-1,-1,-1,-1],"split_conditions":[1.3043478E-1,1.8181819E-1,1.8181819E-1,1.7777778E-1,9.96976E-2,1.7391305E-1,9.9898286E-2,1.5299542E-1,1.5441154E-1,1.4652172E-1,9.6406996E-2,-8.500203E-2,-3.9031636E-2,-1.3804781E-3,5.370133E-2,-3.7536506E-2,4.0302176E-2],"split_indices":[0,1,0,2,0,1,0,4,4,4,0,0,0,0,0,0,0],"split_type":[0,0,0,0,0,0,0,0,0,0,0,0,0,0,0,0,0],"sum_hessian":[4.2515E3,3.0599263E3,1.1915737E3,2.7302427E3,3.296837E2,2.094633E2,9.8211035E2,2.4885762E3,2.4166641E2,1.4088365E2,6.857966E1,1.137366E3,1.3512102E3,6.0155758E1,1.8151065E2,4.807788E1,9.280576E1],"tree_param":{"num_deleted":"0","num_feature":"11","num_nodes":"17","size_leaf_vector":"1"}},{"base_weights":[6.562887E-5,-6.640577E-1,1.7064899E0,-9.8778313E-1,1.7918211E0,7.8185576E-1,9.514934E-2,-1.155373E0,7.5408983E-1,4.404381E-1,9.496679E-2,2.596928E-1,9.1869675E-2,-8.126425E-2,-3.7862405E-2,-3.4486689E-3,5.1274516E-2,-1.3639847E-2,4.529832E-2,-3.571045E-2,3.8324207E-2],"categories":[],"categories_nodes":[],"categories_segments":[],"categories_sizes":[],"default_left":[0,0,0,0,0,0,0,0,0,0,0,0,0,0,0,0,0,0,0,0,0],"id":1,"left_children":[1,3,5,7,9,11,-1,13,15,17,-1,19,-1,-1,-1,-1,-1,-1,-1,-1,-1],"loss_changes":[4.813391E3,2.432505E3,2.1470483E2,7.896328E2,5.095117E1,1.1540459E2,0E0,4.5997266E2,5.3179764E1,9.401141E0,0E0,7.054927E1,0E0,0E0,0E0,0E0,0E0,0E0,0E0,0E0,0E0],"parents":[2147483647,0,0,1,1,2,2,3,3,4,4,5,5,7,7,8,8,9,9,11,11],"right_children":[2,4,6,8,10,12,-1,14,16,18,-1,20,-1,-1,-1,-1,-1,-1,-1,-1,-1],"split_conditions":[1.3043478E-1,1.6666667E-1,1.8181819E-1,1.7777778E-1,1.8181819E-1,1.7391305E-1,9.514934E-2,1.5299542E-1,1.5441154E-1,1E1,9.496679E-2,1.4652172E-1,9.1869675E-2,-8.126425E-2,-3.7862405E-2,-3.4486689E-3,5.1274516E-2,-1.3639847E-2,4.529832E-2,-3.571045E-2,3.8324207E-2],"split_indices":[0,1,0,2,1,1,0,4,4,9,0,4,0,0,0,0,0,0,0,0,0],"split_type":[0,0,0,0,0,0,0,0,0,0,0,0,0,0,0,0,0,0,0,0,0],"sum_hessian":[4.2453247E3,3.0564111E3,1.1889138E3,2.7009756E3,3.5543552E2,2.092496E2,9.796642E2,2.4642231E3,2.3675229E2,2.6569698E1,3.288658E2,1.4082904E2,6.8420555E1,1.1288018E3,1.3354214E3,5.8893784E1,1.778585E2,1.0656658E1,1.5913039E1,4.806095E1,9.276809E1],"tree_param":{"num_deleted":"0","num_feature":"11","num_nodes":"21","size_leaf_vector":"1"}},{"base_weights":[1.6358454E-4,-6.32918E-1,1.6317797E0,-9.4113857E-1,1.7138535E0,7.454252E-1,9.104618E-2,-1.1009643E0,7.1771264E-1,4.195771E-1,9.087728E-2,2.4700078E-1,1.7583841E0,-7.760809E-2,-3.601108E-2,-3.2791295E-3,4.882604E-2,-5.5430895E-3,5.0227057E-2,-3.3995E-2,3.647048E-2,5.198003E-2,8.998759E-2],"categories":[],"categories_nodes":[],"categories_segments":[],"categories_sizes":[],"default_left":[0,0,0,0,0,0,0,0,0,0,0,0,0,0,0,0,0,0,0,0,0,0,0],"id":2,"left_children":[1,3,5,7,9,11,-1,13,15,17,-1,19,21,-1,-1,-1,-1,-1,-1,-1,-1,-1,-1],"loss_changes":[4.3694023E3,2.2059834E3,1.9688354E2,7.1515137E2,4.6766357E1,1.0541519E2,0E0,4.2114575E2,4.8188637E1,8.665541E0,0E0,6.384562E1,1.7993164E-1,0E0,0E0,0E0,0E0,0E0,0E0,0E0,0E0,0E0,0E0],"parents":[2147483647,0,0,1,1,2,2,3,3,4,4,5,5,7,7,8,8,9,9,11,11,12,12],"right_children":[2,4,6,8,10,12,-1,14,16,18,-1,20,22,-1,-1,-1,-1,-1,-1,-1,-1,-1,-1],"split_conditions":[1.3043478E-1,1.6666667E-1,1.8181819E-1,1.7777778E-1,1.8181819E-1,1.7391305E-1,9.104618E-2,1.5299542E-1,1.5441154E-1,1.2E1,9.087728E-2,1.4652172E-1,1.8181819E-1,-7.760809E-2,-3.601108E-2,-3.2791295E-3,4.882604E-2,-5.5430895E-3,5.0227057E-2,-3.3995E-2,3.647048E-2,5.198003E-2,8.998759E-2],"split_indices":[0,1,0,2,1,1,0,4,4,9,0,4,1,0,0,0,0,0,0,0,0,0,0],"split_type":[0,0,0,0,0,0,0,0,0,0,0,0,0,0,0,0,0,0,0,0,0,0,0],"sum_hessian":[4.228039E3,3.046559E3,1.18148E3,2.6934106E3,3.5314856E2,2.0865141E2,9.7282855E2,2.4570198E3,2.3639076E2,2.6568523E1,3.2658005E2,1.4067593E2,6.797548E1,1.1230625E3,1.3339573E3,5.8893467E1,1.774973E2,1.4358699E1,1.2209825E1,4.8013454E1,9.266248E1,5.1212955E0,6.285418E1],"tree_param":{"num_deleted":"0","num_feature":"11","num_nodes":"23","size_leaf_vector":"1"}},{"base_weights":[2.9582094E-4,-6.0433775E-1,1.5659758E0,-9.232421E-1,1.4728231E0,7.1210504E-1,8.746871E-2,-1.0729932E0,6.7652035E-1,3.5981023E-1,8.73101E-2,2.3507263E-1,1.6896276E0,-7.887076E-2,-3.814503E-2,-5.0321296E-3,4.6508804E-2,-2.4168013E-2,2.8732413E-2,-3.2379728E-2,3.4728497E-2,5.0043005E-2,8.646475E-2],"categories":[],"categories_nodes":[],"categories_segments":[],"categories_sizes":[],"default_left":[0,0,0,0,0,0,0,0,0,0,0,0,0,0,0,0,0,0,0,0,0,0,0],"id":3,"left_children":[1,3,5,7,9,11,-1,13,15,17,-1,19,21,-1,-1,-1,-1,-1,-1,-1,-1,-1,-1],"loss_changes":[3.979138E3,2.010013E3,1.8213428E2,6.306272E2,1.2228961E2,9.693708E1,0E0,3.7492896E2,4.4581192E1,1.4935565E1,0E0,5.781508E1,1.3508606E-1,0E0,0E0,0E0,0E0,0E0,0E0,0E0,0E0,0E0,0E0],"parents":[2147483647,0,0,1,1,2,2,3,3,4,4,5,5,7,7,8,8,9,9,11,11,12,12],"right_children":[2,4,6,8,10,12,-1,14,16,18,-1,20,22,-1,-1,-1,-1,-1,-1,-1,-1,-1,-1],"split_conditions":[1.3043478E-1,1.4285715E-1,1.8181819E-1,1.7777778E-1,1.8181819E-1,1.7391305E-1,8.746871E-2,1.23879194E-1,1.5441154E-1,1.03603E-1,8.73101E-2,1.4652172E-1,1.8181819E-1,-7.887076E-2,-3.814503E-2,-5.0321296E-3,4.6508804E-2,-2.4168013E-2,2.8732413E-2,-3.2379728E-2,3.4728497E-2,5.0043005E-2,8.646475E-2],"split_indices":[0,1,0,2,1,1,0,4,4,4,0,4,1,0,0,0,0,0,0,0,0,0,0],"split_type":[0,0,0,0,0,0,0,0,0,0,0,0,0,0,0,0,0,0,0,0,0,0,0],"sum_hessian":[4.201333E3,3.0313152E3,1.170018E3,2.6283438E3,4.0297134E2,2.0773294E2,9.62285E2,2.4036697E3,2.2467418E2,7.9917496E1,3.2305386E2,1.40439E2,6.7293945E1,9.1354144E2,1.4901282E3,5.5434486E1,1.6923969E2,1.5974155E1,6.3943336E1,4.7939907E1,9.2499084E1,5.092965E0,6.2200985E1],"tree_param":{"num_deleted":"0","num_feature":"11","num_nodes":"23","size_leaf_vector":"1"}},{"base_weights":[4.2782366E-4,-5.733482E-1,1.5198436E0,-8.799005E-1,1.4171299E0,6.968259E-1,8.432501E-2,-1.0227457E0,6.4116436E-1,3.4592703E-1,8.4180765E-2,2.4458209E-1,1.6246681E0,-7.229095E-2,-3.3447113E-2,-4.5538167E-3,4.415914E-2,-2.3076698E-2,2.7420778E-2,-1.929146E-2,4.4766776E-2,4.822329E-2,8.326812E-2],"categories":[],"categories_nodes":[],"categories_segments":[],"categories_sizes":[],"default_left":[0,0,0,0,0,0,0,0,0,0,0,0,0,0,0,0,0,0,0,0,0,0,0],"id":4,"left_children":[1,3,5,7,9,11,-1,13,15,17,-1,19,21,-1,-1,-1,-1,-1,-1,-1,-1,-1,-1],"loss_changes":[3.634498E3,1.8477715E3,1.5556885E2,5.7055664E2,1.14812805E2,8.106643E1,0E0,3.5799683E2,4.0094063E1,1.3625778E1,0E0,5.437428E1,9.82666E-2,0E0,0E0,0E0,0E0,0E0,0E0,0E0,0E0,0E0,0E0],"parents":[2147483647,0,0,1,1,2,2,3,3,4,4,5,5,7,7,8,8,9,9,11,11,12,12],"right_children":[2,4,6,8,10,12,-1,14,16,18,-1,20,22,-1,-1,-1,-1,-1,-1,-1,-1,-1,-1],"split_conditions":[1.3333334E-1,1.4285715E-1,1.8181819E-1,1.7777778E-1,1.8181819E-1,1.7391305E-1,8.432501E-2,1.5299542E-1,1.5441154E-1,1.03603E-1,8.4180765E-2,1.8380554E-1,1.8181819E-1,-7.229095E-2,-3.3447113E-2,-4.5538167E-3,4.415914E-2,-2.3076698E-2,2.7420778E-2,-1.929146E-2,4.4766776E-2,4.822329E-2,8.326812E-2],"split_indices":[0,1,0,2,1,1,0,4,4,4,0,4,1,0,0,0,0,0,0,0,0,0,0],"split_type":[0,0,0,0,0,0,0,0,0,0,0,0,0,0,0,0,0,0,0,0,0,0,0],"sum_hessian":[4.1669385E3,3.0251685E3,1.1417699E3,2.6219253E3,4.0324313E2,1.9314122E2,9.4862866E2,2.3971348E3,2.247905E2,8.078922E1,3.2245392E2,1.3069981E2,6.2441395E1,1.0902921E3,1.3068428E3,5.5995754E1,1.6879474E2,1.59412365E1,6.4847984E1,6.659431E1,6.4105515E1,5.0594687E0,5.7381927E1],"tree_param":{"num_deleted":"0","num_feature":"11","num_nodes":"23","size_leaf_vector":"1"}},{"base_weights":[5.750555E-4,-5.535392E-1,1.455346E0,-8.093317E-1,8.139797E-2,6.53766E-1,8.1543475E-2,-9.7657096E-1,4.3416482E-1,2.1531653E-1,1.5745559E0,-7.362688E-2,-3.4073006E-2,-1.3327173E-2,3.704724E-2,-3.221153E-2,3.0923381E-2,4.650829E-2,8.0607414E-2],"categories":[],"categories_nodes":[],"categories_segments":[],"categories_sizes":[],"default_left":[0,0,0,0,0,0,0,0,0,0,0,0,0,0,0,0,0,0,0],"id":5,"left_children":[1,3,5,7,-1,9,-1,11,13,15,17,-1,-1,-1,-1,-1,-1,-1,-1],"loss_changes":[3.327461E3,1.6693383E3,1.5912793E2,5.5696545E2,0E0,8.2907845E1,0E0,3.4430542E2,6.8544266E1,4.9204838E1,1.0783386E-1,0E0,0E0,0E0,0E0,0E0,0E0,0E0,0E0],"parents":[2147483647,0,0,1,1,2,2,3,3,5,5,7,7,8,8,9,9,10,10],"right_children":[2,4,6,8,-1,10,-1,12,14,16,18,-1,-1,-1,-1,-1,-1,-1,-1],"split_conditions":[1.3043478E-1,1.8181819E-1,1.8181819E-1,1.4285715E-1,8.139797E-2,1.7391305E-1,8.1543475E-2,1.23879194E-1,1.5441154E-1,1.420668E-1,1.8181819E-1,-7.362688E-2,-3.4073006E-2,-1.3327173E-2,3.704724E-2,-3.221153E-2,3.0923381E-2,4.650829E-2,8.0607414E-2],"split_indices":[0,1,0,2,0,1,0,4,4,4,1,0,0,0,0,0,0,0,0],"split_type":[0,0,0,0,0,0,0,0,0,0,0,0,0,0,0,0,0,0,0],"sum_hessian":[4.1258047E3,2.9882256E3,1.1375793E3,2.6751758E3,3.1304977E2,2.0519965E2,9.3237964E2,2.3582295E3,3.1694626E2,1.3984428E2,6.5355354E1,8.782473E2,1.4799822E3,9.655002E1,2.2039624E2,4.4458206E1,9.538608E1,5.021571E0,6.0333782E1],"tree_param":{"num_deleted":"0","num_feature":"11","num_nodes":"19","size_leaf_vector":"1"}},{"base_weights":[7.154751E-4,-6.688247E-1,1.1191647E0,-8.9014864E-1,1.4949473E0,4.291634E-1,7.906749E-2,-1.0293282E0,2.1124652E-1,5.301382E-1,7.88205E-2,-5.5495316E-1,8.6785084E-1,-6.9080904E-2,-3.4636732E-2,-2.4647601E-2,2.6532395E-2,-3.864835E-2,4.077287E-2,-4.1406315E-2,7.176028E-2,-2.8498576E-3,5.6307275E-2],"categories":[],"categories_nodes":[],"categories_segments":[],"categories_sizes":[],"default_left":[0,0,0,0,0,0,0,0,0,0,0,0,0,0,0,0,0,0,0,0,0,0,0],"id":6,"left_children":[1,3,5,7,9,11,-1,13,15,17,-1,19,21,-1,-1,-1,-1,-1,-1,-1,-1,-1,-1],"loss_changes":[3.056669E3,1.2241072E3,4.867749E2,3.553977E2,1.7815735E1,2.6577914E2,0E0,2.4298804E2,5.8915688E1,8.060213E0,0E0,1.0452728E2,1.01693085E2,0E0,0E0,0E0,0E0,0E0,0E0,0E0,0E0,0E0,0E0],"parents":[2147483647,0,0,1,1,2,2,3,3,4,4,5,5,7,7,8,8,9,9,11,11,12,12],"right_children":[2,4,6,8,10,12,-1,14,16,18,-1,20,22,-1,-1,-1,-1,-1,-1,-1,-1,-1,-1],"split_conditions":[5.882353E-2,1.6666667E-1,1.8181819E-1,1.25E-1,1.8181819E-1,1.3223307E-1,7.906749E-2,1.6964161E-1,1.5021838E-1,9.978237E-2,7.88205E-2,1.7391305E-1,-4.1666668E-2,-6.9080904E-2,-3.4636732E-2,-2.4647601E-2,2.6532395E-2,-3.864835E-2,4.077287E-2,-4.1406315E-2,7.176028E-2,-2.8498576E-3,5.6307275E-2],"split_indices":[0,1,0,2,1,4,0,4,4,4,0,1,1,0,0,0,0,0,0,0,0,0,0],"split_type":[0,0,0,0,0,0,0,0,0,0,0,0,0,0,0,0,0,0,0,0,0,0,0],"sum_hessian":[4.0798364E3,2.5523303E3,1.5275061E3,2.316022E3,2.3630847E2,6.1351355E2,9.1399255E2,2.0562466E3,2.5977536E2,1.898352E1,2.1732495E2,1.8908046E2,4.244331E2,1.0031803E3,1.0530663E3,8.089005E1,1.7888531E2,3.1028957E0,1.5880626E1,1.6677278E2,2.2307673E1,9.282914E1,3.3160397E2],"tree_param":{"num_deleted":"0","num_feature":"11","num_nodes":"23","size_leaf_vector":"1"}},{"base_weights":[8.263375E-4,-5.050287E-1,1.3770763E0,-7.751534E-1,1.2914472E0,6.162079E-1,7.6851666E-2,-9.0356266E-1,5.743624E-1,3.5041362E-1,7.6888345E-2,2.0816308E-1,1.4876904E0,-6.494149E-2,-2.8911326E-2,-9.633912E-4,3.988737E-2,-5.2734665E-3,3.2219775E-2,-1.7795743E-2,3.9687425E-2,4.2748E-2,7.641694E-2],"categories":[],"categories_nodes":[],"categories_segments":[],"categories_sizes":[],"default_left":[0,0,0,0,0,0,0,0,0,0,0,0,0,0,0,0,0,0,0,0,0,0,0],"id":7,"left_children":[1,3,5,7,9,11,-1,13,15,17,-1,19,21,-1,-1,-1,-1,-1,-1,-1,-1,-1,-1],"loss_changes":[2.8073162E3,1.4318942E3,1.309585E2,4.4480908E2,8.88855E1,6.7232666E1,0E0,3.0035034E2,2.963617E1,1.09677105E1,0E0,4.339805E1,2.4702454E-1,0E0,0E0,0E0,0E0,0E0,0E0,0E0,0E0,0E0,0E0],"parents":[2147483647,0,0,1,1,2,2,3,3,4,4,5,5,7,7,8,8,9,9,11,11,12,12],"right_children":[2,4,6,8,10,12,-1,14,16,18,-1,20,22,-1,-1,-1,-1,-1,-1,-1,-1,-1,-1],"split_conditions":[1.3333334E-1,1.4285715E-1,1.8181819E-1,1.7777778E-1,1.8181819E-1,1.7391305E-1,7.6851666E-2,1.5441154E-1,1.6235588E-1,5.112857E2,7.6888345E-2,1.8380554E-1,1.8181819E-1,-6.494149E-2,-2.8911326E-2,-9.633912E-4,3.988737E-2,-5.2734665E-3,3.2219775E-2,-1.7795743E-2,3.9687425E-2,4.2748E-2,7.641694E-2],"split_indices":[0,1,0,2,1,1,0,4,4,6,0,4,1,0,0,0,0,0,0,0,0,0,0],"split_type":[0,0,0,0,0,0,0,0,0,0,0,0,0,0,0,0,0,0,0,0,0,0,0],"sum_hessian":[4.030441E3,2.9476387E3,1.0828024E3,2.562848E3,3.8479065E2,1.8893698E2,8.9386536E2,2.340477E3,2.2237091E2,8.032845E1,3.044622E2,1.2952823E2,5.940874E1,1.0553219E3,1.2851552E3,6.1049595E1,1.613213E2,3.1743881E1,4.858457E1,6.6175476E1,6.335276E1,4.9162087E0,5.449253E1],"tree_param":{"num_deleted":"0","num_feature":"11","num_nodes":"23","size_leaf_vector":"1"}},{"base_weights":[9.932452E-4,-6.201523E-1,1.0533583E0,-8.228658E-1,1.4109768E0,4.1005746E-1,7.4859165E-2,-1.2139647E0,-4.7845855E-1,4.892912E-1,7.461552E-2,6.8372555E-2,7.507376E-2,-6.676697E-2,-3.117463E-2,-5.4894835E-2,6.746313E-3,-3.7811007E-2,3.8159348E-2,-3.6026128E-2,2.5944183E-2],"categories":[],"categories_nodes":[],"categories_segments":[],"categories_sizes":[],"default_left":[0,0,0,0,0,0,0,0,0,0,0,0,0,0,0,0,0,0,0,0,0],"id":8,"left_children":[1,3,5,7,9,11,-1,13,15,17,-1,19,-1,-1,-1,-1,-1,-1,-1,-1,-1],"loss_changes":[2.6003645E3,1.0311504E3,4.2095178E2,3.0588123E2,1.631491E1,2.2520663E2,0E0,7.547473E1,4.604486E2,7.3745475E0,0E0,1.6427748E2,0E0,0E0,0E0,0E0,0E0,0E0,0E0,0E0,0E0],"parents":[2147483647,0,0,1,1,2,2,3,3,4,4,5,5,7,7,8,8,9,9,11,11],"right_children":[2,4,6,8,10,12,-1,14,16,18,-1,20,-1,-1,-1,-1,-1,-1,-1,-1,-1],"split_conditions":[5.882353E-2,1.6666667E-1,1.8181819E-1,1.6964161E-1,1.8181819E-1,1.8181819E-1,7.4859165E-2,7.692308E-2,-1.6666667E-1,9.978237E-2,7.461552E-2,1.3223307E-1,7.507376E-2,-6.676697E-2,-3.117463E-2,-5.4894835E-2,6.746313E-3,-3.7811007E-2,3.8159348E-2,-3.6026128E-2,2.5944183E-2],"split_indices":[0,1,0,4,1,1,0,2,0,4,0,4,0,0,0,0,0,0,0,0,0],"split_type":[0,0,0,0,0,0,0,0,0,0,0,0,0,0,0,0,0,0,0,0,0],"sum_hessian":[3.976089E3,2.5005693E3,1.4755197E3,2.2741921E3,2.2637708E2,6.0317444E2,8.723453E2,1.0637283E3,1.210464E3,1.8925558E1,2.0745152E2,4.6017294E2,1.4300148E2,8.813089E2,1.8241934E2,6.0186725E2,6.0859674E2,3.0941713E0,1.58313875E1,1.6705016E2,2.9312277E2],"tree_param":{"num_deleted":"0","num_feature":"11","num_nodes":"21","size_leaf_vector":"1"}},{"base_weights":[1.0910082E-3,-5.959116E-1,1.0205591E0,-7.897454E-1,1.3743104E0,3.9314654E-1,7.305982E-2,-9.1927344E-1,2.1381678E-1,4.661931E-1,7.281919E-2,6.5093964E-2,7.32221E-2,-6.443382E-2,-3.1767774E-2,-2.072001E-2,2.4819955E-2,-1.445315E-2,4.512654E-2,-3.0974168E-2,2.6960159E-2],"categories":[],"categories_nodes":[],"categories_segments":[],"categories_sizes":[],"default_left":[0,0,0,0,0,0,0,0,0,0,0,0,0,0,0,0,0,0,0,0,0],"id":9,"left_children":[1,3,5,7,9,11,-1,13,15,17,-1,19,-1,-1,-1,-1,-1,-1,-1,-1,-1],"loss_changes":[2.3876042E3,9.459358E2,3.9997412E2,2.930807E2,1.586496E1,2.1045508E2,0E0,2.0849695E2,4.6073437E1,6.8086796E0,0E0,1.4953703E2,0E0,0E0,0E0,0E0,0E0,0E0,0E0,0E0,0E0],"parents":[2147483647,0,0,1,1,2,2,3,3,4,4,5,5,7,7,8,8,9,9,11,11],"right_children":[2,4,6,8,10,12,-1,14,16,18,-1,20,-1,-1,-1,-1,-1,-1,-1,-1,-1],"split_conditions":[5.882353E-2,1.6666667E-1,1.8181819E-1,1.25E-1,1.8181819E-1,1.8181819E-1,7.305982E-2,1.5441154E-1,1.5021838E-1,1E1,7.281919E-2,1.4652172E-1,7.32221E-2,-6.443382E-2,-3.1767774E-2,-2.072001E-2,2.4819955E-2,-1.445315E-2,4.512654E-2,-3.0974168E-2,2.6960159E-2],"split_indices":[0,1,0,2,1,1,0,4,4,9,0,4,0,0,0,0,0,0,0,0,0],"split_type":[0,0,0,0,0,0,0,0,0,0,0,0,0,0,0,0,0,0,0,0,0],"sum_hessian":[3.9209478E3,2.473107E3,1.4478411E3,2.252137E3,2.209699E2,5.981056E2,8.497355E2,1.9947606E3,2.5737625E2,1.886909E1,2.021008E2,4.5870233E2,1.3940326E2,8.6533826E2,1.1294224E3,7.970819E1,1.7766808E2,7.0330744E0,1.1836014E1,1.875655E2,2.711368E2],"tree_param":{"num_deleted":"0","num_feature":"11","num_nodes":"21","size_leaf_vector":"1"}},{"base_weights":[1.2233955E-3,-4.257826E-1,1.3382641E0,-6.733216E-1,1.1843792E0,6.406359E-1,7.1428634E-2,-8.1829685E-1,4.0606752E-1,3.378806E-1,7.147908E-2,-3.2929972E-1,9.2316455E-1,-6.3742094E-2,-2.79731E-2,-8.186931E-3,3.2334227E-2,-7.1328194E-3,3.0044649E-2,-3.3373218E-2,6.0544338E-2,-4.99161E-2,4.9768955E-2],"categories":[],"categories_nodes":[],"categories_segments":[],"categories_sizes":[],"default_left":[0,0,0,0,0,0,0,0,0,0,0,0,0,0,0,0,0,0,0,0,0,0,0],"id":10,"left_children":[1,3,5,7,9,11,-1,13,15,17,-1,19,21,-1,-1,-1,-1,-1,-1,-1,-1,-1,-1],"loss_changes":[2.206033E3,1.1680948E3,5.8011475E1,3.976548E2,8.059265E1,3.0177372E1,0E0,2.6383777E2,4.141751E1,1.1339484E1,0E0,1.4000011E1,1.274456E1,0E0,0E0,0E0,0E0,0E0,0E0,0E0,0E0,0E0,0E0],"parents":[2147483647,0,0,1,1,2,2,3,3,4,4,5,5,7,7,8,8,9,9,11,11,12,12],"right_children":[2,4,6,8,10,12,-1,14,16,18,-1,20,22,-1,-1,-1,-1,-1,-1,-1,-1,-1,-1],"split_conditions":[1.5384616E-1,1.4285715E-1,1.8181819E-1,1.4285715E-1,1.8181819E-1,1.4525111E-1,7.1428634E-2,1.23879194E-1,1.5441154E-1,3.3514285E2,7.147908E-2,1.7391305E-1,-2.5925925E-1,-6.3742094E-2,-2.79731E-2,-8.186931E-3,3.2334227E-2,-7.1328194E-3,3.0044649E-2,-3.3373218E-2,6.0544338E-2,-4.99161E-2,4.9768955E-2],"split_indices":[0,1,0,2,1,4,0,4,4,6,0,1,1,0,0,0,0,0,0,0,0,0,0],"split_type":[0,0,0,0,0,0,0,0,0,0,0,0,0,0,0,0,0,0,0,0,0,0,0],"sum_hessian":[3.8619695E3,2.927656E3,9.3431366E2,2.5380496E3,3.896064E2,1.0801315E2,8.263005E2,2.2377358E3,3.0031366E2,8.8041985E1,3.0156445E2,2.432807E1,8.368508E1,8.0822516E2,1.4295106E3,8.925888E1,2.110548E2,3.130456E1,5.6737423E1,2.0412842E1,3.9152277E0,2.5666702E0,8.111841E1],"tree_param":{"num_deleted":"0","num_feature":"11","num_nodes":"23","size_leaf_vector":"1"}},{"base_weights":[1.3534114E-3,-5.629277E-1,9.567013E-1,-7.4500954E-1,1.2466669E0,3.729761E-1,6.994471E-2,-1.1195146E0,-4.3071878E-1,3.3490708E-1,6.9692634E-2,-4.5761755E-1,7.497935E-1,-6.1943483E-2,-2.6950056E-2,-5.0572075E-2,7.3563936E-3,-4.881728E-3,5.2807845E-2,-3.9262377E-2,3.591096E-2,-3.8708802E-3,4.9521882E-2],"categories":[],"categories_nodes":[],"categories_segments":[],"categories_sizes":[],"default_left":[0,0,0,0,0,0,0,0,0,0,0,0,0,0,0,0,0,0,0,0,0,0,0],"id":11,"left_children":[1,3,5,7,9,11,-1,13,15,17,-1,19,21,-1,-1,-1,-1,-1,-1,-1,-1,-1,-1],"loss_changes":[2.050508E3,7.888389E2,3.6404944E2,2.553208E2,2.8920837E1,1.9130757E2,0E0,6.799744E1,3.972141E2,1.000941E1,0E0,7.415985E1,8.370436E1,0E0,0E0,0E0,0E0,0E0,0E0,0E0,0E0,0E0,0E0],"parents":[2147483647,0,0,1,1,2,2,3,3,4,4,5,5,7,7,8,8,9,9,11,11,12,12],"right_children":[2,4,6,8,10,12,-1,14,16,18,-1,20,22,-1,-1,-1,-1,-1,-1,-1,-1,-1,-1],"split_conditions":[5.357143E-2,1.5384616E-1,1.8181819E-1,1.6964161E-1,1.8181819E-1,1.3223307E-1,6.994471E-2,7.692308E-2,-1.6666667E-1,2.3822261E-1,6.9692634E-2,1.3333334E-1,-4.1666668E-2,-6.1943483E-2,-2.6950056E-2,-5.0572075E-2,7.3563936E-3,-4.881728E-3,5.2807845E-2,-3.9262377E-2,3.591096E-2,-3.8708802E-3,4.9521882E-2],"split_indices":[0,1,0,4,1,4,0,2,0,4,0,1,1,0,0,0,0,0,0,0,0,0,0],"split_type":[0,0,0,0,0,0,0,0,0,0,0,0,0,0,0,0,0,0,0,0,0,0,0],"sum_hessian":[3.8016853E3,2.3902705E3,1.4114148E3,2.1722832E3,2.1798734E2,6.091449E2,8.022699E2,9.900224E2,1.1822607E3,3.0753933E1,1.8723341E2,1.9003934E2,4.1910556E2,8.202441E2,1.6977832E2,5.892887E2,5.929721E2,1.976517E1,1.0988764E1,1.4888646E2,4.1152885E1,9.459945E1,3.245061E2],"tree_param":{"num_deleted":"0","num_feature":"11","num_nodes":"23","size_leaf_vector":"1"}},{"base_weights":[1.4322598E-3,-3.9388457E-1,1.2790765E0,-5.9036547E-1,6.8772204E-2,5.908779E-1,6.859046E-2,-7.0557517E-1,6.3866764E-1,2.3177491E-1,6.742516E-2,-5.7660926E-2,-2.3035623E-2,-2.285486E-2,3.8099814E-2,-2.5858928E-2,3.2310154E-2],"categories":[],"categories_nodes":[],"categories_segments":[],"categories_sizes":[],"default_left":[0,0,0,0,0,0,0,0,0,0,0,0,0,0,0,0,0],"id":12,"left_children":[1,3,5,7,-1,9,-1,11,13,15,-1,-1,-1,-1,-1,-1,-1],"loss_changes":[1.8908925E3,9.9476306E2,5.5646484E1,3.649309E2,0E0,2.8745548E1,0E0,2.5748645E2,3.0232811E1,2.3199795E1,0E0,0E0,0E0,0E0,0E0,0E0,0E0],"parents":[2147483647,0,0,1,1,2,2,3,3,5,5,7,7,8,8,9,9],"right_children":[2,4,6,8,-1,10,-1,12,14,16,-1,-1,-1,-1,-1,-1,-1],"split_conditions":[1.5384616E-1,1.8181819E-1,1.8181819E-1,2E-1,6.8772204E-2,1.7391305E-1,6.859046E-2,1.23879194E-1,-1.9354838E-1,1.6387795E-1,6.742516E-2,-5.7660926E-2,-2.3035623E-2,-2.285486E-2,3.8099814E-2,-2.5858928E-2,3.2310154E-2],"split_indices":[0,1,0,2,0,1,0,4,1,4,0,0,0,0,0,0,0],"split_type":[0,0,0,0,0,0,0,0,0,0,0,0,0,0,0,0,0],"sum_hessian":[3.7417937E3,2.8581448E3,8.83649E2,2.5730754E3,2.8506927E2,1.05805504E2,7.7784344E2,2.3529368E3,2.201387E2,7.266792E1,3.3137573E1,8.306616E2,1.5222751E3,2.1996372E1,1.9814233E2,2.579797E1,4.6869957E1],"tree_param":{"num_deleted":"0","num_feature":"11","num_nodes":"17","size_leaf_vector":"1"}},{"base_weights":[1.585468E-3,-5.2563506E-1,9.1182554E-1,-6.933835E-1,1.1958164E0,3.6099955E-1,6.735099E-2,-1.0947335E0,-4.1977143E-1,3.4219316E-1,6.708874E-2,8.413448E-2,6.784156E-2,-6.1141886E-2,-2.733678E-2,-4.7032665E-2,5.494832E-3,-3.428825E-3,5.1250916E-2,-1.9455424E-2,3.184217E-2],"categories":[],"categories_nodes":[],"categories_segments":[],"categories_sizes":[],"default_left":[0,0,0,0,0,0,0,0,0,0,0,0,0,0,0,0,0,0,0,0,0],"id":13,"left_children":[1,3,5,7,9,11,-1,13,15,17,-1,19,-1,-1,-1,-1,-1,-1,-1,-1,-1],"loss_changes":[1.7673276E3,6.742437E2,3.233031E2,2.3295831E2,2.5385681E1,1.6463017E2,0E0,5.977649E1,3.4925912E2,8.942458E0,0E0,1.2281861E2,0E0,0E0,0E0,0E0,0E0,0E0,0E0,0E0,0E0],"parents":[2147483647,0,0,1,1,2,2,3,3,4,4,5,5,7,7,8,8,9,9,11,11],"right_children":[2,4,6,8,10,12,-1,14,16,18,-1,20,-1,-1,-1,-1,-1,-1,-1,-1,-1],"split_conditions":[5.357143E-2,1.5384616E-1,1.8181819E-1,1.5441154E-1,1.8181819E-1,1.8181819E-1,6.735099E-2,7.1428575E-2,-1.6E-1,2.3822261E-1,6.708874E-2,1.8380554E-1,6.784156E-2,-6.1141886E-2,-2.733678E-2,-4.7032665E-2,5.494832E-3,-3.428825E-3,5.1250916E-2,-1.9455424E-2,3.184217E-2],"split_indices":[0,1,0,4,1,1,0,2,0,4,0,4,0,0,0,0,0,0,0,0,0],"split_type":[0,0,0,0,0,0,0,0,0,0,0,0,0,0,0,0,0,0,0,0,0],"sum_hessian":[3.6807224E3,2.3310034E3,1.349719E3,2.12457E3,2.064335E2,5.965254E2,7.5319354E2,8.6002905E2,1.2645409E3,3.0631649E1,1.7580186E2,4.6760458E2,1.2892079E2,6.9607715E2,1.6395186E2,6.371672E2,6.273737E2,1.9687647E1,1.0944002E1,2.5207109E2,2.155335E2],"tree_param":{"num_deleted":"0","num_feature":"11","num_nodes":"21","size_leaf_vector":"1"}},{"base_weights":[1.6910125E-3,-3.648764E-1,1.2291341E0,-5.7599485E-1,1.0816385E0,5.51703E-1,6.621357E-2,-7.1045035E-1,3.920421E-1,3.242807E-1,6.6345416E-2,2.1397105E-1,6.486401E-2,-5.798753E-2,-2.3816276E-2,7.475536E-3,4.2689774E-2,-4.114236E-3,3.01464E-2,-5.6959153E-3,5.4248214E-2],"categories":[],"categories_nodes":[],"categories_segments":[],"categories_sizes":[],"default_left":[0,0,0,0,0,0,0,0,0,0,0,0,0,0,0,0,0,0,0,0,0],"id":14,"left_children":[1,3,5,7,9,11,-1,13,15,17,-1,19,-1,-1,-1,-1,-1,-1,-1,-1,-1],"loss_changes":[1.6292834E3,8.5215564E2,5.293799E1,3.1707E2,6.560254E1,2.597563E1,0E0,2.2428882E2,3.3186268E1,1.0051088E1,0E0,2.0958334E1,0E0,0E0,0E0,0E0,0E0,0E0,0E0,0E0,0E0],"parents":[2147483647,0,0,1,1,2,2,3,3,4,4,5,5,7,7,8,8,9,9,11,11],"right_children":[2,4,6,8,10,12,-1,14,16,18,-1,20,-1,-1,-1,-1,-1,-1,-1,-1,-1],"split_conditions":[1.5384616E-1,1.4285715E-1,1.8181819E-1,1.4285715E-1,1.8181819E-1,1.7391305E-1,6.621357E-2,1.2210852E-1,3.043478E-1,5.112857E2,6.6345416E-2,2.6351643E-1,6.486401E-2,-5.798753E-2,-2.3816276E-2,7.475536E-3,4.2689774E-2,-4.114236E-3,3.01464E-2,-5.6959153E-3,5.4248214E-2],"split_indices":[0,1,0,2,1,1,0,4,2,6,0,4,0,0,0,0,0,0,0,0,0],"split_type":[0,0,0,0,0,0,0,0,0,0,0,0,0,0,0,0,0,0,0,0,0],"sum_hessian":[3.6191108E3,2.7873813E3,8.317295E2,2.4329019E3,3.5447958E2,1.03259995E2,7.284695E2,2.1364287E3,2.9647314E2,8.728336E1,2.6719623E2,7.195347E1,3.130653E1,7.3053424E2,1.4058944E3,1.9524594E2,1.0122721E2,3.578105E1,5.1502308E1,5.290598E1,1.904749E1],"tree_param":{"num_deleted":"0","num_feature":"11","num_nodes":"21","size_leaf_vector":"1"}},{"base_weights":[1.8531756E-3,-4.9139437E-1,8.7131023E-1,-6.4558256E-1,1.1455107E0,3.4883535E-1,6.516726E-2,-1.0077978E0,-3.5925445E-1,3.110348E-1,6.4893074E-2,9.557033E-2,6.552433E-2,-5.665174E-2,-2.3437794E-2,-4.5055322E-2,8.372392E-3,-3.8988807E-3,4.819973E-2,-1.7411375E-2,3.0476183E-2],"categories":[],"categories_nodes":[],"categories_segments":[],"categories_sizes":[],"default_left":[0,0,0,0,0,0,0,0,0,0,0,0,0,0,0,0,0,0,0,0,0],"id":15,"left_children":[1,3,5,7,9,11,-1,13,15,17,-1,19,-1,-1,-1,-1,-1,-1,-1,-1,-1],"loss_changes":[1.5263542E3,5.7388354E2,2.9034222E2,2.1494543E2,2.449527E1,1.4222304E2,0E0,6.130548E1,3.3149823E2,8.0894985E0,0E0,1.05979454E2,0E0,0E0,0E0,0E0,0E0,0E0,0E0,0E0,0E0],"parents":[2147483647,0,0,1,1,2,2,3,3,4,4,5,5,7,7,8,8,9,9,11,11],"right_children":[2,4,6,8,10,12,-1,14,16,18,-1,20,-1,-1,-1,-1,-1,-1,-1,-1,-1],"split_conditions":[5.357143E-2,1.5384616E-1,1.8181819E-1,1.6964161E-1,1.8181819E-1,1.8181819E-1,6.516726E-2,7.1428575E-2,-1.6666667E-1,2.3822261E-1,6.4893074E-2,1.8380554E-1,6.552433E-2,-5.665174E-2,-2.3437794E-2,-4.5055322E-2,8.372392E-3,-3.8988807E-3,4.819973E-2,-1.7411375E-2,3.0476183E-2],"split_indices":[0,1,0,4,1,1,0,2,0,4,0,4,0,0,0,0,0,0,0,0,0],"split_type":[0,0,0,0,0,0,0,0,0,0,0,0,0,0,0,0,0,0,0,0,0],"sum_hessian":[3.557119E3,2.2698538E3,1.2872651E3,2.0750044E3,1.9484933E2,5.834664E2,7.037987E2,9.1498987E2,1.1600145E3,3.0551294E1,1.6429803E2,4.6270544E2,1.2076092E2,7.41592E2,1.7339786E2,5.714337E2,5.885808E2,1.9697021E1,1.0854273E1,2.484724E2,2.1423305E2],"tree_param":{"num_deleted":"0","num_feature":"11","num_nodes":"21","size_leaf_vector":"1"}},{"base_weights":[1.9533515E-3,-3.383881E-1,1.1854339E0,-5.500396E-1,9.3248296E-1,5.149443E-1,6.42026E-2,-1.0543027E0,-3.128797E-1,2.8841096E-1,6.4291805E-2,1.9713303E-1,6.265579E-2,-5.983603E-2,-2.8864155E-2,-4.0672936E-2,6.850136E-3,-2.8699065E-2,2.321145E-2,-4.52353E-3,5.585928E-2],"categories":[],"categories_nodes":[],"categories_segments":[],"categories_sizes":[],"default_left":[0,0,0,0,0,0,0,0,0,0,0,0,0,0,0,0,0,0,0,0,0],"id":16,"left_children":[1,3,5,7,9,11,-1,13,15,17,-1,19,-1,-1,-1,-1,-1,-1,-1,-1,-1],"loss_changes":[1.408681E3,7.311253E2,5.098816E1,2.7820532E2,8.796625E1,2.3641687E1,0E0,4.9893005E1,3.5716577E2,2.1311474E1,0E0,1.9250431E1,0E0,0E0,0E0,0E0,0E0,0E0,0E0,0E0,0E0],"parents":[2147483647,0,0,1,1,2,2,3,3,4,4,5,5,7,7,8,8,9,9,11,11],"right_children":[2,4,6,8,10,12,-1,14,16,18,-1,20,-1,-1,-1,-1,-1,-1,-1,-1,-1],"split_conditions":[1.5384616E-1,1.25E-1,1.8181819E-1,1.2210852E-1,1.8181819E-1,1.7391305E-1,6.42026E-2,6.666667E-2,-1.2E-1,-8.3333336E-2,6.4291805E-2,1.7777778E-1,6.265579E-2,-5.983603E-2,-2.8864155E-2,-4.0672936E-2,6.850136E-3,-2.8699065E-2,2.321145E-2,-4.52353E-3,5.585928E-2],"split_indices":[0,1,0,4,1,1,0,2,0,0,0,2,0,0,0,0,0,0,0,0,0],"split_type":[0,0,0,0,0,0,0,0,0,0,0,0,0,0,0,0,0,0,0,0,0],"sum_hessian":[3.4953347E3,2.7152158E3,7.801187E2,2.328066E3,3.8715002E2,1.00827774E2,6.7929095E2,7.435791E2,1.5844867E3,1.3779727E2,2.4935277E2,7.13681E1,2.945967E1,5.714573E2,1.7212181E2,7.4960345E2,8.348833E2,2.2952078E1,1.14845184E2,5.5058704E1,1.6309397E1],"tree_param":{"num_deleted":"0","num_feature":"11","num_nodes":"21","size_leaf_vector":"1"}},{"base_weights":[2.038748E-3,-3.25785E-1,1.1652416E0,-4.8330337E-1,6.3380286E-2,4.9598554E-1,6.33114E-2,-6.846698E-1,9.369686E-2,1.8845302E-1,6.157682E-2,-4.537111E-2,-1.2152297E-2,-2.4512079E-2,2.1344366E-2,-5.809483E-3,5.0774544E-2],"categories":[],"categories_nodes":[],"categories_segments":[],"categories_sizes":[],"default_left":[0,0,0,0,0,0,0,0,0,0,0,0,0,0,0,0,0],"id":17,"left_children":[1,3,5,7,-1,9,-1,11,13,15,-1,-1,-1,-1,-1,-1,-1],"loss_changes":[1.3107863E3,6.736828E2,5.0451416E1,2.8369763E2,0E0,2.2554323E1,0E0,1.7780804E2,1.2325351E2,1.8312534E1,0E0,0E0,0E0,0E0,0E0,0E0,0E0],"parents":[2147483647,0,0,1,1,2,2,3,3,5,5,7,7,8,8,9,9],"right_children":[2,4,6,8,-1,10,-1,12,14,16,-1,-1,-1,-1,-1,-1,-1],"split_conditions":[1.5384616E-1,1.8181819E-1,1.8181819E-1,5.357143E-2,6.3380286E-2,1.7391305E-1,6.33114E-2,2.525268E-1,1.2991707E-1,2.6351643E-1,6.157682E-2,-4.537111E-2,-1.2152297E-2,-2.4512079E-2,2.1344366E-2,-5.809483E-3,5.0774544E-2],"split_indices":[0,1,0,2,0,1,0,4,4,4,0,0,0,0,0,0,0],"split_type":[0,0,0,0,0,0,0,0,0,0,0,0,0,0,0,0,0],"sum_hessian":[3.4354514E3,2.6806794E3,7.5477203E2,2.4401494E3,2.4053001E2,9.973311E1,6.5503894E2,1.8087351E3,6.314143E2,7.1214615E1,2.85185E1,1.2016003E3,6.071348E2,2.2921988E2,4.0219443E2,5.2672134E1,1.8542477E1],"tree_param":{"num_deleted":"0","num_feature":"11","num_nodes":"17","size_leaf_vector":"1"}},{"base_weights":[2.1910626E-3,-4.4398725E-1,8.156964E-1,-5.7488906E-1,1.1494641E0,3.2930306E-1,6.2486477E-2,-9.674916E-1,-3.279122E-1,3.3700266E-1,6.218818E-2,1.068017E-1,6.267831E-2,-5.4993607E-2,-2.2717413E-2,-3.8444698E-2,9.368995E-3,-3.489014E-2,2.9210363E-2,-9.554343E-3,3.8225215E-2],"categories":[],"categories_nodes":[],"categories_segments":[],"categories_sizes":[],"default_left":[0,0,0,0,0,0,0,0,0,0,0,0,0,0,0,0,0,0,0,0,0],"id":18,"left_children":[1,3,5,7,9,11,-1,13,15,17,-1,19,-1,-1,-1,-1,-1,-1,-1,-1,-1],"loss_changes":[1.2265071E3,4.5584293E2,2.5226105E2,1.9528162E2,1.2298447E1,1.16212616E2,0E0,5.2380676E1,2.8186548E2,5.1744995E0,0E0,8.969694E1,0E0,0E0,0E0,0E0,0E0,0E0,0E0,0E0,0E0],"parents":[2147483647,0,0,1,1,2,2,3,3,4,4,5,5,7,7,8,8,9,9,11,11],"right_children":[2,4,6,8,10,12,-1,14,16,18,-1,20,-1,-1,-1,-1,-1,-1,-1,-1,-1],"split_conditions":[5.357143E-2,1.6666667E-1,1.8181819E-1,1.5441154E-1,1.8181819E-1,1.8181819E-1,6.2486477E-2,7.1428575E-2,-1.3461539E-1,9.978237E-2,6.218818E-2,2.3644674E-1,6.267831E-2,-5.4993607E-2,-2.2717413E-2,-3.8444698E-2,9.368995E-3,-3.489014E-2,2.9210363E-2,-9.554343E-3,3.8225215E-2],"split_indices":[0,1,0,4,1,1,0,2,0,4,0,4,0,0,0,0,0,0,0,0,0],"split_type":[0,0,0,0,0,0,0,0,0,0,0,0,0,0,0,0,0,0,0,0,0],"sum_hessian":[3.3771033E3,2.181231E3,1.1958722E3,2.0162367E3,1.6499435E2,5.647507E2,6.311216E2,7.7745355E2,1.2387831E3,1.7634392E1,1.4735995E2,4.5607385E2,1.0867682E2,6.1710876E2,1.6034483E2,6.672582E2,5.715249E2,3.0488875E0,1.4585505E1,3.1438922E2,1.4168462E2],"tree_param":{"num_deleted":"0","num_feature":"11","num_nodes":"21","size_leaf_vector":"1"}},{"base_weights":[2.2713493E-3,-2.8001162E-1,1.2206446E0,-4.305023E-1,6.183781E-2,6.494077E-1,6.1721552E-2,-5.3942144E-1,6.2356704E-1,-2.9398677E-1,8.573578E-1,-5.2096374E-2,-1.746175E-2,-1.9742109E-2,3.6876168E-2,-5.3650487E-2,4.0482346E-2,6.55726E-2,3.9804652E-3],"categories":[],"categories_nodes":[],"categories_segments":[],"categories_sizes":[],"default_left":[0,0,0,0,0,0,0,0,0,0,0,0,0,0,0,0,0,0,0],"id":19,"left_children":[1,3,5,7,-1,9,-1,11,13,15,17,-1,-1,-1,-1,-1,-1,-1,-1],"loss_changes":[1.1416819E3,6.1572205E2,4.115967E0,2.81916E2,0E0,3.5527878E0,0E0,2.1213031E2,2.7002388E1,4.12167E0,4.85468E0,0E0,0E0,0E0,0E0,0E0,0E0,0E0,0E0],"parents":[2147483647,0,0,1,1,2,2,3,3,5,5,7,7,8,8,9,9,10,10],"right_children":[2,4,6,8,-1,10,-1,12,14,16,18,-1,-1,-1,-1,-1,-1,-1,-1],"split_conditions":[1.764706E-1,1.8181819E-1,1.8181819E-1,2E-1,6.183781E-2,1.2285714E3,6.1721552E-2,1.0192239E-1,-1.9354838E-1,2.4639927E-1,1.7642858E3,-5.2096374E-2,-1.746175E-2,-1.9742109E-2,3.6876168E-2,-5.3650487E-2,4.0482346E-2,6.55726E-2,3.9804652E-3],"split_indices":[0,1,0,2,0,3,0,4,1,4,3,0,0,0,0,0,0,0,0],"split_type":[0,0,0,0,0,0,0,0,0,0,0,0,0,0,0,0,0,0,0],"sum_hessian":[3.3175627E3,2.6941333E3,6.234293E2,2.451606E3,2.425273E2,1.5825123E1,6.076042E2,2.2224446E3,2.2916147E2,2.7835276E0,1.30415945E1,6.0896735E2,1.6134772E3,2.2813751E1,2.0634772E2,1.6480004E0,1.1355274E0,7.800816E0,5.240779E0],"tree_param":{"num_deleted":"0","num_feature":"11","num_nodes":"19","size_leaf_vector":"1"}},{"base_weights":[2.401748E-3,-4.1630936E-1,7.838475E-1,-5.574776E-1,9.068757E-1,3.2096076E-1,6.1011072E-2,-9.1956574E-1,-2.9081273E-1,2.7879038E-1,6.0694695E-2,-3.2210284E-1,6.0747063E-1,-5.1780757E-2,-2.2895668E-2,-3.900342E-2,8.750248E-3,-1.9181004E-2,2.807033E-2,-2.8921446E-2,3.0831013E-2,-5.0364183E-3,4.1784342E-2],"categories":[],"categories_nodes":[],"categories_segments":[],"categories_sizes":[],"default_left":[0,0,0,0,0,0,0,0,0,0,0,0,0,0,0,0,0,0,0,0,0,0,0],"id":20,"left_children":[1,3,5,7,9,11,-1,13,15,17,-1,19,21,-1,-1,-1,-1,-1,-1,-1,-1,-1,-1],"loss_changes":[1.0675062E3,3.973096E2,2.2952301E2,1.8513428E2,3.9225464E1,1.02211006E2,0E0,4.3130127E1,2.5248087E2,1.3069254E1,0E0,4.1577614E1,6.2047775E1,0E0,0E0,0E0,0E0,0E0,0E0,0E0,0E0,0E0,0E0],"parents":[2147483647,0,0,1,1,2,2,3,3,4,4,5,5,7,7,8,8,9,9,11,11,12,12],"right_children":[2,4,6,8,10,12,-1,14,16,18,-1,20,22,-1,-1,-1,-1,-1,-1,-1,-1,-1,-1],"split_conditions":[5.357143E-2,1.3043478E-1,1.8181819E-1,1.6964161E-1,1.8181819E-1,1.3223307E-1,6.1011072E-2,6.666667E-2,-1.6666667E-1,-8.3333336E-2,6.0694695E-2,1.3333334E-1,-4.1666668E-2,-5.1780757E-2,-2.2895668E-2,-3.900342E-2,8.750248E-3,-1.9181004E-2,2.807033E-2,-2.8921446E-2,3.0831013E-2,-5.0364183E-3,4.1784342E-2],"split_indices":[0,1,0,4,1,4,0,2,0,0,0,1,1,0,0,0,0,0,0,0,0,0,0],"split_type":[0,0,0,0,0,0,0,0,0,0,0,0,0,0,0,0,0,0,0,0,0,0,0],"sum_hessian":[3.2605518E3,2.1233137E3,1.137238E3,1.9191425E3,2.0417114E2,5.526967E2,5.845414E2,8.129026E2,1.1062399E3,6.766101E1,1.3651013E2,1.7031195E2,3.8238474E2,6.486123E2,1.6429027E2,5.3921704E2,5.670228E2,2.0127575E1,4.7533432E1,1.3408322E2,3.6228718E1,9.3328125E1,2.890566E2],"tree_param":{"num_deleted":"0","num_feature":"11","num_nodes":"23","size_leaf_vector":"1"}},{"base_weights":[2.4321466E-3,-2.595969E-1,1.1922698E0,-3.9834693E-1,6.0526635E-2,6.1395895E-1,6.035017E-2,-5.087273E-1,5.4159343E-1,7.6497024E-1,-2.9126545E-2,-4.768734E-2,-1.5200044E-2,-4.756878E-2,2.9980106E-2,-1.4160114E-2,5.1257174E-2],"categories":[],"categories_nodes":[],"categories_segments":[],"categories_sizes":[],"default_left":[0,0,0,0,0,0,0,0,0,0,0,0,0,0,0,0,0],"id":21,"left_children":[1,3,5,7,-1,9,-1,11,13,15,-1,-1,-1,-1,-1,-1,-1],"loss_changes":[9.991482E2,5.362093E2,4.1870117E0,2.4934216E2,0E0,3.409639E0,0E0,1.9548566E2,2.246167E1,4.38048E0,0E0,0E0,0E0,0E0,0E0,0E0,0E0],"parents":[2147483647,0,0,1,1,2,2,3,3,5,5,7,7,8,8,9,9],"right_children":[2,4,6,8,-1,10,-1,12,14,16,-1,-1,-1,-1,-1,-1,-1],"split_conditions":[1.764706E-1,1.8181819E-1,1.8181819E-1,1.7777778E-1,6.0526635E-2,2.6857144E3,6.035017E-2,1.23879194E-1,-3.015873E-1,1.2285714E3,-2.9126545E-2,-4.768734E-2,-1.5200044E-2,-4.756878E-2,2.9980106E-2,-1.4160114E-2,5.1257174E-2],"split_indices":[0,1,0,2,0,3,0,4,1,3,0,0,0,0,0,0,0],"split_type":[0,0,0,0,0,0,0,0,0,0,0,0,0,0,0,0,0],"sum_hessian":[3.2027466E3,2.6253643E3,5.773825E2,2.3996187E3,2.2574564E2,1.5404491E1,5.61978E2,2.1478481E3,2.517704E2,1.3998383E1,1.4061086E0,6.7560614E2,1.472242E3,8.840551E0,2.4292984E2,2.7660694E0,1.1232313E1],"tree_param":{"num_deleted":"0","num_feature":"11","num_nodes":"17","size_leaf_vector":"1"}},{"base_weights":[2.5254034E-3,-2.4982585E-1,1.1792406E0,-3.8250273E-1,5.9885003E-2,5.910122E-1,5.9734482E-2,-5.753149E-1,1.3434729E-1,7.393761E-1,-2.8193263E-2,-5.4857124E-2,-1.9743828E-2,-2.7497936E-2,1.733227E-2,-1.3614023E-2,4.9764913E-2],"categories":[],"categories_nodes":[],"categories_segments":[],"categories_sizes":[],"default_left":[0,0,0,0,0,0,0,0,0,0,0,0,0,0,0,0,0],"id":22,"left_children":[1,3,5,7,-1,9,-1,11,13,15,-1,-1,-1,-1,-1,-1,-1],"loss_changes":[9.3524524E2,4.9852832E2,4.3479614E0,2.3689822E2,0E0,3.194707E0,0E0,1.6254785E2,9.410787E1,4.1025524E0,0E0,0E0,0E0,0E0,0E0,0E0,0E0],"parents":[2147483647,0,0,1,1,2,2,3,3,5,5,7,7,8,8,9,9],"right_children":[2,4,6,8,-1,10,-1,12,14,16,-1,-1,-1,-1,-1,-1,-1],"split_conditions":[1.764706E-1,1.8181819E-1,1.8181819E-1,5.357143E-2,5.9885003E-2,2.6857144E3,5.9734482E-2,1.0883278E-1,9.200956E-2,1.2285714E3,-2.8193263E-2,-5.4857124E-2,-1.9743828E-2,-2.7497936E-2,1.733227E-2,-1.3614023E-2,4.9764913E-2],"split_indices":[0,1,0,2,0,3,0,4,4,3,0,0,0,0,0,0,0],"split_type":[0,0,0,0,0,0,0,0,0,0,0,0,0,0,0,0,0],"sum_hessian":[3.1475588E3,2.5923967E3,5.551621E2,2.3754082E3,2.1698865E2,1.5211997E1,5.3995013E2,1.7299375E3,6.4547064E2,1.379905E1,1.4129469E0,4.4318018E2,1.2867573E3,1.5245808E2,4.9301254E2,2.7731006E0,1.10259495E1],"tree_param":{"num_deleted":"0","num_feature":"11","num_nodes":"17","size_leaf_vector":"1"}},{"base_weights":[2.5892085E-3,-2.4039328E-1,1.1670095E0,-4.8749474E-1,5.048182E-1,5.690362E-1,5.9160132E-2,-7.0244277E-1,-3.156211E-2,1.7189714E-1,5.9286136E-2,7.148037E-1,-2.7295236E-2,-4.1902617E-2,-7.6779425E-3,-4.0250704E-2,2.3014864E-2,-1.7731216E-2,2.3727084E-2,-1.3090347E-2,4.833044E-2],"categories":[],"categories_nodes":[],"categories_segments":[],"categories_sizes":[],"default_left":[0,0,0,0,0,0,0,0,0,0,0,0,0,0,0,0,0,0,0,0,0],"id":23,"left_children":[1,3,5,7,9,11,-1,13,15,17,-1,19,-1,-1,-1,-1,-1,-1,-1,-1,-1],"loss_changes":[8.759514E2,4.7192126E2,4.5024414E0,1.885459E2,1.4449887E2,2.9937153E0,0E0,9.7200806E1,2.352978E2,6.867043E1,0E0,3.843473E0,0E0,0E0,0E0,0E0,0E0,0E0,0E0,0E0,0E0],"parents":[2147483647,0,0,1,1,2,2,3,3,4,4,5,5,7,7,8,8,9,9,11,11],"right_children":[2,4,6,8,10,12,-1,14,16,18,-1,20,-1,-1,-1,-1,-1,-1,-1,-1,-1],"split_conditions":[1.764706E-1,5.5555556E-2,1.8181819E-1,2.6923755E-1,1.8181819E-1,2.6857144E3,5.9160132E-2,6.666667E-2,-2.638889E-1,1.23879194E-1,5.9286136E-2,1.2285714E3,-2.7295236E-2,-4.1902617E-2,-7.6779425E-3,-4.0250704E-2,2.3014864E-2,-1.7731216E-2,2.3727084E-2,-1.3090347E-2,4.833044E-2],"split_indices":[0,1,0,4,1,3,0,2,0,4,0,3,0,0,0,0,0,0,0,0,0],"split_type":[0,0,0,0,0,0,0,0,0,0,0,0,0,0,0,0,0,0,0,0,0],"sum_hessian":[3.0939683E3,2.5604636E3,5.335048E2,1.9231277E3,6.3733575E2,1.5019361E1,5.184855E2,1.3065962E3,6.165315E2,4.2888797E2,2.0844778E2,1.3600162E1,1.4191998E0,1.0473153E3,2.592809E2,2.3941432E2,3.771172E2,1.5648087E2,2.724071E2,2.7796688E0,1.0820493E1],"tree_param":{"num_deleted":"0","num_feature":"11","num_nodes":"21","size_leaf_vector":"1"}},{"base_weights":[2.6478409E-3,-2.3129801E-1,1.1555055E0,-4.6878842E-1,4.870766E-1,5.4796124E-1,5.862368E-2,-8.859515E-1,-2.416675E-1,1.636275E-1,5.872638E-2,6.9117475E-1,-2.643066E-2,-5.4986328E-2,-3.463952E-2,-4.0461447E-2,4.315018E-3,-1.6977675E-2,2.25237E-2,-1.2588026E-2,4.6948668E-2],"categories":[],"categories_nodes":[],"categories_segments":[],"categories_sizes":[],"default_left":[0,0,0,0,0,0,0,0,0,0,0,0,0,0,0,0,0,0,0,0,0],"id":24,"left_children":[1,3,5,7,9,11,-1,13,15,17,-1,19,-1,-1,-1,-1,-1,-1,-1,-1,-1],"loss_changes":[8.208716E2,4.3189E2,4.6503906E0,1.7999652E2,1.3969644E2,2.8056288E0,0E0,2.6909546E1,2.2956558E2,6.207136E1,0E0,3.6016507E0,0E0,0E0,0E0,0E0,0E0,0E0,0E0,0E0,0E0],"parents":[2147483647,0,0,1,1,2,2,3,3,4,4,5,5,7,7,8,8,9,9,11,11],"right_children":[2,4,6,8,10,12,-1,14,16,18,-1,20,-1,-1,-1,-1,-1,-1,-1,-1,-1],"split_conditions":[1.764706E-1,5.5555556E-2,1.8181819E-1,1.5441154E-1,1.8181819E-1,2.6857144E3,5.862368E-2,7.7386655E-2,-1.5384616E-1,1.23879194E-1,5.872638E-2,1.2285714E3,-2.643066E-2,-5.4986328E-2,-3.463952E-2,-4.0461447E-2,4.315018E-3,-1.6977675E-2,2.25237E-2,-1.2588026E-2,4.6948668E-2],"split_indices":[0,1,0,4,1,3,0,4,2,4,0,3,0,0,0,0,0,0,0,0,0],"split_type":[0,0,0,0,0,0,0,0,0,0,0,0,0,0,0,0,0,0,0,0,0],"sum_hessian":[3.041585E3,2.5291514E3,5.1243353E2,1.9010297E3,6.281217E2,1.4827379E1,4.9760614E2,6.6912225E2,1.2319073E3,4.2798886E2,2.0013284E2,1.3402474E1,1.4249043E0,3.153856E2,3.5373666E2,4.506215E2,7.812859E2,1.5532925E2,2.726596E2,2.7858055E0,1.061667E1],"tree_param":{"num_deleted":"0","num_feature":"11","num_nodes":"21","size_leaf_vector":"1"}},{"base_weights":[2.6648445E-3,-2.2261134E-1,1.144665E0,-3.3855334E-1,5.8202475E-2,5.277258E-1,5.8121998E-2,-8.659166E-1,-1.7288037E-1,6.684209E-1,-2.5597883E-2,-5.2986722E-2,-1.8334333E-2,-3.0128462E-2,1.0774671E-2,-1.2106063E-2,4.5615148E-2],"categories":[],"categories_nodes":[],"categories_segments":[],"categories_sizes":[],"default_left":[0,0,0,0,0,0,0,0,0,0,0,0,0,0,0,0,0],"id":25,"left_children":[1,3,5,7,-1,9,-1,11,13,15,-1,-1,-1,-1,-1,-1,-1],"loss_changes":[7.697304E2,4.0216626E2,4.7924194E0,2.0140933E2,0E0,2.6295185E0,0E0,5.2949066E1,2.9329187E2,3.3756804E0,0E0,0E0,0E0,0E0,0E0,0E0,0E0],"parents":[2147483647,0,0,1,1,2,2,3,3,5,5,7,7,8,8,9,9],"right_children":[2,4,6,8,-1,10,-1,12,14,16,-1,-1,-1,-1,-1,-1,-1],"split_conditions":[1.764706E-1,1.8181819E-1,1.8181819E-1,1.0192239E-1,5.8202475E-2,2.6857144E3,5.8121998E-2,6.666667E-2,-8.928572E-2,1.2285714E3,-2.5597883E-2,-5.2986722E-2,-1.8334333E-2,-3.0128462E-2,1.0774671E-2,-1.2106063E-2,4.5615148E-2],"split_indices":[0,1,0,4,0,3,0,2,0,3,0,0,0,0,0,0,0],"split_type":[0,0,0,0,0,0,0,0,0,0,0,0,0,0,0,0,0],"sum_hessian":[2.9899792E3,2.4980146E3,4.9196475E2,2.3059634E3,1.9205121E2,1.4636728E1,4.7732803E2,5.5023895E2,1.7557244E3,1.3206634E1,1.4300954E0,3.9555032E2,1.5468866E2,8.3326514E2,9.224592E2,2.7915392E0,1.0415094E1],"tree_param":{"num_deleted":"0","num_feature":"11","num_nodes":"17","size_leaf_vector":"1"}},{"base_weights":[2.6925718E-3,-2.1410464E-1,1.13443E0,-3.248925E-1,5.771147E-2,5.082756E-1,5.7652302E-2,-4.2062643E-1,5.5627817E-1,1.8442175E-1,5.4644775E-2,-4.536817E-2,-1.2991681E-2,-1.8761946E-2,3.3165712E-2,-4.9609736E-2,2.4713561E-2],"categories":[],"categories_nodes":[],"categories_segments":[],"categories_sizes":[],"default_left":[0,0,0,0,0,0,0,0,0,0,0,0,0,0,0,0,0],"id":26,"left_children":[1,3,5,7,-1,9,-1,11,13,15,-1,-1,-1,-1,-1,-1,-1],"loss_changes":[7.220544E2,3.747788E2,4.92865E0,1.9303899E2,0E0,2.7232366E0,0E0,1.6115594E2,2.2623802E1,4.553253E0,0E0,0E0,0E0,0E0,0E0,0E0,0E0],"parents":[2147483647,0,0,1,1,2,2,3,3,5,5,7,7,8,8,9,9],"right_children":[2,4,6,8,-1,10,-1,12,14,16,-1,-1,-1,-1,-1,-1,-1],"split_conditions":[1.764706E-1,1.8181819E-1,1.8181819E-1,2E-1,5.771147E-2,2.4639927E-1,5.7652302E-2,1.0192239E-1,-1.9354838E-1,1.2285714E3,5.4644775E-2,-4.536817E-2,-1.2991681E-2,-1.8761946E-2,3.3165712E-2,-4.9609736E-2,2.4713561E-2],"split_indices":[0,1,0,2,0,4,0,4,1,3,0,0,0,0,0,0,0],"split_type":[0,0,0,0,0,0,0,0,0,0,0,0,0,0,0,0,0],"sum_hessian":[2.940876E3,2.4687666E3,4.721095E2,2.2845586E3,1.8420787E2,1.4447994E1,4.5766153E2,2.0611497E3,2.23409E2,1.0144076E1,4.3039184E0,5.1066617E2,1.5504835E3,2.276688E1,2.0064212E2,1.6554643E0,8.488612E0],"tree_param":{"num_deleted":"0","num_feature":"11","num_nodes":"17","size_leaf_vector":"1"}},{"base_weights":[2.7893868E-3,-2.0583673E-1,1.1247901E0,-4.240305E-1,4.6557003E-1,4.908941E-1,5.7212092E-2,-6.34831E-1,7.7973213E-3,1.7890182E-1,5.725071E-2,1.7406437E-1,5.3659786E-2,-3.843383E-2,-5.7343044E-3,-3.6479015E-2,2.3063151E-2,-1.4049779E-2,2.163892E-2,-4.799712E-2,2.3784142E-2],"categories":[],"categories_nodes":[],"categories_segments":[],"categories_sizes":[],"default_left":[0,0,0,0,0,0,0,0,0,0,0,0,0,0,0,0,0,0,0,0,0],"id":27,"left_children":[1,3,5,7,9,11,-1,13,15,17,-1,19,-1,-1,-1,-1,-1,-1,-1,-1,-1],"loss_changes":[6.776241E2,3.5779446E2,5.034729E0,1.6775479E2,1.165009E2,2.6293197E0,0E0,8.612305E1,2.0279463E2,4.9460373E1,0E0,4.2461243E0,0E0,0E0,0E0,0E0,0E0,0E0,0E0,0E0,0E0],"parents":[2147483647,0,0,1,1,2,2,3,3,4,4,5,5,7,7,8,8,9,9,11,11],"right_children":[2,4,6,8,10,12,-1,14,16,18,-1,20,-1,-1,-1,-1,-1,-1,-1,-1,-1],"split_conditions":[1.764706E-1,5.5555556E-2,1.8181819E-1,2.6923755E-1,1.8181819E-1,2.4639927E-1,5.7212092E-2,6.666667E-2,-2.638889E-1,1.23879194E-1,5.725071E-2,1.2285714E3,5.3659786E-2,-3.843383E-2,-5.7343044E-3,-3.6479015E-2,2.3063151E-2,-1.4049779E-2,2.163892E-2,-4.799712E-2,2.3784142E-2],"split_indices":[0,1,0,4,1,4,0,2,0,4,0,3,0,0,0,0,0,0,0,0,0],"split_type":[0,0,0,0,0,0,0,0,0,0,0,0,0,0,0,0,0,0,0,0,0],"sum_hessian":[2.8928672E3,2.4399893E3,4.5287787E2,1.8418071E3,5.981821E2,1.4264339E1,4.3861353E2,1.2373258E3,6.044814E2,4.215759E2,1.7660622E2,1.0079187E1,4.185152E0,9.837148E2,2.5361102E2,2.2995087E2,3.745305E2,1.4990897E2,2.7166693E2,1.6590298E0,8.420157E0],"tree_param":{"num_deleted":"0","num_feature":"11","num_nodes":"21","size_leaf_vector":"1"}},{"base_weights":[2.8408708E-3,-1.9795457E-1,1.1156601E0,-4.0762678E-1,4.488508E-1,4.7420046E-1,5.6799054E-2,-7.7949953E-1,-1.7316523E-1,1.7027803E-1,5.68178E-2,7.6528585E-1,-1.0576931E-1,-5.2175123E-2,-3.0085495E-2,-3.3989742E-2,9.565196E-3,-1.6195907E-3,3.6070045E-2,-1.1213306E-2,5.8246505E-2,3.2345444E-2,-2.7588254E-2],"categories":[],"categories_nodes":[],"categories_segments":[],"categories_sizes":[],"default_left":[0,0,0,0,0,0,0,0,0,0,0,0,0,0,0,0,0,0,0,0,0,0,0],"id":28,"left_children":[1,3,5,7,9,11,-1,13,15,17,-1,19,21,-1,-1,-1,-1,-1,-1,-1,-1,-1,-1],"loss_changes":[6.362824E2,3.2733133E2,5.135071E0,1.587485E2,1.1299951E2,2.6271195E0,0E0,3.243271E1,2.0673734E2,4.7134033E1,0E0,4.2805915E0,2.343782E0,0E0,0E0,0E0,0E0,0E0,0E0,0E0,0E0,0E0,0E0],"parents":[2147483647,0,0,1,1,2,2,3,3,4,4,5,5,7,7,8,8,9,9,11,11,12,12],"right_children":[2,4,6,8,10,12,-1,14,16,18,-1,20,22,-1,-1,-1,-1,-1,-1,-1,-1,-1,-1],"split_conditions":[1.764706E-1,5.5555556E-2,1.8181819E-1,1.6964161E-1,1.8181819E-1,1.7642858E3,5.6799054E-2,7.7386655E-2,-1.6666667E-1,2.4807075E-1,5.68178E-2,1.2285714E3,5E0,-5.2175123E-2,-3.0085495E-2,-3.3989742E-2,9.565196E-3,-1.6195907E-3,3.6070045E-2,-1.1213306E-2,5.8246505E-2,3.2345444E-2,-2.7588254E-2],"split_indices":[0,1,0,4,1,3,0,4,1,4,0,3,9,0,0,0,0,0,0,0,0,0,0],"split_type":[0,0,0,0,0,0,0,0,0,0,0,0,0,0,0,0,0,0,0,0,0,0,0],"sum_hessian":[2.845562E3,2.411294E3,4.3426816E2,1.8212701E3,5.900238E2,1.408213E1,4.2018604E2,7.033624E2,1.1179077E3,4.2077576E2,1.6924803E2,9.163477E0,4.918653E0,2.8109308E2,4.2226935E2,4.6737244E2,6.505353E2,3.083313E2,1.12444466E2,2.7623951E0,6.401082E0,1.6624917E0,3.2561617E0],"tree_param":{"num_deleted":"0","num_feature":"11","num_nodes":"23","size_leaf_vector":"1"}},{"base_weights":[2.8775174E-3,-1.9029658E-1,1.1070813E0,-2.8696668E-1,5.641057E-2,4.6011376E-1,5.641116E-2,-4.600736E-1,1.5427054E-1,1.4794865E-1,5.2444376E-2,-4.9727824E-2,-1.5072593E-2,-2.807267E-2,1.48336515E-2,-4.611088E-2,2.2014467E-2],"categories":[],"categories_nodes":[],"categories_segments":[],"categories_sizes":[],"default_left":[0,0,0,0,0,0,0,0,0,0,0,0,0,0,0,0,0],"id":29,"left_children":[1,3,5,7,-1,9,-1,11,13,15,-1,-1,-1,-1,-1,-1,-1],"loss_changes":[5.977712E2,3.0434003E2,5.188385E0,1.698703E2,0E0,2.5820656E0,0E0,1.350864E2,6.408617E1,3.8151834E0,0E0,0E0,0E0,0E0,0E0,0E0,0E0],"parents":[2147483647,0,0,1,1,2,2,3,3,5,5,7,7,8,8,9,9],"right_children":[2,4,6,8,-1,10,-1,12,14,16,-1,-1,-1,-1,-1,-1,-1],"split_conditions":[1.764706E-1,1.8181819E-1,1.8181819E-1,5.357143E-2,5.641057E-2,2.4639927E-1,5.641116E-2,1.0883278E-1,7.865204E-2,1.2285714E3,5.2444376E-2,-4.9727824E-2,-1.5072593E-2,-2.807267E-2,1.48336515E-2,-4.611088E-2,2.2014467E-2],"split_indices":[0,1,0,2,0,4,0,4,4,3,0,0,0,0,0,0,0],"split_type":[0,0,0,0,0,0,0,0,0,0,0,0,0,0,0,0,0],"sum_hessian":[2.8004558E3,2.3841843E3,4.1627167E2,2.2220508E3,1.621335E2,1.3892963E1,4.023787E2,1.5959014E3,6.2614935E2,9.896936E0,3.9960277E0,3.6402682E2,1.2318745E3,1.0341852E2,5.2273083E2,1.6612028E0,8.235733E0],"tree_param":{"num_deleted":"0","num_feature":"11","num_nodes":"17","size_leaf_vector":"1"}},{"base_weights":[2.914624E-3,-3.0698842E-1,6.6204405E-1,-4.5532522E-1,4.0452766E-1,3.0417055E-1,5.6046512E-2,-6.7060417E-1,-4.1127376E-2,1.2827463E-1,5.558465E-2,5.339321E-2,7.6845366E-1,-3.7195455E-2,-2.0243607E-3,-3.4048166E-2,2.1217747E-2,-2.882216E-2,1.53445E-2,-3.963586E-3,5.2402016E-2,-6.5683424E-3,4.5260403E-2],"categories":[],"categories_nodes":[],"categories_segments":[],"categories_sizes":[],"default_left":[0,0,0,0,0,0,0,0,0,0,0,0,0,0,0,0,0,0,0,0,0,0,0],"id":30,"left_children":[1,3,5,7,9,11,-1,13,15,17,-1,19,21,-1,-1,-1,-1,-1,-1,-1,-1,-1,-1],"loss_changes":[5.634974E2,1.9822868E2,1.4454181E2,1.3846637E2,6.3199398E1,5.783049E1,0E0,4.7173523E1,1.5880939E2,2.9667324E1,0E0,4.281011E1,2.1560165E1,0E0,0E0,0E0,0E0,0E0,0E0,0E0,0E0,0E0,0E0],"parents":[2147483647,0,0,1,1,2,2,3,3,4,4,5,5,7,7,8,8,9,9,11,11,12,12],"right_children":[2,4,6,8,10,12,-1,14,16,18,-1,20,22,-1,-1,-1,-1,-1,-1,-1,-1,-1,-1],"split_conditions":[5.357143E-2,5.882353E-2,1.8181819E-1,2.6923755E-1,1.8181819E-1,2.3644674E-1,5.6046512E-2,1.1627907E-1,-2.638889E-1,7.955022E-2,5.558465E-2,1.7391305E-1,-1.8181819E-1,-3.7195455E-2,-2.0243607E-3,-3.4048166E-2,2.1217747E-2,-2.882216E-2,1.53445E-2,-3.963586E-3,5.2402016E-2,-6.5683424E-3,4.5260403E-2],"split_indices":[0,1,0,4,1,4,0,2,0,4,0,1,1,0,0,0,0,0,0,0,0,0,0],"split_type":[0,0,0,0,0,0,0,0,0,0,0,0,0,0,0,0,0,0,0,0,0,0,0],"sum_hessian":[2.756647E3,1.8754164E3,8.812307E2,1.5521785E3,3.2323788E2,4.9604266E2,3.8518805E2,1.0209312E3,5.312472E2,2.3328635E2,8.9951546E1,3.2280054E2,1.7324211E2,9.1437634E2,1.0655491E2,2.2352902E2,3.0771817E2,4.6721546E1,1.865648E2,2.8562454E2,3.7175987E1,2.2860876E1,1.5038124E2],"tree_param":{"num_deleted":"0","num_feature":"11","num_nodes":"23","size_leaf_vector":"1"}},{"base_weights":[2.9583285E-3,-1.7217292E-1,5.57034E-2,-2.6187393E-1,5.5738505E-2,-7.8756964E-1,-1.2679355E-1,-4.5467034E-2,9.4908586E-4,-2.5895203E-2,1.11986315E-2],"categories":[],"categories_nodes":[],"categories_segments":[],"categories_sizes":[],"default_left":[0,0,0,0,0,0,0,0,0,0,0],"id":31,"left_children":[1,3,-1,5,-1,7,9,-1,-1,-1,-1],"loss_changes":[5.282276E2,2.709958E2,0E0,1.5562668E2,0E0,4.4028564E1,2.3962938E2,0E0,0E0,0E0,0E0],"parents":[2147483647,0,0,1,1,3,3,5,5,6,6],"right_children":[2,4,-1,6,-1,8,10,-1,-1,-1,-1],"split_conditions":[1.8181819E-1,1.8181819E-1,5.57034E-2,9.489803E-2,5.5738505E-2,1.3043478E-1,-8E-2,-4.5467034E-2,9.4908586E-4,-2.5895203E-2,1.11986315E-2],"split_indices":[0,1,0,4,0,2,0,0,0,0,0],"split_type":[0,0,0,0,0,0,0,0,0,0,0],"sum_hessian":[2.712581E3,2.343973E3,3.6860806E2,2.191986E3,1.5198676E2,4.4711337E2,1.7448728E3,3.8835333E2,5.876004E1,8.247667E2,9.20106E2],"tree_param":{"num_deleted":"0","num_feature":"11","num_nodes":"11","size_leaf_vector":"1"}},{"base_weights":[2.9669262E-3,-1.653995E-1,5.5380266E-2,-2.5107342E-1,5.5393815E-2,-7.455592E-1,-1.1448059E-1,-4.841168E-2,-1.27698695E-2,-2.796687E-2,9.18956E-3],"categories":[],"categories_nodes":[],"categories_segments":[],"categories_sizes":[],"default_left":[0,0,0,0,0,0,0,0,0,0,0],"id":32,"left_children":[1,3,-1,5,-1,7,9,-1,-1,-1,-1],"loss_changes":[4.9727902E2,2.5337598E2,0E0,1.4680089E2,0E0,5.1108093E1,2.2636038E2,0E0,0E0,0E0,0E0],"parents":[2147483647,0,0,1,1,3,3,5,5,6,6],"right_children":[2,4,-1,6,-1,8,10,-1,-1,-1,-1],"split_conditions":[1.8181819E-1,1.8181819E-1,5.5380266E-2,1.0192239E-1,5.5393815E-2,6.122449E-2,-1.2E-1,-4.841168E-2,-1.27698695E-2,-2.796687E-2,9.18956E-3],"split_indices":[0,1,0,4,0,2,0,0,0,0,0],"split_type":[0,0,0,0,0,0,0,0,0,0,0],"sum_hessian":[2.6717876E3,2.3191572E3,3.5263034E2,2.1737002E3,1.4545723E2,4.695181E2,1.704182E3,3.2218033E2,1.4733778E2,6.8366144E2,1.02052057E3],"tree_param":{"num_deleted":"0","num_feature":"11","num_nodes":"11","size_leaf_vector":"1"}},{"base_weights":[2.956703E-3,-1.5890233E-1,5.5075683E-2,-3.4205762E-1,4.113518E-1,-6.128462E-1,-4.2281646E-2,1.7975587E-1,5.5068105E-2,-5.661744E-2,-2.5606573E-2,-3.1911504E-2,1.5592028E-2,-1.13494185E-4,3.361115E-2],"categories":[],"categories_nodes":[],"categories_segments":[],"categories_sizes":[],"default_left":[0,0,0,0,0,0,0,0,0,0,0,0,0,0,0],"id":33,"left_children":[1,3,-1,5,7,9,11,13,-1,-1,-1,-1,-1,-1,-1],"loss_changes":[4.6834854E2,2.3991866E2,0E0,1.4107257E2,8.90605E1,4.719861E1,1.7451921E2,3.759587E1,0E0,0E0,0E0,0E0,0E0,0E0,0E0],"parents":[2147483647,0,0,1,1,3,3,4,4,5,5,6,6,7,7],"right_children":[2,4,-1,6,8,10,12,14,-1,-1,-1,-1,-1,-1,-1],"split_conditions":[1.8181819E-1,5.5555556E-2,5.5075683E-2,2.169401E-1,1.8181819E-1,-1.5384616E-1,-2.1875E-1,2.4807075E-1,5.5068105E-2,-5.661744E-2,-2.5606573E-2,-3.1911504E-2,1.5592028E-2,-1.13494185E-4,3.361115E-2],"split_indices":[0,1,0,4,1,2,1,4,0,0,0,0,0,0,0],"split_type":[0,0,0,0,0,0,0,0,0,0,0,0,0,0,0],"sum_hessian":[2.6319785E3,2.294733E3,3.372457E2,1.7371818E3,5.5755115E2,9.121708E2,8.250109E2,4.1838455E2,1.391666E2,1.4646059E2,7.657102E2,3.0720935E2,5.178016E2,3.0620163E2,1.1218289E2],"tree_param":{"num_deleted":"0","num_feature":"11","num_nodes":"15","size_leaf_vector":"1"}},{"base_weights":[2.9727446E-3,-1.524875E-1,5.478834E-2,-2.30588E-1,5.4759998E-2,-3.2224625E-1,4.762661E-1,-3.7069716E-2,-8.375511E-3,-2.4078668E-3,3.097274E-2],"categories":[],"categories_nodes":[],"categories_segments":[],"categories_sizes":[],"default_left":[0,0,0,0,0,0,0,0,0,0,0],"id":34,"left_children":[1,3,-1,5,-1,7,9,-1,-1,-1,-1],"loss_changes":[4.412043E2,2.2180687E2,0E0,1.3883588E2,0E0,1.22807465E2,1.851033E1,0E0,0E0,0E0,0E0],"parents":[2147483647,0,0,1,1,3,3,5,5,6,6],"right_children":[2,4,-1,6,-1,8,10,-1,-1,-1,-1],"split_conditions":[1.8181819E-1,1.8181819E-1,5.478834E-2,1.7777778E-1,5.4759998E-2,1.23879194E-1,-8.571429E-2,-3.7069716E-2,-8.375511E-3,-2.4078668E-3,3.097274E-2],"split_indices":[0,1,0,2,0,4,1,0,0,0,0],"split_type":[0,0,0,0,0,0,0,0,0,0,0],"sum_hessian":[2.5950774E3,2.2726343E3,3.2244318E2,2.1395234E3,1.3311087E2,1.8944171E3,2.4510623E2,5.0976834E2,1.3846488E3,5.271247E1,1.9239375E2],"tree_param":{"num_deleted":"0","num_feature":"11","num_nodes":"11","size_leaf_vector":"1"}},{"base_weights":[3.0292238E-3,-1.463499E-1,5.4517027E-2,-3.1891763E-1,3.9619777E-1,-5.1838255E-1,6.422125E-2,1.8163863E-1,5.446818E-2,-3.8941424E-2,-1.4393113E-2,-3.0079573E-2,2.2252189E-2,4.994838E-4,3.2177024E-2],"categories":[],"categories_nodes":[],"categories_segments":[],"categories_sizes":[],"default_left":[0,0,0,0,0,0,0,0,0,0,0,0,0,0,0],"id":35,"left_children":[1,3,-1,5,7,9,11,13,-1,-1,-1,-1,-1,-1,-1],"loss_changes":[4.1578522E2,2.1085278E2,0E0,1.305743E2,8.0645744E1,6.7224945E1,1.4877658E2,3.2999275E1,0E0,0E0,0E0,0E0,0E0,0E0,0E0],"parents":[2147483647,0,0,1,1,3,3,4,4,5,5,6,6,7,7],"right_children":[2,4,-1,6,8,10,12,14,-1,-1,-1,-1,-1,-1,-1],"split_conditions":[1.8181819E-1,5.5555556E-2,5.4517027E-2,2.6923755E-1,1.8181819E-1,-3.448276E-2,-2.638889E-1,2.4807075E-1,5.446818E-2,-3.8941424E-2,-1.4393113E-2,-3.0079573E-2,2.2252189E-2,4.994838E-4,3.2177024E-2],"split_indices":[0,1,0,4,1,2,0,4,0,0,0,0,0,0,0],"split_type":[0,0,0,0,0,0,0,0,0,0,0,0,0,0,0],"sum_hessian":[2.5579307E3,2.2497205E3,3.082101E2,1.707143E3,5.425775E2,1.1224397E3,5.8470325E2,4.1529208E2,1.2728542E2,5.2589526E2,5.965445E2,2.1253574E2,3.721675E2,3.0352115E2,1.1177093E2],"tree_param":{"num_deleted":"0","num_feature":"11","num_nodes":"15","size_leaf_vector":"1"}},{"base_weights":[3.0503406E-3,-1.40434E-1,5.4260638E-2,-2.1164437E-1,5.4191478E-2,-7.307761E-1,-9.3962416E-2,-4.2635273E-2,6.785866E-3,-3.1950712E-2,5.8063325E-3],"categories":[],"categories_nodes":[],"categories_segments":[],"categories_sizes":[],"default_left":[0,0,0,0,0,0,0,0,0,0,0],"id":36,"left_children":[1,3,-1,5,-1,7,9,-1,-1,-1,-1],"loss_changes":[3.9198105E2,1.9454916E2,0E0,1.2866882E2,0E0,4.124243E1,1.9691454E2,0E0,0E0,0E0,0E0],"parents":[2147483647,0,0,1,1,3,3,5,5,6,6],"right_children":[2,4,-1,6,-1,8,10,-1,-1,-1,-1],"split_conditions":[1.8181819E-1,1.8181819E-1,5.4260638E-2,9.200956E-2,5.4191478E-2,9.375E-2,-1.5384616E-1,-4.2635273E-2,6.785866E-3,-3.1950712E-2,5.8063325E-3],"split_indices":[0,1,0,4,0,1,2,0,0,0,0],"split_type":[0,0,0,0,0,0,0,0,0,0,0],"sum_hessian":[2.5224763E3,2.2279429E3,2.945336E2,2.1062576E3,1.21685196E2,3.8826962E2,1.7179879E3,3.403876E2,4.788205E1,4.7739642E2,1.2405916E3],"tree_param":{"num_deleted":"0","num_feature":"11","num_nodes":"11","size_leaf_vector":"1"}},{"base_weights":[3.0308284E-3,-1.3470037E-1,5.4018147E-2,-2.0264725E-1,5.392878E-2,-7.966167E-1,-1.0478897E-1,-4.3818872E-2,3.6703836E-2,-2.2771861E-2,8.893449E-3],"categories":[],"categories_nodes":[],"categories_segments":[],"categories_sizes":[],"default_left":[0,0,0,0,0,0,0,0,0,0,0],"id":37,"left_children":[1,3,-1,5,-1,7,9,-1,-1,-1,-1],"loss_changes":[3.696685E2,1.8232034E2,0E0,1.2155092E2,0E0,3.676349E1,1.7826636E2,0E0,0E0,0E0,0E0],"parents":[2147483647,0,0,1,1,3,3,5,5,6,6],"right_children":[2,4,-1,6,-1,8,10,-1,-1,-1,-1],"split_conditions":[1.8181819E-1,1.8181819E-1,5.4018147E-2,7.865204E-2,5.392878E-2,1.3043478E-1,-8E-2,-4.3818872E-2,3.6703836E-2,-2.2771861E-2,8.893449E-3],"split_indices":[0,1,0,4,0,1,0,0,0,0,0],"split_type":[0,0,0,0,0,0,0,0,0,0,0],"sum_hessian":[2.4893452E3,2.2079458E3,2.813992E2,2.091641E3,1.1630483E2,2.9485034E2,1.7967908E3,2.8065363E2,1.4196723E1,8.0167285E2,9.9511786E2],"tree_param":{"num_deleted":"0","num_feature":"11","num_nodes":"11","size_leaf_vector":"1"}},{"base_weights":[3.0341274E-3,-1.291505E-1,5.378861E-2,-2.8647578E-1,3.705231E-1,-6.039464E-1,-5.7672244E-2,1.7900766E-1,5.367909E-2,-4.707449E-2,-2.3144647E-2,-2.7398193E-2,1.3029925E-2,8.062673E-4,3.0820807E-2],"categories":[],"categories_nodes":[],"categories_segments":[],"categories_sizes":[],"default_left":[0,0,0,0,0,0,0,0,0,0,0,0,0,0,0],"id":38,"left_children":[1,3,-1,5,7,9,11,13,-1,-1,-1,-1,-1,-1,-1],"loss_changes":[3.487256E2,1.7222667E2,0E0,1.2096448E2,7.046204E1,3.2777817E1,1.5137921E2,2.9457407E1,0E0,0E0,0E0,0E0,0E0,0E0,0E0],"parents":[2147483647,0,0,1,1,3,3,4,4,5,5,6,6,7,7],"right_children":[2,4,-1,6,8,10,12,14,-1,-1,-1,-1,-1,-1,-1],"split_conditions":[1.8181819E-1,5.5555556E-2,5.378861E-2,1.8546058E-1,1.8181819E-1,7.443415E-2,-1.875E-1,2.4807075E-1,5.367909E-2,-4.707449E-2,-2.3144647E-2,-2.7398193E-2,1.3029925E-2,8.062673E-4,3.0820807E-2],"split_indices":[0,1,0,4,1,4,1,4,0,0,0,0,0,0,0],"split_type":[0,0,0,0,0,0,0,0,0,0,0,0,0,0,0],"sum_hessian":[2.4573071E3,2.1885142E3,2.6879288E2,1.664776E3,5.237382E2,6.965943E2,9.681817E2,4.1259943E2,1.1113878E2,2.0362988E2,4.9296445E2,3.8081693E2,5.873648E2,3.014006E2,1.1119881E2],"tree_param":{"num_deleted":"0","num_feature":"11","num_nodes":"15","size_leaf_vector":"1"}},{"base_weights":[3.0141228E-3,-1.2392323E-1,5.3571142E-2,-1.858359E-1,5.3441446E-2,-3.3854216E-1,1.8048698E-1,-4.4314627E-2,-1.0248636E-2,-2.027302E-2,1.4230214E-2],"categories":[],"categories_nodes":[],"categories_segments":[],"categories_sizes":[],"default_left":[0,0,0,0,0,0,0,0,0,0,0],"id":39,"left_children":[1,3,-1,5,-1,7,9,-1,-1,-1,-1],"loss_changes":[3.2911234E2,1.6037381E2,0E0,1.1545638E2,0E0,1.0636333E2,3.718179E1,0E0,0E0,0E0,0E0],"parents":[2147483647,0,0,1,1,3,3,5,5,6,6],"right_children":[2,4,-1,6,-1,8,10,-1,-1,-1,-1],"split_conditions":[1.8181819E-1,1.8181819E-1,5.3571142E-2,5.357143E-2,5.3441446E-2,1.0883278E-1,7.865204E-2,-4.4314627E-2,-1.0248636E-2,-2.027302E-2,1.4230214E-2],"split_indices":[0,1,0,2,0,4,4,0,0,0,0],"split_type":[0,0,0,0,0,0,0,0,0,0,0],"sum_hessian":[2.4247278E3,2.168029E3,2.5669894E2,2.061848E3,1.0618099E2,1.4552745E3,6.065734E2,2.841947E2,1.1710798E3,9.108342E1,5.1549E2],"tree_param":{"num_deleted":"0","num_feature":"11","num_nodes":"11","size_leaf_vector":"1"}},{"base_weights":[3.0034762E-3,-1.18845284E-1,5.3364944E-2,-2.999697E-1,2.7877054E-1,-5.980484E-1,-1.7769817E-2,1.3758399E-1,5.321498E-2,-5.334679E-2,-2.4795502E-2,-2.8090972E-2,1.5407397E-2,-2.2452183E-2,1.4051929E-2],"categories":[],"categories_nodes":[],"categories_segments":[],"categories_sizes":[],"default_left":[0,0,0,0,0,0,0,0,0,0,0,0,0,0,0],"id":40,"left_children":[1,3,-1,5,7,9,11,13,-1,-1,-1,-1,-1,-1,-1],"loss_changes":[3.1068277E2,1.5489526E2,0E0,1.2426112E2,7.452361E1,3.3877655E1,1.3491882E2,4.824964E1,0E0,0E0,0E0,0E0,0E0,0E0,0E0],"parents":[2147483647,0,0,1,1,3,3,4,4,5,5,6,6,7,7],"right_children":[2,4,-1,6,8,10,12,14,-1,-1,-1,-1,-1,-1,-1],"split_conditions":[1.8181819E-1,1.5625E-2,5.3364944E-2,2.169401E-1,1.8181819E-1,-1.5384616E-1,-2.2580644E-1,7.865204E-2,5.321498E-2,-5.334679E-2,-2.4795502E-2,-2.8090972E-2,1.5407397E-2,-2.2452183E-2,1.4051929E-2],"split_indices":[0,1,0,4,1,2,1,4,0,0,0,0,0,0,0],"split_type":[0,0,0,0,0,0,0,0,0,0,0,0,0,0,0],"sum_hessian":[2.3937295E3,2.1486265E3,2.4510303E2,1.4763542E3,6.722724E2,7.174332E2,7.58921E2,5.708468E2,1.01425606E2,1.266364E2,5.907968E2,2.8404504E2,4.7487595E2,1.1174769E2,4.590991E2],"tree_param":{"num_deleted":"0","num_feature":"11","num_nodes":"15","size_leaf_vector":"1"}},{"base_weights":[2.957102E-3,-1.13965966E-1,5.316926E-2,-1.7038392E-1,5.299888E-2,-6.4245296E-1,-5.5254772E-2,-4.5230947E-2,-1.5012371E-2,-2.3349809E-2,1.0011172E-2],"categories":[],"categories_nodes":[],"categories_segments":[],"categories_sizes":[],"default_left":[0,0,0,0,0,0,0,0,0,0,0],"id":41,"left_children":[1,3,-1,5,-1,7,9,-1,-1,-1,-1],"loss_changes":[2.9338373E2,1.4133647E2,0E0,1.1053102E2,0E0,3.5504593E1,1.7224965E2,0E0,0E0,0E0,0E0],"parents":[2147483647,0,0,1,1,3,3,5,5,6,6],"right_children":[2,4,-1,6,-1,8,10,-1,-1,-1,-1],"split_conditions":[1.8181819E-1,1.8181819E-1,5.316926E-2,-1.8181819E-1,5.299888E-2,3.0513534E-1,1.5299542E-1,-4.5230947E-2,-1.5012371E-2,-2.3349809E-2,1.0011172E-2],"split_indices":[0,1,0,2,0,4,4,0,0,0,0],"split_type":[0,0,0,0,0,0,0,0,0,0,0],"sum_hessian":[2.3642395E3,2.1302502E3,2.3398938E2,2.0333837E3,9.686647E1,3.977778E2,1.635606E3,2.2429807E2,1.7347975E2,6.2595605E2,1.0096499E3],"tree_param":{"num_deleted":"0","num_feature":"11","num_nodes":"11","size_leaf_vector":"1"}},{"base_weights":[2.9333443E-3,-1.0922305E-1,5.2983392E-2,-2.811505E-1,2.6969677E-1,-4.7601563E-1,1.2296113E-1,1.3975824E-1,5.279238E-2,-4.5533594E-2,-1.620501E-2,-3.0982126E-2,2.1639371E-2,-2.6930256E-2,1.2538885E-2],"categories":[],"categories_nodes":[],"categories_segments":[],"categories_sizes":[],"default_left":[0,0,0,0,0,0,0,0,0,0,0,0,0,0,0],"id":42,"left_children":[1,3,-1,5,7,9,11,13,-1,-1,-1,-1,-1,-1,-1],"loss_changes":[2.7710913E2,1.3778098E2,0E0,1.1459808E2,6.729768E1,6.451604E1,1.09323845E2,4.2893295E1,0E0,0E0,0E0,0E0,0E0,0E0,0E0],"parents":[2147483647,0,0,1,1,3,3,4,4,5,5,6,6,7,7],"right_children":[2,4,-1,6,8,10,12,14,-1,-1,-1,-1,-1,-1,-1],"split_conditions":[1.8181819E-1,1.5625E-2,5.2983392E-2,2.856743E-1,1.8181819E-1,-1.5384616E-1,-2.9032257E-1,6.6343024E-2,5.279238E-2,-4.5533594E-2,-1.620501E-2,-3.0982126E-2,2.1639371E-2,-2.6930256E-2,1.2538885E-2],"split_indices":[0,1,0,4,1,1,1,4,0,0,0,0,0,0,0],"split_type":[0,0,0,0,0,0,0,0,0,0,0,0,0,0,0],"sum_hessian":[2.3361116E3,2.1127698E3,2.2334193E2,1.4535211E3,6.5924866E2,9.80527E2,4.729941E2,5.667513E2,9.2497406E1,2.526519E2,7.2787506E2,1.38951E2,3.3404312E2,7.91667E1,4.8758456E2],"tree_param":{"num_deleted":"0","num_feature":"11","num_nodes":"15","size_leaf_vector":"1"}},{"base_weights":[2.893943E-3,-1.0461494E-1,5.2806675E-2,-2.69347E-1,2.5822383E-1,-6.195029E-1,-5.5024743E-2,1.3281356E-1,5.2594762E-2,-4.3174546E-2,-2.1954438E-2,-2.7347228E-2,1.0087855E-2,-3.9672974E-2,1.040742E-2],"categories":[],"categories_nodes":[],"categories_segments":[],"categories_sizes":[],"default_left":[0,0,0,0,0,0,0,0,0,0,0,0,0,0,0],"id":43,"left_children":[1,3,-1,5,7,9,11,13,-1,-1,-1,-1,-1,-1,-1],"loss_changes":[2.6180353E2,1.2546736E2,0E0,1.0828547E2,6.511437E1,2.3739914E1,1.13346E2,3.975031E1,0E0,0E0,0E0,0E0,0E0,0E0,0E0],"parents":[2147483647,0,0,1,1,3,3,4,4,5,5,6,6,7,7],"right_children":[2,4,-1,6,8,10,12,14,-1,-1,-1,-1,-1,-1,-1],"split_conditions":[1.8181819E-1,1.5625E-2,5.2806675E-2,1.8546058E-1,1.8181819E-1,1.0712906E-1,-2.1875E-1,5.151272E-2,5.2594762E-2,-4.3174546E-2,-2.1954438E-2,-2.7347228E-2,1.0087855E-2,-3.9672974E-2,1.040742E-2],"split_indices":[0,1,0,4,1,4,1,4,0,0,0,0,0,0,0],"split_type":[0,0,0,0,0,0,0,0,0,0,0,0,0,0,0],"sum_hessian":[2.31011E3,2.096964E3,2.1314586E2,1.442372E3,6.545922E2,5.469251E2,8.9544684E2,5.662801E2,8.831217E1,2.3088936E2,3.1603574E2,3.0672342E2,5.887234E2,4.1875153E1,5.244049E2],"tree_param":{"num_deleted":"0","num_feature":"11","num_nodes":"15","size_leaf_vector":"1"}},{"base_weights":[2.8176438E-3,-2.3662367E-1,4.5685625E-1,-4.780042E-1,1.6957147E-2,2.480864E-1,5.263851E-2,-6.371116E-1,-1.1221495E-2,-3.8118806E-1,4.5134634E-1,-3.469332E-1,4.0202966E-1,-5.2966278E-2,-2.7281342E-2,-7.5713107E-3,3.718397E-2,-4.2974364E-2,-5.205815E-3,-4.8763003E-2,2.9944269E-2,-2.6137773E-2,3.7291195E-2,-2.1426838E-2,2.6259825E-2],"categories":[],"categories_nodes":[],"categories_segments":[],"categories_sizes":[],"default_left":[0,0,0,0,0,0,0,0,0,0,0,0,0,0,0,0,0,0,0,0,0,0,0,0,0],"id":44,"left_children":[1,3,5,7,9,11,-1,13,15,17,19,21,23,-1,-1,-1,-1,-1,-1,-1,-1,-1,-1,-1,-1],"loss_changes":[2.4842125E2,9.158304E1,9.789375E1,5.6921066E1,1.26524574E2,5.37787E1,0E0,2.150241E1,2.084409E1,5.0498722E1,7.421878E1,2.3618374E1,4.786399E1,0E0,0E0,0E0,0E0,0E0,0E0,0E0,0E0,0E0,0E0,0E0,0E0],"parents":[2147483647,0,0,1,1,2,2,3,3,4,4,5,5,7,7,8,8,9,9,10,10,11,11,12,12],"right_children":[2,4,6,8,10,12,-1,14,16,18,20,22,24,-1,-1,-1,-1,-1,-1,-1,-1,-1,-1,-1,-1],"split_conditions":[2.8571429E-2,2.2722203E-1,1.8181819E-1,1.923077E-2,-1.6666667E-1,9.489803E-2,5.263851E-2,-1.6666667E-1,1.7777778E-1,1.1E1,-2.7272728E-1,1.3333334E-1,-1.2E-1,-5.2966278E-2,-2.7281342E-2,-7.5713107E-3,3.718397E-2,-4.2974364E-2,-5.205815E-3,-4.8763003E-2,2.9944269E-2,-2.6137773E-2,3.7291195E-2,-2.1426838E-2,2.6259825E-2],"split_indices":[0,4,0,1,0,4,0,2,2,9,2,1,2,0,0,0,0,0,0,0,0,0,0,0,0],"split_type":[0,0,0,0,0,0,0,0,0,0,0,0,0,0,0,0,0,0,0,0,0,0,0,0,0],"sum_hessian":[2.2830615E3,1.4950908E3,7.879707E2,7.6551825E2,7.2957263E2,5.845858E2,2.033849E2,5.7064386E2,1.948744E2,3.80731E2,3.488416E2,1.19899216E2,4.6468658E2,9.9742096E1,4.7090176E2,1.6502449E2,2.9849924E1,1.3888196E2,2.4184904E2,3.2169857E1,3.1667175E2,1.03730774E2,1.6168442E1,5.9690292E1,4.049963E2],"tree_param":{"num_deleted":"0","num_feature":"11","num_nodes":"25","size_leaf_vector":"1"}},{"base_weights":[2.6810071E-3,-9.627998E-2,5.247831E-2,-1.4462164E-1,5.233627E-2,-5.4079264E-1,-2.6713872E-2,-3.9770868E-2,-8.678342E-3,-2.0609763E-2,1.0663815E-2],"categories":[],"categories_nodes":[],"categories_segments":[],"categories_sizes":[],"default_left":[0,0,0,0,0,0,0,0,0,0,0],"id":45,"left_children":[1,3,-1,5,-1,7,9,-1,-1,-1,-1],"loss_changes":[2.3396965E2,1.14161705E2,0E0,9.249841E1,0E0,4.233113E1,1.4138272E2,0E0,0E0,0E0,0E0],"parents":[2147483647,0,0,1,1,3,3,5,5,6,6],"right_children":[2,4,-1,6,-1,8,10,-1,-1,-1,-1],"split_conditions":[1.8181819E-1,1.8181819E-1,5.247831E-2,-1.5384616E-1,5.233627E-2,3.0513534E-1,1.5299542E-1,-3.9770868E-2,-8.678342E-3,-2.0609763E-2,1.0663815E-2],"split_indices":[0,1,0,2,0,4,4,0,0,0,0],"split_type":[0,0,0,0,0,0,0,0,0,0,0],"sum_hessian":[2.2564016E3,2.0623572E3,1.9404448E2,1.9795103E3,8.284687E1,4.5319272E2,1.5263175E3,2.669385E2,1.862542E2,5.8536475E2,9.409527E2],"tree_param":{"num_deleted":"0","num_feature":"11","num_nodes":"11","size_leaf_vector":"1"}},{"base_weights":[2.6625795E-3,-9.221406E-2,5.2325554E-2,-1.3834934E-1,5.215716E-2,-2.9697293E-1,1.4384222E-1,-4.304804E-2,-9.347822E-3,-2.2571487E-2,1.2968409E-2],"categories":[],"categories_nodes":[],"categories_segments":[],"categories_sizes":[],"default_left":[0,0,0,0,0,0,0,0,0,0,0],"id":46,"left_children":[1,3,-1,5,-1,7,9,-1,-1,-1,-1],"loss_changes":[2.2121979E2,1.0739917E2,0E0,8.815967E1,0E0,7.8051346E1,4.8877434E1,0E0,0E0,0E0,0E0],"parents":[2147483647,0,0,1,1,3,3,5,5,6,6],"right_children":[2,4,-1,6,-1,8,10,-1,-1,-1,-1],"split_conditions":[1.8181819E-1,1.8181819E-1,5.2325554E-2,2.3809524E-2,5.215716E-2,1.0883278E-1,7.865204E-2,-4.304804E-2,-9.347822E-3,-2.2571487E-2,1.2968409E-2],"split_indices":[0,1,0,2,0,4,4,0,0,0,0],"split_type":[0,0,0,0,0,0,0,0,0,0,0],"sum_hessian":[2.2317378E3,2.0466289E3,1.8510892E2,1.9675554E3,7.907353E1,1.2595138E3,7.080416E2,2.0447401E2,1.0550398E3,1.14605415E2,5.934362E2],"tree_param":{"num_deleted":"0","num_feature":"11","num_nodes":"11","size_leaf_vector":"1"}},{"base_weights":[2.6370862E-3,-8.832044E-2,5.2179724E-2,-1.3235603E-1,5.1984835E-2,-5.6092405E-1,-3.0794755E-2,-7.103311E-4,-3.5813227E-2,-1.9809451E-2,9.103383E-3],"categories":[],"categories_nodes":[],"categories_segments":[],"categories_sizes":[],"default_left":[0,0,0,0,0,0,0,0,0,0,0],"id":47,"left_children":[1,3,-1,5,-1,7,9,-1,-1,-1,-1],"loss_changes":[2.0921918E2,1.01080154E2,0E0,8.514909E1,0E0,3.182058E1,1.23186646E2,0E0,0E0,0E0,0E0],"parents":[2147483647,0,0,1,1,3,3,5,5,6,6],"right_children":[2,4,-1,6,-1,8,10,-1,-1,-1,-1],"split_conditions":[1.8181819E-1,1.8181819E-1,5.2179724E-2,-1.8181819E-1,5.1984835E-2,-8E-1,1.5299542E-1,-7.103311E-4,-3.5813227E-2,-1.9809451E-2,9.103383E-3],"split_indices":[0,1,0,2,0,5,4,0,0,0,0],"split_type":[0,0,0,0,0,0,0,0,0,0,0],"sum_hessian":[2.207709E3,2.0311453E3,1.765637E2,1.9556819E3,7.546335E1,3.737997E2,1.5818822E3,8.2950096E1,2.908496E2,5.819906E2,9.9989166E2],"tree_param":{"num_deleted":"0","num_feature":"11","num_nodes":"11","size_leaf_vector":"1"}},{"base_weights":[2.621219E-3,-2.1364185E-1,4.2746586E-1,-3.9743394E-1,8.856162E-2,2.4424946E-1,5.2040365E-2,-5.427081E-1,4.5585524E-2,-4.8925397E-1,4.1212413E-1,-2.9142267E-1,3.7778825E-1,-4.5240995E-2,-2.1782873E-2,-1.9923353E-3,4.9629867E-2,-5.6759357E-2,-1.1290046E-2,-3.2641854E-2,2.795786E-2,-3.7512362E-2,5.7190713E-3,-6.461855E-3,2.732784E-2],"categories":[],"categories_nodes":[],"categories_segments":[],"categories_sizes":[],"default_left":[0,0,0,0,0,0,0,0,0,0,0,0,0,0,0,0,0,0,0,0,0,0,0,0,0],"id":48,"left_children":[1,3,5,7,9,11,-1,13,15,17,19,21,23,-1,-1,-1,-1,-1,-1,-1,-1,-1,-1,-1,-1],"loss_changes":[2.0095416E2,8.053823E1,8.265471E1,5.804132E1,1.0283188E2,4.084098E1,0E0,2.5923706E1,1.8124136E1,3.3354305E1,5.5550976E1,2.13465E1,3.910878E1,0E0,0E0,0E0,0E0,0E0,0E0,0E0,0E0,0E0,0E0,0E0,0E0],"parents":[2147483647,0,0,1,1,2,2,3,3,4,4,5,5,7,7,8,8,9,9,10,10,11,11,12,12],"right_children":[2,4,6,8,10,12,-1,14,16,18,20,22,24,-1,-1,-1,-1,-1,-1,-1,-1,-1,-1,-1,-1],"split_conditions":[2.8571429E-2,2.682011E-1,1.8181819E-1,1.923077E-2,-2.6666668E-1,9.489803E-2,5.2040365E-2,-1.724138E-1,1.8181819E-1,2.0571428E2,-2.7272728E-1,6.122449E-2,-4E-2,-4.5240995E-2,-2.1782873E-2,-1.9923353E-3,4.9629867E-2,-5.6759357E-2,-1.1290046E-2,-3.2641854E-2,2.795786E-2,-3.7512362E-2,5.7190713E-3,-6.461855E-3,2.732784E-2],"split_indices":[0,4,0,1,0,4,0,1,1,6,2,2,2,0,0,0,0,0,0,0,0,0,0,0,0],"split_type":[0,0,0,0,0,0,0,0,0,0,0,0,0,0,0,0,0,0,0,0,0,0,0,0,0],"sum_hessian":[2.1851858E3,1.4483926E3,7.3679315E2,9.0044867E2,5.479439E2,5.6839984E2,1.683933E2,6.7792096E2,2.2252773E2,1.9650845E2,3.5143546E2,1.13186356E2,4.552135E2,1.5298352E2,5.2493744E2,2.0499275E2,1.753497E1,5.5970734E1,1.405377E2,4.2217056E1,3.0921838E2,5.272442E1,6.0461933E1,1.1374065E2,3.4147287E2],"tree_param":{"num_deleted":"0","num_feature":"11","num_nodes":"25","size_leaf_vector":"1"}},{"base_weights":[2.4909468E-3,-8.10965E-2,5.1907033E-2,-4.461749E-1,4.5887217E-2,8.4274046E-2,-6.87735E-1,-3.81724E-1,2.806524E-1,-4.2691748E-3,5.550014E-2,-4.6105247E-2,-2.0900879E-2,-2.9608915E-2,3.5113413E-3,-1.8293116E-2,2.1687917E-2],"categories":[],"categories_nodes":[],"categories_segments":[],"categories_sizes":[],"default_left":[0,0,0,0,0,0,0,0,0,0,0,0,0,0,0,0,0],"id":49,"left_children":[1,3,-1,5,7,9,11,13,15,-1,-1,-1,-1,-1,-1,-1,-1],"loss_changes":[1.8729865E2,9.283406E1,0E0,6.627242E1,1.493149E2,2.8387756E1,2.2066254E1,5.0187523E1,9.519382E1,0E0,0E0,0E0,0E0,0E0,0E0,0E0,0E0],"parents":[2147483647,0,0,1,1,3,3,4,4,5,5,6,6,7,7,8,8],"right_children":[2,4,-1,6,8,10,12,14,16,-1,-1,-1,-1,-1,-1,-1,-1],"split_conditions":[1.8181819E-1,-1.6E-1,5.1907033E-2,-6.5E-1,1.403761E-1,4.6266192E-1,3.0310085E-1,8.108108E-2,-1.4285715E-1,-4.2691748E-3,5.550014E-2,-4.6105247E-2,-2.0900879E-2,-2.9608915E-2,3.5113413E-3,-1.8293116E-2,2.1687917E-2],"split_indices":[0,0,0,5,4,4,4,2,1,0,0,0,0,0,0,0,0],"split_type":[0,0,0,0,0,0,0,0,0,0,0,0,0,0,0,0,0],"sum_hessian":[2.161646E3,2.0010618E3,1.605843E2,5.1575415E2,1.4853076E3,1.615822E2,3.5417194E2,5.2621375E2,9.590939E2,1.3943597E2,2.2146225E1,1.8820935E2,1.6596259E2,3.588174E2,1.673963E2,1.8337473E2,7.757192E2],"tree_param":{"num_deleted":"0","num_feature":"11","num_nodes":"17","size_leaf_vector":"1"}},{"base_weights":[2.3722115E-3,-7.775023E-2,5.17793E-2,-1.1842422E-1,5.1688533E-2,-2.4455656E-1,1.8746158E-1,-3.9694533E-2,-5.829031E-3,-2.3583531E-2,2.2661505E-2],"categories":[],"categories_nodes":[],"categories_segments":[],"categories_sizes":[],"default_left":[0,0,0,0,0,0,0,0,0,0,0],"id":50,"left_children":[1,3,-1,5,-1,7,9,-1,-1,-1,-1],"loss_changes":[1.7728902E2,8.997734E1,0E0,7.405543E1,0E0,9.542059E1,9.842053E1,0E0,0E0,0E0,0E0],"parents":[2147483647,0,0,1,1,3,3,5,5,6,6],"right_children":[2,4,-1,6,-1,8,10,-1,-1,-1,-1],"split_conditions":[1.8181819E-1,1.8181819E-1,5.17793E-2,2.856743E-1,5.1688533E-2,-1.388889E-1,-2.820513E-1,-3.9694533E-2,-5.829031E-3,-2.3583531E-2,2.2661505E-2],"split_indices":[0,1,0,4,0,1,0,0,0,0,0],"split_type":[0,0,0,0,0,0,0,0,0,0,0],"sum_hessian":[2.139623E3,1.9865009E3,1.5312207E2,1.9172367E3,6.9264175E1,1.3576208E3,5.596159E2,2.5553569E2,1.1020851E3,1.6058195E2,3.9903394E2],"tree_param":{"num_deleted":"0","num_feature":"11","num_nodes":"11","size_leaf_vector":"1"}},{"base_weights":[2.364E-3,-7.434351E-2,5.165678E-2,-1.13130696E-1,5.1532418E-2,-7.414447E-1,-5.1346604E-2,-4.138137E-2,4.374898E-2,-1.733708E-2,8.243331E-3],"categories":[],"categories_nodes":[],"categories_segments":[],"categories_sizes":[],"default_left":[0,0,0,0,0,0,0,0,0,0,0],"id":51,"left_children":[1,3,-1,5,-1,7,9,-1,-1,-1,-1],"loss_changes":[1.6780196E2,8.4776405E1,0E0,7.40768E1,0E0,2.4525627E1,1.11146286E2,0E0,0E0,0E0,0E0],"parents":[2147483647,0,0,1,1,3,3,5,5,6,6],"right_children":[2,4,-1,6,-1,8,10,-1,-1,-1,-1],"split_conditions":[1.8181819E-1,1.8181819E-1,5.165678E-2,6.6343024E-2,5.1532418E-2,1.25E-1,-8E-2,-4.138137E-2,4.374898E-2,-1.733708E-2,8.243331E-3],"split_indices":[0,1,0,4,0,1,0,0,0,0,0],"split_type":[0,0,0,0,0,0,0,0,0,0,0],"sum_hessian":[2.1202793E3,1.9742858E3,1.4599365E2,1.908202E3,6.608367E1,1.6985536E2,1.7383467E3,1.617209E2,8.134461E0,7.3439594E2,1.00395074E3],"tree_param":{"num_deleted":"0","num_feature":"11","num_nodes":"11","size_leaf_vector":"1"}},{"base_weights":[2.3558775E-3,-7.108173E-2,5.153909E-2,-1.4920437E-1,4.5735645E-1,-7.380173E-1,-7.518188E-2,-8.8543E-2,5.962845E-1,-4.1056447E-2,4.304733E-2,-1.7421646E-2,7.3276195E-3,2.9218381E-2,-1.5918817E-2,3.8625468E-2,1.1436057E-2],"categories":[],"categories_nodes":[],"categories_segments":[],"categories_sizes":[],"default_left":[0,0,0,0,0,0,0,0,0,0,0,0,0,0,0,0,0],"id":52,"left_children":[1,3,-1,5,7,9,11,13,15,-1,-1,-1,-1,-1,-1,-1,-1],"loss_changes":[1.588553E2,8.111454E1,0E0,7.452313E1,1.9247856E1,2.60859E1,9.221428E1,8.261542E0,1.28999405E1,0E0,0E0,0E0,0E0,0E0,0E0,0E0,0E0],"parents":[2147483647,0,0,1,1,3,3,4,4,5,5,6,6,7,7,8,8],"right_children":[2,4,-1,6,8,10,12,14,16,-1,-1,-1,-1,-1,-1,-1,-1],"split_conditions":[1.8181819E-1,1.7777778E-1,5.153909E-2,7.443415E-2,-8.571429E-2,1.3043478E-1,-7.692308E-2,1.2785714E3,1.7857142E3,-4.1056447E-2,4.304733E-2,-1.7421646E-2,7.3276195E-3,2.9218381E-2,-1.5918817E-2,3.8625468E-2,1.1436057E-2],"split_indices":[0,2,0,4,1,1,0,3,3,0,0,0,0,0,0,0,0],"split_type":[0,0,0,0,0,0,0,0,0,0,0,0,0,0,0,0,0],"sum_hessian":[2.1013733E3,1.9621887E3,1.3918465E2,1.7100918E3,2.5209694E2,1.8997362E2,1.5201182E3,5.1215416E1,2.0088153E2,1.8104942E2,8.924198E0,6.806981E2,8.3942004E2,1.2646416E1,3.8569E1,1.3503741E2,6.584412E1],"tree_param":{"num_deleted":"0","num_feature":"11","num_nodes":"17","size_leaf_vector":"1"}},{"base_weights":[2.3230284E-3,-6.798974E-2,5.1425885E-2,-1.04696654E-1,5.1348012E-2,-2.2730735E-1,1.9142915E-1,-3.1088112E-2,-3.0969183E-3,-2.5908334E-2,2.0267287E-2],"categories":[],"categories_nodes":[],"categories_segments":[],"categories_sizes":[],"default_left":[0,0,0,0,0,0,0,0,0,0,0],"id":53,"left_children":[1,3,-1,5,-1,7,9,-1,-1,-1,-1],"loss_changes":[1.5042403E2,7.852638E1,0E0,6.8619354E1,0E0,8.711845E1,8.424029E1,0E0,0E0,0E0,0E0],"parents":[2147483647,0,0,1,1,3,3,5,5,6,6],"right_children":[2,4,-1,6,-1,8,10,-1,-1,-1,-1],"split_conditions":[1.8181819E-1,1.8181819E-1,5.1425885E-2,2.856743E-1,5.1348012E-2,-7.692308E-2,-2.9032257E-1,-3.1088112E-2,-3.0969183E-3,-2.5908334E-2,2.0267287E-2],"split_indices":[0,1,0,4,0,1,1,0,0,0,0],"split_type":[0,0,0,0,0,0,0,0,0,0,0],"sum_hessian":[2.0827773E3,1.9500946E3,1.3268275E2,1.8877156E3,6.2379078E1,1.3351359E3,5.525797E2,3.9357678E2,9.41559E2,1.2766664E2,4.2491312E2],"tree_param":{"num_deleted":"0","num_feature":"11","num_nodes":"11","size_leaf_vector":"1"}},{"base_weights":[2.3097938E-3,-6.496508E-2,5.1316824E-2,-9.996146E-2,5.1202096E-2,-4.912984E-1,-9.862616E-3,-2.9738432E-2,1.8025769E-2,-2.1113712E-2,7.123004E-3],"categories":[],"categories_nodes":[],"categories_segments":[],"categories_sizes":[],"default_left":[0,0,0,0,0,0,0,0,0,0,0],"id":54,"left_children":[1,3,-1,5,-1,7,9,-1,-1,-1,-1],"loss_changes":[1.4245676E2,7.405378E1,0E0,6.631389E1,0E0,3.123729E1,9.616912E1,0E0,0E0,0E0,0E0],"parents":[2147483647,0,0,1,1,3,3,5,5,6,6],"right_children":[2,4,-1,6,-1,8,10,-1,-1,-1,-1],"split_conditions":[1.8181819E-1,1.8181819E-1,5.1316824E-2,-1.8181819E-1,5.1202096E-2,4.6963444E-1,1.23879194E-1,-2.9738432E-2,1.8025769E-2,-2.1113712E-2,7.123004E-3],"split_indices":[0,1,0,2,0,4,4,0,0,0,0],"split_type":[0,0,0,0,0,0,0,0,0,0,0],"sum_hessian":[2.0658818E3,1.9394064E3,1.2647548E2,1.879902E3,5.9504417E1,3.5098303E2,1.528919E3,3.1323587E2,3.7747158E1,4.1190897E2,1.11701E3],"tree_param":{"num_deleted":"0","num_feature":"11","num_nodes":"11","size_leaf_vector":"1"}},{"base_weights":[2.2921115E-3,-6.211377E-2,5.1211584E-2,-1.9043846E-1,2.2218652E-1,-5.1472074E-1,-7.6028295E-3,1.3686807E-1,5.106008E-2,-4.4604402E-2,-1.9983098E-2,-2.1731703E-2,1.0128821E-2,-4.4657942E-2,9.219218E-3],"categories":[],"categories_nodes":[],"categories_segments":[],"categories_sizes":[],"default_left":[0,0,0,0,0,0,0,0,0,0,0,0,0,0,0],"id":55,"left_children":[1,3,-1,5,7,9,11,13,-1,-1,-1,-1,-1,-1,-1],"loss_changes":[1.3494243E2,7.040626E1,0E0,7.881754E1,4.0781525E1,2.045398E1,7.647908E1,2.6766125E1,0E0,0E0,0E0,0E0,0E0,0E0,0E0],"parents":[2147483647,0,0,1,1,3,3,4,4,5,5,6,6,7,7],"right_children":[2,4,-1,6,8,10,12,14,-1,-1,-1,-1,-1,-1,-1],"split_conditions":[1.8181819E-1,1.5625E-2,5.1211584E-2,1.8546058E-1,1.8181819E-1,7.443415E-2,-2.1875E-1,4.489005E-2,5.106008E-2,-4.4604402E-2,-1.9983098E-2,-2.1731703E-2,1.0128821E-2,-4.4657942E-2,9.219218E-3],"split_indices":[0,1,0,4,1,4,1,4,0,0,0,0,0,0,0],"split_type":[0,0,0,0,0,0,0,0,0,0,0,0,0,0,0],"sum_hessian":[2.0482412E3,1.9276912E3,1.2055001E2,1.3284146E3,5.992766E2,4.7829037E2,8.5012415E2,5.4251807E2,5.6758526E1,1.1017792E2,3.6811246E2,2.8005505E2,5.700691E2,2.313857E1,5.193795E2],"tree_param":{"num_deleted":"0","num_feature":"11","num_nodes":"15","size_leaf_vector":"1"}},{"base_weights":[2.205774E-3,-5.948211E-2,5.110986E-2,-3.8372827E-1,5.1649366E-2,1.4423934E-1,-6.297244E-1,-1.658515E-1,4.012501E-1,-2.9978877E-2,1.7787296E-2,-4.3220486E-2,-1.8460631E-2,-1.4637917E-2,1.4361076E-2,-4.1723967E-2,2.4754113E-2],"categories":[],"categories_nodes":[],"categories_segments":[],"categories_sizes":[],"default_left":[0,0,0,0,0,0,0,0,0,0,0,0,0,0,0,0,0],"id":56,"left_children":[1,3,-1,5,7,9,11,13,15,-1,-1,-1,-1,-1,-1,-1,-1],"loss_changes":[1.2786752E2,6.9072624E1,0E0,6.3635826E1,1.0865401E2,2.4806192E1,2.0097656E1,5.0743477E1,6.395404E1,0E0,0E0,0E0,0E0,0E0,0E0,0E0,0E0],"parents":[2147483647,0,0,1,1,3,3,4,4,5,5,6,6,7,7,8,8],"right_children":[2,4,-1,6,8,10,12,14,16,-1,-1,-1,-1,-1,-1,-1,-1],"split_conditions":[1.8181819E-1,-1.6E-1,5.110986E-2,-6.5E-1,2.152313E-1,-3.125E-1,3.0310085E-1,1.25E-1,-2.7272728E-1,-2.9978877E-2,1.7787296E-2,-4.3220486E-2,-1.8460631E-2,-1.4637917E-2,1.4361076E-2,-4.1723967E-2,2.4754113E-2],"split_indices":[0,0,0,5,4,1,4,2,2,0,0,0,0,0,0,0,0],"split_type":[0,0,0,0,0,0,0,0,0,0,0,0,0,0,0,0,0],"sum_hessian":[2.0302214E3,1.9153264E3,1.14895004E2,4.8826685E2,1.4270596E3,1.5532188E2,3.3294495E2,8.8006244E2,5.4699713E2,3.3981712E1,1.2134017E2,1.7393512E2,1.5900984E2,6.877702E2,1.9229225E2,3.804658E1,5.0895056E2],"tree_param":{"num_deleted":"0","num_feature":"11","num_nodes":"17","size_leaf_vector":"1"}},{"base_weights":[2.087286E-3,-5.7767555E-2,5.11908E-2,-1.9605184E-1,2.4225724E-1,-4.3928164E-1,3.1066628E-2,1.6680758E-1,5.051596E-2,-4.2462174E-2,-1.44395325E-2,2.1787768E-2,-2.5687158E-2,-1.2327508E-2,1.4765796E-2],"categories":[],"categories_nodes":[],"categories_segments":[],"categories_sizes":[],"default_left":[0,0,0,0,0,0,0,0,0,0,0,0,0,0,0],"id":57,"left_children":[1,3,-1,5,7,9,11,13,-1,-1,-1,-1,-1,-1,-1],"loss_changes":[1.2320822E2,7.900943E1,0E0,7.2011246E1,3.465374E1,3.8585968E1,1.4902748E2,2.9201157E1,0E0,0E0,0E0,0E0,0E0,0E0,0E0],"parents":[2147483647,0,0,1,1,3,3,4,4,5,5,6,6,7,7],"right_children":[2,4,-1,6,8,10,12,14,-1,-1,-1,-1,-1,-1,-1],"split_conditions":[1.8181819E-1,1.25E-2,5.11908E-2,1.2E1,1.8181819E-1,-1.25E-1,1.3E1,-3.5714287E-2,5.051596E-2,-4.2462174E-2,-1.44395325E-2,2.1787768E-2,-2.5687158E-2,-1.2327508E-2,1.4765796E-2],"split_indices":[1,0,0,9,0,1,9,2,0,0,0,0,0,0,0],"split_type":[0,0,0,0,0,0,0,0,0,0,0,0,0,0,0],"sum_hessian":[2.012707E3,1.9022151E3,1.1049197E2,1.3023131E3,5.999019E2,6.284007E2,6.739124E2,5.4735077E2,5.2551167E1,1.6748938E2,4.609113E2,3.8679697E2,2.8711548E2,1.2959123E2,4.1775955E2],"tree_param":{"num_deleted":"0","num_feature":"11","num_nodes":"15","size_leaf_vector":"1"}},{"base_weights":[2.028174E-3,-5.523068E-2,5.1086556E-2,-1.875297E-1,2.311736E-1,-4.221399E-1,2.9443564E-2,1.5838961E-1,5.039859E-2,-2.4782307E-2,1.984787E-2,2.0569932E-2,-2.4693942E-2,-2.3147088E-2,1.1822642E-2],"categories":[],"categories_nodes":[],"categories_segments":[],"categories_sizes":[],"default_left":[0,0,0,0,0,0,0,0,0,0,0,0,0,0,0],"id":58,"left_children":[1,3,-1,5,7,9,11,13,-1,-1,-1,-1,-1,-1,-1],"loss_changes":[1.1675241E2,7.178424E1,0E0,6.596655E1,3.3689667E1,3.768216E1,1.3493866E2,2.6717855E1,0E0,0E0,0E0,0E0,0E0,0E0,0E0],"parents":[2147483647,0,0,1,1,3,3,4,4,5,5,6,6,7,7],"right_children":[2,4,-1,6,8,10,12,14,-1,-1,-1,-1,-1,-1,-1],"split_conditions":[1.8181819E-1,1.25E-2,5.1086556E-2,1.2E1,1.8181819E-1,2E-1,1.3E1,-1.2E-1,5.039859E-2,-2.4782307E-2,1.984787E-2,2.0569932E-2,-2.4693942E-2,-2.3147088E-2,1.1822642E-2],"split_indices":[1,0,0,9,0,2,9,2,0,0,0,0,0,0,0],"split_type":[0,0,0,0,0,0,0,0,0,0,0,0,0,0,0],"sum_hessian":[1.997663E3,1.8923486E3,1.0531425E2,1.2946533E3,5.976953E2,6.215905E2,6.730628E2,5.475913E2,5.0103996E1,5.7076465E2,5.082586E1,3.8920752E2,2.8385532E2,6.0569336E1,4.87022E2],"tree_param":{"num_deleted":"0","num_feature":"11","num_nodes":"15","size_leaf_vector":"1"}},{"base_weights":[1.9956266E-3,-5.2802075E-2,5.0985493E-2,-3.6575782E-1,5.9075918E-2,1.0886762E-1,-5.944825E-1,-3.766761E-1,2.3418112E-1,-1.3267404E-2,2.577971E-2,-3.6448214E-2,-8.413208E-3,-3.2638546E-2,2.3592648E-3,-2.3501126E-2,1.681165E-2],"categories":[],"categories_nodes":[],"categories_segments":[],"categories_sizes":[],"default_left":[0,0,0,0,0,0,0,0,0,0,0,0,0,0,0,0,0],"id":59,"left_children":[1,3,-1,5,7,9,11,13,15,-1,-1,-1,-1,-1,-1,-1,-1],"loss_changes":[1.10650475E2,6.5942696E1,0E0,5.3905113E1,1.05981575E2,2.4813124E1,1.9069344E1,4.6631233E1,7.134813E1,0E0,0E0,0E0,0E0,0E0,0E0,0E0,0E0],"parents":[2147483647,0,0,1,1,3,3,4,4,5,5,6,6,7,7,8,8],"right_children":[2,4,-1,6,8,10,12,14,16,-1,-1,-1,-1,-1,-1,-1,-1],"split_conditions":[1.8181819E-1,-1.5151516E-1,5.0985493E-2,-6.5E-1,1.23879194E-1,3.0513534E-1,3.76838E-1,6.666667E-2,-1.764706E-1,-1.3267404E-2,2.577971E-2,-3.6448214E-2,-8.413208E-3,-3.2638546E-2,2.3592648E-3,-2.3501126E-2,1.681165E-2],"split_indices":[1,0,0,5,4,4,4,2,2,0,0,0,0,0,0,0,0],"split_type":[0,0,0,0,0,0,0,0,0,0,0,0,0,0,0,0,0],"sum_hessian":[1.9821416E3,1.881768E3,1.0037361E2,4.9495724E2,1.3868107E3,1.6112715E2,3.338301E2,3.972061E2,9.896046E2,8.4098495E1,7.7028656E1,2.5322229E2,8.060782E1,2.4020277E2,1.570033E2,1.248029E2,8.6480176E2],"tree_param":{"num_deleted":"0","num_feature":"11","num_nodes":"17","size_leaf_vector":"1"}},{"base_weights":[1.8533559E-3,-5.0931063E-2,5.0765067E-2,-6.6318727E-1,1.9048114E-3,-7.638776E-1,8.118673E-1,-2.6222116E-1,1.8410458E-1,-4.157101E-2,2.0659529E-3,-8.925643E-3,5.783738E-2,-2.3822717E-2,2.5815787E-3,-2.3269335E-2,1.3643034E-2],"categories":[],"categories_nodes":[],"categories_segments":[],"categories_sizes":[],"default_left":[0,0,0,0,0,0,0,0,0,0,0,0,0,0,0,0,0],"id":60,"left_children":[1,3,-1,5,7,9,11,13,15,-1,-1,-1,-1,-1,-1,-1,-1],"loss_changes":[1.0524739E2,6.0496826E1,0E0,2.26856E1,8.29423E1,7.6258163E0,3.6146421E0,4.7331837E1,5.8922657E1,0E0,0E0,0E0,0E0,0E0,0E0,0E0,0E0],"parents":[2147483647,0,0,1,1,3,3,4,4,5,5,6,6,7,7,8,8],"right_children":[2,4,-1,6,8,10,12,14,16,-1,-1,-1,-1,-1,-1,-1,-1],"split_conditions":[1.8181819E-1,6.6343024E-2,5.0765067E-2,1.25E-1,-8E-2,1.7142858E-1,6.247143E2,3.0310085E-1,-1.5384616E-1,-4.157101E-2,2.0659529E-3,-8.925643E-3,5.783738E-2,-2.3822717E-2,2.5815787E-3,-2.3269335E-2,1.3643034E-2],"split_indices":[0,4,0,1,0,2,6,4,2,0,0,0,0,0,0,0,0],"split_type":[0,0,0,0,0,0,0,0,0,0,0,0,0,0,0,0,0],"sum_hessian":[1.9654851E3,1.8690853E3,9.639969E1,1.4756514E2,1.7215203E3,1.3858705E2,8.978102E0,7.025823E2,1.0189379E3,1.2783153E2,1.0755513E1,2.4435215E0,6.5345798E0,4.1725174E2,2.8533057E2,1.2199209E2,8.9694586E2],"tree_param":{"num_deleted":"0","num_feature":"11","num_nodes":"17","size_leaf_vector":"1"}},{"base_weights":[1.7594284E-3,-4.9514264E-2,5.0837975E-2,4.0848874E-2,-3.98168E-1,-2.0707074E-1,4.6467653E-1,-6.802385E-1,-4.179502E-2,-2.7007584E-2,6.417805E-4,-1.6382147E-2,3.1648085E-2,-4.0080648E-2,1.1886088E-2,-2.2251483E-2,1.3844571E-2],"categories":[],"categories_nodes":[],"categories_segments":[],"categories_sizes":[],"default_left":[0,0,0,0,0,0,0,0,0,0,0,0,0,0,0,0,0],"id":61,"left_children":[1,3,-1,5,7,9,11,13,15,-1,-1,-1,-1,-1,-1,-1,-1],"loss_changes":[1.017119E2,5.8630314E1,0E0,1.5544073E2,3.847452E1,6.8380554E1,7.300082E1,2.4004547E1,2.2006588E1,0E0,0E0,0E0,0E0,0E0,0E0,0E0,0E0],"parents":[2147483647,0,0,1,1,3,3,4,4,5,5,6,6,7,7,8,8],"right_children":[2,4,-1,6,8,10,12,14,16,-1,-1,-1,-1,-1,-1,-1,-1],"split_conditions":[1.8181819E-1,1.4E1,5.0837975E-2,1.2E1,1.6E1,-3.448276E-2,-2.9032257E-1,1.7142858E-1,-6.25E-2,-2.7007584E-2,6.417805E-4,-1.6382147E-2,3.1648085E-2,-4.0080648E-2,1.1886088E-2,-2.2251483E-2,1.3844571E-2],"split_indices":[1,9,0,9,9,1,1,2,0,0,0,0,0,0,0,0,0],"split_type":[0,0,0,0,0,0,0,0,0,0,0,0,0,0,0,0,0],"sum_hessian":[1.9524221E3,1.8594419E3,9.2980255E1,1.4774128E3,3.8202902E2,9.324715E2,5.4494135E2,2.1273766E2,1.6929138E2,3.7023666E2,5.6223486E2,9.53006E1,4.4964075E2,1.880059E2,2.4731747E1,7.455735E1,9.4734024E1],"tree_param":{"num_deleted":"0","num_feature":"11","num_nodes":"17","size_leaf_vector":"1"}},{"base_weights":[1.6574758E-3,-4.7595944E-2,5.0624967E-2,-5.622057E-1,1.20543055E-2,-7.2823656E-1,3.057679E-1,-1.627691E-1,3.1383312E-1,-5.9842557E-2,-2.6080117E-2,-3.4688294E-2,3.996722E-2,-2.8217142E-2,-1.995962E-3,-2.6021052E-2,2.1480544E-2],"categories":[],"categories_nodes":[],"categories_segments":[],"categories_sizes":[],"default_left":[0,0,0,0,0,0,0,0,0,0,0,0,0,0,0,0,0],"id":62,"left_children":[1,3,-1,5,7,9,11,13,15,-1,-1,-1,-1,-1,-1,-1,-1],"loss_changes":[9.667159E1,5.6841713E1,0E0,2.7941296E1,8.763797E1,1.5038643E1,1.6138847E1,5.1868866E1,5.907556E1,0E0,0E0,0E0,0E0,0E0,0E0,0E0,0E0],"parents":[2147483647,0,0,1,1,3,3,4,4,5,5,6,6,7,7,8,8],"right_children":[2,4,-1,6,8,10,12,14,16,-1,-1,-1,-1,-1,-1,-1,-1],"split_conditions":[1.8181819E-1,-2.5925925E-1,5.0624967E-2,4.6963444E-1,2.4327108E-1,2.757143E2,1.1E1,-7.692308E-2,-2.9032257E-1,-5.9842557E-2,-2.6080117E-2,-3.4688294E-2,3.996722E-2,-2.8217142E-2,-1.995962E-3,-2.6021052E-2,2.1480544E-2],"split_indices":[0,2,0,4,4,6,9,1,1,0,0,0,0,0,0,0,0],"split_type":[0,0,0,0,0,0,0,0,0,0,0,0,0,0,0,0,0],"sum_hessian":[1.9397192E3,1.850506E3,8.9213264E1,1.9134294E2,1.6591631E3,1.60754E2,3.0588934E1,1.0508539E3,6.083092E2,4.7726204E1,1.13027794E2,9.97769E0,2.0611244E1,2.4532793E2,8.0552594E2,7.3707016E1,5.3460223E2],"tree_param":{"num_deleted":"0","num_feature":"11","num_nodes":"17","size_leaf_vector":"1"}},{"base_weights":[1.533026E-3,-4.6318892E-2,5.069535E-2,-6.5330714E-1,4.614194E-3,-7.415186E-1,8.3345354E-1,-2.5981975E-1,1.8166868E-1,-4.0859826E-2,4.314544E-3,-2.7894659E-2,6.399658E-2,-2.911441E-2,-3.707189E-3,-2.1040458E-2,1.3157049E-2],"categories":[],"categories_nodes":[],"categories_segments":[],"categories_sizes":[],"default_left":[0,0,0,0,0,0,0,0,0,0,0,0,0,0,0,0,0],"id":63,"left_children":[1,3,-1,5,7,9,11,13,15,-1,-1,-1,-1,-1,-1,-1,-1],"loss_changes":[9.3461044E1,5.69565E1,0E0,1.932285E1,7.966757E1,8.538094E0,5.968747E0,4.081628E1,5.013719E1,0E0,0E0,0E0,0E0,0E0,0E0,0E0,0E0],"parents":[2147483647,0,0,1,1,3,3,4,4,5,5,6,6,7,7,8,8],"right_children":[2,4,-1,6,8,10,12,14,16,-1,-1,-1,-1,-1,-1,-1,-1],"split_conditions":[1.8181819E-1,6.6343024E-2,5.069535E-2,1.3043478E-1,-8E-2,1.7142858E-1,6.247143E2,3.7142856E2,-1.5384616E-1,-4.0859826E-2,4.314544E-3,-2.7894659E-2,6.399658E-2,-2.911441E-2,-3.707189E-3,-2.1040458E-2,1.3157049E-2],"split_indices":[1,4,0,1,0,2,6,6,2,0,0,0,0,0,0,0,0],"split_type":[0,0,0,0,0,0,0,0,0,0,0,0,0,0,0,0,0],"sum_hessian":[1.9272886E3,1.8412141E3,8.607449E1,1.4162233E2,1.6995918E3,1.3416348E2,7.458845E0,6.814167E2,1.01817505E3,1.2293742E2,1.1226053E1,1.751416E0,5.7074294E0,2.4820915E2,4.3320755E2,1.2078909E2,8.97386E2],"tree_param":{"num_deleted":"0","num_feature":"11","num_nodes":"17","size_leaf_vector":"1"}},{"base_weights":[1.4418045E-3,-4.4502303E-2,5.048986E-2,4.3632466E-2,-3.8786298E-1,-1.9340499E-1,4.425828E-1,-6.6468483E-1,-4.2673867E-2,-2.6198393E-2,8.2297745E-4,-1.5346998E-2,2.9810807E-2,-3.5874676E-2,5.652445E-2,-2.0200664E-2,1.2214831E-2],"categories":[],"categories_nodes":[],"categories_segments":[],"categories_sizes":[],"default_left":[0,0,0,0,0,0,0,0,0,0,0,0,0,0,0,0,0],"id":64,"left_children":[1,3,-1,5,7,9,11,13,15,-1,-1,-1,-1,-1,-1,-1,-1],"loss_changes":[8.881443E1,5.5504356E1,0E0,1.3814769E2,3.576831E1,6.3590256E1,6.287612E1,2.051323E1,1.749732E1,0E0,0E0,0E0,0E0,0E0,0E0,0E0,0E0],"parents":[2147483647,0,0,1,1,3,3,4,4,5,5,6,6,7,7,8,8],"right_children":[2,4,-1,6,8,10,12,14,16,-1,-1,-1,-1,-1,-1,-1,-1],"split_conditions":[1.8181819E-1,1.4E1,5.048986E-2,1.2E1,1.6E1,-3.448276E-2,-2.9032257E-1,1.7391305E-1,-6.25E-2,-2.6198393E-2,8.2297745E-4,-1.5346998E-2,2.9810807E-2,-3.5874676E-2,5.652445E-2,-2.0200664E-2,1.2214831E-2],"split_indices":[0,9,0,9,9,1,1,1,0,0,0,0,0,0,0,0,0],"split_type":[0,0,0,0,0,0,0,0,0,0,0,0,0,0,0,0,0],"sum_hessian":[1.9151094E3,1.8325673E3,8.254214E1,1.4589523E3,3.73615E2,9.155129E2,5.4343933E2,2.0682645E2,1.6678853E2,3.5494052E2,5.605724E2,9.22732E1,4.5116614E2,2.0149927E2,5.3271923E0,7.364741E1,9.314113E1],"tree_param":{"num_deleted":"0","num_feature":"11","num_nodes":"17","size_leaf_vector":"1"}},{"base_weights":[1.3877646E-3,-4.3085065E-2,5.0549384E-2,-6.376906E-1,5.579034E-3,-7.4867636E-1,5.1560384E-1,-3.1774613E-1,1.3648014E-1,-4.079486E-2,1.3519662E-3,7.055989E-2,5.3821276E-3,4.7723493E-3,-2.628147E-2,1.2621567E-2,-1.2883303E-2],"categories":[],"categories_nodes":[],"categories_segments":[],"categories_sizes":[],"default_left":[0,0,0,0,0,0,0,0,0,0,0,0,0,0,0,0,0],"id":65,"left_children":[1,3,-1,5,7,9,11,13,15,-1,-1,-1,-1,-1,-1,-1,-1],"loss_changes":[8.553835E1,5.2804333E1,0E0,1.8056686E1,7.1472694E1,6.6100616E0,4.4923754E0,4.1852985E1,5.499969E1,0E0,0E0,0E0,0E0,0E0,0E0,0E0,0E0],"parents":[2147483647,0,0,1,1,3,3,4,4,5,5,6,6,7,7,8,8],"right_children":[2,4,-1,6,8,10,12,14,16,-1,-1,-1,-1,-1,-1,-1,-1],"split_conditions":[1.8181819E-1,6.6343024E-2,5.0549384E-2,1.1111111E-1,-1.4705883E-1,1.7142858E-1,1.1571428E3,-6.5E-1,1.4E1,-4.079486E-2,1.3519662E-3,7.055989E-2,5.3821276E-3,4.7723493E-3,-2.628147E-2,1.2621567E-2,-1.2883303E-2],"split_indices":[1,4,0,1,0,2,3,5,9,0,0,0,0,0,0,0,0],"split_type":[0,0,0,0,0,0,0,0,0,0,0,0,0,0,0,0,0],"sum_hessian":[1.9031256E3,1.823747E3,7.937865E1,1.3705292E2,1.6866941E3,1.2534167E2,1.1711251E1,4.856682E2,1.2010259E3,1.1529849E2,1.0043171E1,2.8955436E0,8.815708E0,1.6274121E2,3.22927E2,9.2829626E2,2.727296E2],"tree_param":{"num_deleted":"0","num_feature":"11","num_nodes":"17","size_leaf_vector":"1"}},{"base_weights":[1.3272105E-3,-4.159225E-2,5.036226E-2,-5.598217E-1,1.0040325E-2,-7.450745E-1,2.9355535E-1,-1.3121739E-1,3.36795E-1,-5.7819195E-2,-2.853421E-2,-3.2471083E-2,3.753273E-2,-2.5855362E-2,-3.5984634E-5,-1.4658235E-2,2.4786938E-2],"categories":[],"categories_nodes":[],"categories_segments":[],"categories_sizes":[],"default_left":[0,0,0,0,0,0,0,0,0,0,0,0,0,0,0,0,0],"id":66,"left_children":[1,3,-1,5,7,9,11,13,15,-1,-1,-1,-1,-1,-1,-1,-1],"loss_changes":[8.176081E1,4.8605564E1,0E0,2.6238056E1,7.632837E1,9.06012E0,1.3450058E1,5.814323E1,5.0120644E1,0E0,0E0,0E0,0E0,0E0,0E0,0E0,0E0],"parents":[2147483647,0,0,1,1,3,3,4,4,5,5,6,6,7,7,8,8],"right_children":[2,4,-1,6,8,10,12,14,16,-1,-1,-1,-1,-1,-1,-1,-1],"split_conditions":[1.8181819E-1,-2.7272728E-1,5.036226E-2,4.6963444E-1,2.6923755E-1,2.757143E2,1.1E1,-7.692308E-2,-2.638889E-1,-5.7819195E-2,-2.853421E-2,-3.2471083E-2,3.753273E-2,-2.5855362E-2,-3.5984634E-5,-1.4658235E-2,2.4786938E-2],"split_indices":[0,2,0,4,4,6,9,1,0,0,0,0,0,0,0,0,0],"split_type":[0,0,0,0,0,0,0,0,0,0,0,0,0,0,0,0,0],"sum_hessian":[1.8918047E3,1.8153096E3,7.6495094E1,1.6358507E2,1.6517245E3,1.3451187E2,2.9073193E1,1.153611E3,4.9811353E2,3.8373894E1,9.613798E1,9.354498E0,1.9718695E1,2.907835E2,8.628275E2,1.0018691E2,3.979266E2],"tree_param":{"num_deleted":"0","num_feature":"11","num_nodes":"17","size_leaf_vector":"1"}},{"base_weights":[1.2318975E-3,-4.0302336E-2,5.041809E-2,-5.5381596E-1,1.2875982E-2,-6.665195E-1,8.2514113E-1,-2.304154E-1,1.7803676E-1,-3.815852E-2,4.9188244E-3,6.36883E-2,-2.1948535E-3,-2.1707311E-2,3.0191669E-3,1.4789787E-2,-9.806254E-3],"categories":[],"categories_nodes":[],"categories_segments":[],"categories_sizes":[],"default_left":[0,0,0,0,0,0,0,0,0,0,0,0,0,0,0,0,0],"id":67,"left_children":[1,3,-1,5,7,9,11,13,15,-1,-1,-1,-1,-1,-1,-1,-1],"loss_changes":[7.8722115E1,4.936399E1,0E0,2.6912983E1,6.589146E1,1.1708977E1,5.2269735E0,3.9311104E1,4.3092323E1,0E0,0E0,0E0,0E0,0E0,0E0,0E0,0E0],"parents":[2147483647,0,0,1,1,3,3,4,4,5,5,6,6,7,7,8,8],"right_children":[2,4,-1,6,8,10,12,14,16,-1,-1,-1,-1,-1,-1,-1,-1],"split_conditions":[1.8181819E-1,7.443415E-2,5.041809E-2,1.3043478E-1,-8E-2,1.5E-1,7E0,3.0310085E-1,1.4E1,-3.815852E-2,4.9188244E-3,6.36883E-2,-2.1948535E-3,-2.1707311E-2,3.0191669E-3,1.4789787E-2,-9.806254E-3],"split_indices":[1,4,0,1,0,2,8,4,9,0,0,0,0,0,0,0,0],"split_type":[0,0,0,0,0,0,0,0,0,0,0,0,0,0,0,0,0],"sum_hessian":[1.8799653E3,1.8064279E3,7.353745E1,1.6863158E2,1.6377963E3,1.563681E2,1.226347E1,6.6209576E2,9.757005E2,1.3882826E2,1.7539845E1,7.7809687E0,4.482501E0,3.8904303E2,2.7305276E2,7.422907E2,2.3340976E2],"tree_param":{"num_deleted":"0","num_feature":"11","num_nodes":"17","size_leaf_vector":"1"}},{"base_weights":[1.1829387E-3,-3.8900726E-2,5.023662E-2,-6.037278E-1,5.518837E-3,-7.22137E-1,4.966705E-1,-3.369372E-1,1.0848889E-1,2.3950327E-2,-3.8260352E-2,6.5120034E-2,6.541326E-3,-3.466774E-2,8.903402E-4,1.0629035E-2,-1.2506301E-2],"categories":[],"categories_nodes":[],"categories_segments":[],"categories_sizes":[],"default_left":[0,0,0,0,0,0,0,0,0,0,0,0,0,0,0,0,0],"id":68,"left_children":[1,3,-1,5,7,9,11,13,15,-1,-1,-1,-1,-1,-1,-1,-1],"loss_changes":[7.5235664E1,4.5127075E1,0E0,1.74455E1,5.886826E1,6.5126953E0,3.759715E0,4.880781E1,4.796314E1,0E0,0E0,0E0,0E0,0E0,0E0,0E0,0E0],"parents":[2147483647,0,0,1,1,3,3,4,4,5,5,6,6,7,7,8,8],"right_children":[2,4,-1,6,8,10,12,14,16,-1,-1,-1,-1,-1,-1,-1,-1],"split_conditions":[1.8181819E-1,6.6343024E-2,5.023662E-2,1.1111111E-1,-1.6666667E-1,1E0,1.2E3,3.0310085E-1,1.4E1,2.3950327E-2,-3.8260352E-2,6.5120034E-2,6.541326E-3,-3.466774E-2,8.903402E-4,1.0629035E-2,-1.2506301E-2],"split_indices":[0,4,0,1,1,9,3,4,9,0,0,0,0,0,0,0,0],"split_type":[0,0,0,0,0,0,0,0,0,0,0,0,0,0,0,0,0],"sum_hessian":[1.8683553E3,1.7975203E3,7.083512E1,1.3013737E2,1.6673829E3,1.17804665E2,1.2332709E1,3.84927E2,1.2824559E3,3.727583E0,1.1407708E2,3.0516984E0,9.281011E0,1.9153442E2,1.933926E2,9.942666E2,2.881893E2],"tree_param":{"num_deleted":"0","num_feature":"11","num_nodes":"17","size_leaf_vector":"1"}},{"base_weights":[1.1343501E-3,-3.768943E-2,5.029219E-2,-5.4158413E-1,1.187617E-2,-7.2096324E-1,2.6344204E-1,-1.4636977E-1,2.763237E-1,-5.696332E-2,-2.7307982E-2,-3.252722E-2,3.477588E-2,-3.0403158E-2,-2.8573067E-3,-1.6658824E-2,2.0421442E-2],"categories":[],"categories_nodes":[],"categories_segments":[],"categories_sizes":[],"default_left":[0,0,0,0,0,0,0,0,0,0,0,0,0,0,0,0,0],"id":69,"left_children":[1,3,-1,5,7,9,11,13,15,-1,-1,-1,-1,-1,-1,-1,-1],"loss_changes":[7.2577446E1,4.4749382E1,0E0,2.336058E1,6.8335686E1,8.992096E0,1.22882805E1,4.205185E1,4.935871E1,0E0,0E0,0E0,0E0,0E0,0E0,0E0,0E0],"parents":[2147483647,0,0,1,1,3,3,4,4,5,5,6,6,7,7,8,8],"right_children":[2,4,-1,6,8,10,12,14,16,-1,-1,-1,-1,-1,-1,-1,-1],"split_conditions":[1.8181819E-1,-2.7272728E-1,5.029219E-2,4.6963444E-1,2.4327108E-1,2.757143E2,1.1E1,-1.2E-1,-2.638889E-1,-5.696332E-2,-2.7307982E-2,-3.252722E-2,3.477588E-2,-3.0403158E-2,-2.8573067E-3,-1.6658824E-2,2.0421442E-2],"split_indices":[1,2,0,4,4,6,9,0,0,0,0,0,0,0,0,0,0],"split_type":[0,0,0,0,0,0,0,0,0,0,0,0,0,0,0,0,0],"sum_hessian":[1.8586729E3,1.7904491E3,6.822369E1,1.5945616E2,1.6309929E3,1.3048534E2,2.8970827E1,1.02066907E3,6.103239E2,3.683122E1,9.365412E1,9.13711E0,1.9833717E1,1.6436046E2,8.563086E2,1.08448296E2,5.018756E2],"tree_param":{"num_deleted":"0","num_feature":"11","num_nodes":"17","size_leaf_vector":"1"}},{"base_weights":[1.0342643E-3,-3.636849E-2,5.011343E-2,-4.192035E-1,2.641554E-2,-6.6896874E-1,4.711281E-2,-3.167154E-1,1.3873678E-1,-3.581884E-2,4.1248305E-3,-1.2572606E-2,3.0071352E-2,-3.3253685E-2,9.873752E-4,1.2581422E-2,-1.1135828E-2],"categories":[],"categories_nodes":[],"categories_segments":[],"categories_sizes":[],"default_left":[0,0,0,0,0,0,0,0,0,0,0,0,0,0,0,0,0],"id":70,"left_children":[1,3,-1,5,7,9,11,13,15,-1,-1,-1,-1,-1,-1,-1,-1],"loss_changes":[6.925565E1,4.2861504E1,0E0,2.9292908E1,5.9109013E1,5.890007E0,1.4808466E1,4.434758E1,4.7197342E1,0E0,0E0,0E0,0E0,0E0,0E0,0E0,0E0],"parents":[2147483647,0,0,1,1,3,3,4,4,5,5,6,6,7,7,8,8],"right_children":[2,4,-1,6,8,10,12,14,16,-1,-1,-1,-1,-1,-1,-1,-1],"split_conditions":[1.8181819E-1,9.200956E-2,5.011343E-2,8.3333336E-2,-1.6666667E-1,1.2E-1,9.375E-2,3.0310085E-1,1.3E1,-3.581884E-2,4.1248305E-3,-1.2572606E-2,3.0071352E-2,-3.3253685E-2,9.873752E-4,1.2581422E-2,-1.1135828E-2],"split_indices":[0,4,0,2,1,1,1,4,9,0,0,0,0,0,0,0,0],"split_type":[0,0,0,0,0,0,0,0,0,0,0,0,0,0,0,0,0],"sum_hessian":[1.8473633E3,1.7817661E3,6.559713E1,2.5023625E2,1.5315299E3,1.6267224E2,8.756401E1,3.7724915E2,1.1542808E3,1.5306259E2,9.609641E0,5.726584E1,3.0298172E1,1.848683E2,