{"learner":{"attributes":{"scikit_learn":"{\"_estimator_type\": \"classifier\"}"},"feature_names":["ret_1","ret_3","ret_7","ma_7","vol_14","arrival_3pct","arrival_7mean","arrival_spike","month","district_code","rain_anomaly_30d"],"feature_types":["float","float","float","float","float","float","float","float","float","int","int"],"gradient_booster":{"model":{"cats":{"enc":[],"feature_segments":[],"sorted_idx":[]},"gbtree_model_param":{"num_parallel_tree":"1","num_trees":"300"},"iteration_indptr":[0,1,2,3,4,5,6,7,8,9,10,11,12,13,14,15,16,17,18,19,20,21,22,23,24,25,26,27,28,29,30,31,32,33,34,35,36,37,38,39,40,41,42,43,44,45,46,47,48,49,50,51,52,53,54,55,56,57,58,59,60,61,62,63,64,65,66,67,68,69,70,71,72,73,74,75,76,77,78,79,80,81,82,83,84,85,86,87,88,89,90,91,92,93,94,95,96,97,98,99,100,101,102,103,104,105,106,107,108,109,110,111,112,113,114,115,116,117,118,119,120,121,122,123,124,125,126,127,128,129,130,131,132,133,134,135,136,137,138,139,140,141,142,143,144,145,146,147,148,149,150,151,152,153,154,155,156,157,158,159,160,161,162,163,164,165,166,167,168,169,170,171,172,173,174,175,176,177,178,179,180,181,182,183,184,185,186,187,188,189,190,191,192,193,194,195,196,197,198,199,200,201,202,203,204,205,206,207,208,209,210,211,212,213,214,215,216,217,218,219,220,221,222,223,224,225,226,227,228,229,230,231,232,233,234,235,236,237,238,239,240,241,242,243,244,245,246,247,248,249,250,251,252,253,254,255,256,257,258,259,260,261,262,263,264,265,266,267,268,269,270,271,272,273,274,275,276,277,278,279,280,281,282,283,284,285,286,287,288,289,290,291,292,293,294,295,296,297,298,299,300],"tree_info":[0,0,0,0,0,0,0,0,0,0,0,0,0,0,0,0,0,0,0,0,0,0,0,0,0,0,0,0,0,0,0,0,0,0,0,0,0,0,0,0,0,0,0,0,0,0,0,0,0,0,0,0,0,0,0,0,0,0,0,0,0,0,0,0,0,0,0,0,0,0,0,0,0,0,0,0,0,0,0,0,0,0,0,0,0,0,0,0,0,0,0,0,0,0,0,0,0,0,0,0,0,0,0,0,0,0,0,0,0,0,0,0,0,0,0,0,0,0,0,0,0,0,0,0,0,0,0,0,0,0,0,0,0,0,0,0,0,0,0,0,0,0,0,0,0,0,0,0,0,0,0,0,0,0,0,0,0,0,0,0,0,0,0,0,0,0,0,0,0,0,0,0,0,0,0,0,0,0,0,0,0,0,0,0,0,0,0,0,0,0,0,0,0,0,0,0,0,0,0,0,0,0,0,0,0,0,0,0,0,0,0,0,0,0,0,0,0,0,0,0,0,0,0,0,0,0,0,0,0,0,0,0,0,0,0,0,0,0,0,0,0,0,0,0,0,0,0,0,0,0,0,0,0,0,0,0,0,0,0,0,0,0,0,0,0,0,0,0,0,0,0,0,0,0,0,0,0,0,0,0,0,0,0,0,0,0,0,0,0,0,0,0,0,0,0,0,0,0,0,0],"trees":[{"base_weights":[2.4920613E-8,-6.899383E-1,1.7908624E0,-9.445994E-1,9.9271774E-2,7.899466E-1,9.980132E-2,-1.1909884E0,7.8217335E-2,2.1842718E-1,1.4895502E0,-6.489004E-2,-3.303146E-2,-1.6220296E-2,2.3039265E-2,-5.318734E-3,9.008724E-2,1.4643422E-2,7.752945E-2],"categories":[],"categories_nodes":[],"categories_segments":[],"categories_sizes":[],"default_left":[0,0,0,0,0,0,0,0,0,0,0,0,0,0,0,0,0,0,0],"id":0,"left_children":[1,3,5,7,-1,9,-1,11,13,15,17,-1,-1,-1,-1,-1,-1,-1,-1],"loss_changes":[2.697899E3,1.075792E3,1.2312427E2,3.6296985E2,0E0,4.163916E1,0E0,6.48811E1,4.33503E1,3.0500708E1,2.9802094E0,0E0,0E0,0E0,0E0,0E0,0E0,0E0,0E0],"parents":[2147483647,0,0,1,1,2,2,3,3,5,5,7,7,8,8,9,9,10,10],"right_children":[2,4,6,8,-1,10,-1,12,14,16,18,-1,-1,-1,-1,-1,-1,-1,-1],"split_conditions":[1.2727273E-1,1.7819326E-1,1.798825E-1,1.3236585E-1,9.9271774E-2,1.7894666E-1,9.980132E-2,2.2191522E-3,2.777778E-1,1.7819326E-1,-2.2727273E-1,-6.489004E-2,-3.303146E-2,-1.6220296E-2,2.3039265E-2,-5.318734E-3,9.008724E-2,1.4643422E-2,7.752945E-2],"split_indices":[1,0,1,2,0,2,0,1,2,0,0,0,0,0,0,0,0,0,0],"split_type":[0,0,0,0,0,0,0,0,0,0,0,0,0,0,0,0,0,0,0],"sum_hessian":[2.1815E3,1.5752444E3,6.062557E2,1.4389242E3,1.3632008E2,1.0395405E2,5.0230167E2,1.1594554E3,2.7946875E2,5.7936687E1,4.601736E1,9.6388544E2,1.9557004E2,1.3623936E2,1.4322939E2,4.8848682E1,9.088006E0,2.5146675E0,4.3502693E1],"tree_param":{"num_deleted":"0","num_feature":"11","num_nodes":"19","size_leaf_vector":"1"}},{"base_weights":[1.4564785E-4,-6.5603876E-1,1.7055907E0,-8.981314E-1,9.457933E-2,7.5276047E-1,9.506114E-2,-1.1325845E0,7.433865E-2,2.0902002E-1,1.4190441E0,-6.1714895E-2,-3.139695E-2,-1.5416205E-2,2.1898229E-2,-5.05817E-3,8.618946E-2,1.412012E-2,7.3850356E-2],"categories":[],"categories_nodes":[],"categories_segments":[],"categories_sizes":[],"default_left":[0,0,0,0,0,0,0,0,0,0,0,0,0,0,0,0,0,0,0],"id":1,"left_children":[1,3,5,7,-1,9,-1,11,13,15,17,-1,-1,-1,-1,-1,-1,-1,-1],"loss_changes":[2.4404329E3,9.72983E2,1.1151526E2,3.2813525E2,0E0,3.7696213E1,0E0,5.8735474E1,3.9157276E1,2.7857336E1,2.6762238E0,0E0,0E0,0E0,0E0,0E0,0E0,0E0,0E0],"parents":[2147483647,0,0,1,1,2,2,3,3,5,5,7,7,8,8,9,9,10,10],"right_children":[2,4,6,8,-1,10,-1,12,14,16,18,-1,-1,-1,-1,-1,-1,-1,-1],"split_conditions":[1.2727273E-1,1.7819326E-1,1.798825E-1,1.3236585E-1,9.457933E-2,1.7894666E-1,9.506114E-2,2.2191522E-3,2.777778E-1,1.7819326E-1,-2.2727273E-1,-6.1714895E-2,-3.139695E-2,-1.5416205E-2,2.1898229E-2,-5.05817E-3,8.618946E-2,1.412012E-2,7.3850356E-2],"split_indices":[1,0,1,2,0,2,0,1,2,0,0,0,0,0,0,0,0,0,0],"split_type":[0,0,0,0,0,0,0,0,0,0,0,0,0,0,0,0,0,0,0],"sum_hessian":[2.1787366E3,1.5738137E3,6.049228E2,1.437829E3,1.3598477E2,1.0386984E2,5.0105298E2,1.1583882E3,2.794408E2,5.7917923E1,4.595192E1,9.6287146E2,1.955167E2,1.3623041E2,1.4321039E2,4.884833E1,9.0695915E0,2.5145328E0,4.3437386E1],"tree_param":{"num_deleted":"0","num_feature":"11","num_nodes":"19","size_leaf_vector":"1"}},{"base_weights":[3.1753222E-4,-6.2484586E-1,1.6310341E0,-8.551629E-1,9.051875E-2,7.184292E-1,9.096457E-2,-1.078885E0,7.066575E-2,2.0015915E-1,1.3553872E0,-6.176688E-2,-3.8611393E-2,-9.424289E-3,2.9122261E-2,-4.810434E-3,8.2743675E-2,1.3616522E-2,7.053816E-2],"categories":[],"categories_nodes":[],"categories_segments":[],"categories_sizes":[],"default_left":[0,0,0,0,0,0,0,0,0,0,0,0,0,0,0,0,0,0,0],"id":2,"left_children":[1,3,5,7,-1,9,-1,11,13,15,17,-1,-1,-1,-1,-1,-1,-1,-1],"loss_changes":[2.2153032E3,8.8257294E2,1.021532E2,2.974635E2,0E0,3.4269985E1,0E0,5.4526978E1,3.7293808E1,2.5537771E1,2.4207687E0,0E0,0E0,0E0,0E0,0E0,0E0,0E0,0E0],"parents":[2147483647,0,0,1,1,2,2,3,3,5,5,7,7,8,8,9,9,10,10],"right_children":[2,4,6,8,-1,10,-1,12,14,16,18,-1,-1,-1,-1,-1,-1,-1,-1],"split_conditions":[1.2727273E-1,1.7819326E-1,1.798825E-1,1.3236585E-1,9.051875E-2,1.7894666E-1,9.096457E-2,-5.1304396E-2,1.3333334E-2,1.7819326E-1,-2.2727273E-1,-6.176688E-2,-3.8611393E-2,-9.424289E-3,2.9122261E-2,-4.810434E-3,8.2743675E-2,1.3616522E-2,7.053816E-2],"split_indices":[1,0,1,2,0,2,0,1,1,0,0,0,0,0,0,0,0,0,0],"split_type":[0,0,0,0,0,0,0,0,0,0,0,0,0,0,0,0,0,0,0],"sum_hessian":[2.1710073E3,1.5698103E3,6.011971E2,1.434763E3,1.350474E2,1.036337E2,4.9756342E2,1.1554005E3,2.793624E2,5.786514E1,4.5768562E1,7.630656E2,3.923349E2,1.8587297E2,9.3489426E1,4.8847366E1,9.017771E0,2.5141475E0,4.3254414E1],"tree_param":{"num_deleted":"0","num_feature":"11","num_nodes":"19","size_leaf_vector":"1"}},{"base_weights":[5.091076E-4,-5.959286E-1,1.5652466E0,-8.1515574E-1,8.697342E-2,6.86575E-1,8.739207E-2,-1.0076579E0,1.7092551E-1,1.9179526E-1,1.2974845E0,-5.579893E-2,-2.5034178E-2,-2.6350652E-3,3.0606259E-2,-4.574884E-3,7.96754E-2,4.8090205E-2,7.728031E-2],"categories":[],"categories_nodes":[],"categories_segments":[],"categories_sizes":[],"default_left":[0,0,0,0,0,0,0,0,0,0,0,0,0,0,0,0,0,0,0],"id":3,"left_children":[1,3,5,7,-1,9,-1,11,13,15,17,-1,-1,-1,-1,-1,-1,-1,-1],"loss_changes":[2.016994E3,8.0255133E2,9.449475E1,2.7184015E2,0E0,3.1267822E1,0E0,6.520593E1,2.3180069E1,2.3488306E1,2.385147E0,0E0,0E0,0E0,0E0,0E0,0E0,0E0,0E0],"parents":[2147483647,0,0,1,1,2,2,3,3,5,5,7,7,8,8,9,9,10,10],"right_children":[2,4,6,8,-1,10,-1,12,14,16,18,-1,-1,-1,-1,-1,-1,-1,-1],"split_conditions":[1.2727273E-1,1.7819326E-1,1.798825E-1,1.6986573E-1,8.697342E-2,1.7894666E-1,8.739207E-2,2.2191522E-3,1.3333334E-2,1.7819326E-1,1.980644E-1,-5.579893E-2,-2.5034178E-2,-2.6350652E-3,3.0606259E-2,-4.574884E-3,7.96754E-2,4.8090205E-2,7.728031E-2],"split_indices":[1,0,1,2,0,2,0,1,1,0,4,0,0,0,0,0,0,0,0],"split_type":[0,0,0,0,0,0,0,0,0,0,0,0,0,0,0,0,0,0,0],"sum_hessian":[2.159216E3,1.5637672E3,5.954487E2,1.4301664E3,1.3360089E2,1.0326812E2,4.921806E2,1.1965541E3,2.3361232E2,5.7783127E1,4.5484993E1,9.8491473E2,2.1163934E2,1.556168E2,7.7995514E1,4.8845863E1,8.937262E0,2.1404068E1,2.4080925E1],"tree_param":{"num_deleted":"0","num_feature":"11","num_nodes":"19","size_leaf_vector":"1"}},{"base_weights":[7.454393E-4,-5.690288E-1,1.5067458E0,-7.778132E-1,8.385379E-2,6.1862797E-1,1.6775458E0,-9.862108E-1,5.900391E-2,1.3504577E-1,1.2137114E0,1.030211E0,8.425208E-2,-5.661818E-2,-3.503436E-2,-1.450589E-2,2.0139536E-2,-7.8528095E-3,7.6898925E-2,4.239045E-2,7.386073E-2,5.80779E-3,6.243762E-2],"categories":[],"categories_nodes":[],"categories_segments":[],"categories_sizes":[],"default_left":[0,0,0,0,0,0,0,0,0,0,0,0,0,0,0,0,0,0,0,0,0,0,0],"id":4,"left_children":[1,3,5,7,-1,9,11,13,15,17,19,21,-1,-1,-1,-1,-1,-1,-1,-1,-1,-1,-1],"loss_changes":[1.8413492E3,7.314031E2,8.831128E1,2.4859058E2,0E0,2.763237E1,6.582031E-1,4.6822876E1,3.4334713E1,2.2540045E1,2.9106865E0,1.4972763E0,0E0,0E0,0E0,0E0,0E0,0E0,0E0,0E0,0E0,0E0,0E0],"parents":[2147483647,0,0,1,1,2,2,3,3,5,5,6,6,7,7,8,8,9,9,10,10,11,11],"right_children":[2,4,6,8,-1,10,12,14,16,18,20,22,-1,-1,-1,-1,-1,-1,-1,-1,-1,-1,-1],"split_conditions":[1.2727273E-1,1.7819326E-1,1.7422867E-1,1.2760662E-1,8.385379E-2,1.75E-1,1.798825E-1,-5.1304396E-2,2.777778E-1,1.7390794E-1,1.980644E-1,7E0,8.425208E-2,-5.661818E-2,-3.503436E-2,-1.450589E-2,2.0139536E-2,-7.8528095E-3,7.6898925E-2,4.239045E-2,7.386073E-2,5.80779E-3,6.243762E-2],"split_indices":[1,0,1,2,0,2,1,1,2,0,4,9,0,0,0,0,0,0,0,0,0,0,0],"split_type":[0,0,0,0,0,0,0,0,0,0,0,0,0,0,0,0,0,0,0,0,0,0,0],"sum_hessian":[2.1438953E3,1.555874E3,5.880211E2,1.4241476E3,1.3172653E2,9.559139E1,4.924297E2,1.1400544E3,2.8409314E2,5.3413197E1,4.2178192E1,7.2215457E0,4.8520816E2,7.5210425E2,3.8795013E2,1.4103036E2,1.4306276E2,4.4943623E1,8.469575E0,1.9423727E1,2.2754465E1,1.6889544E0,5.5325913E0],"tree_param":{"num_deleted":"0","num_feature":"11","num_nodes":"23","size_leaf_vector":"1"}},{"base_weights":[9.980885E-4,-5.439288E-1,1.4543934E0,-7.428591E-1,8.108994E-2,5.928308E-1,1.6220654E0,-1.0017135E0,-1.1561392E-1,-3.9238328E-1,8.575003E-1,9.917146E-1,8.147327E-2,-5.93912E-2,-3.8323935E-2,-1.8937457E-2,1.9153064E-2,-3.5303187E-2,6.2437445E-2,1.9839583E-2,6.4587526E-2,5.625921E-3,6.0149338E-2],"categories":[],"categories_nodes":[],"categories_segments":[],"categories_sizes":[],"default_left":[0,0,0,0,0,0,0,0,0,0,0,0,0,0,0,0,0,0,0,0,0,0,0],"id":5,"left_children":[1,3,5,7,-1,9,11,13,15,17,19,21,-1,-1,-1,-1,-1,-1,-1,-1,-1,-1,-1],"loss_changes":[1.685075E3,6.678899E2,8.285254E1,2.3011023E2,0E0,2.5393661E1,6.468506E-1,4.3026794E1,5.4647392E1,1.1710096E1,1.4704174E1,1.3847437E0,0E0,0E0,0E0,0E0,0E0,0E0,0E0,0E0,0E0,0E0,0E0],"parents":[2147483647,0,0,1,1,2,2,3,3,5,5,6,6,7,7,8,8,9,9,10,10,11,11],"right_children":[2,4,6,8,-1,10,12,14,16,18,20,22,-1,-1,-1,-1,-1,-1,-1,-1,-1,-1,-1],"split_conditions":[1.2727273E-1,1.7819326E-1,1.7422867E-1,4.118568E-2,8.108994E-2,-7.1428575E-2,1.798825E-1,2.1750629E-1,2.777778E-1,1.6754313E-1,1.980644E-1,7E0,8.147327E-2,-5.93912E-2,-3.8323935E-2,-1.8937457E-2,1.9153064E-2,-3.5303187E-2,6.2437445E-2,1.9839583E-2,6.4587526E-2,5.625921E-3,6.0149338E-2],"split_indices":[1,0,1,2,0,2,1,4,2,0,4,9,0,0,0,0,0,0,0,0,0,0,0],"split_type":[0,0,0,0,0,0,0,0,0,0,0,0,0,0,0,0,0,0,0,0,0,0,0],"sum_hessian":[2.1256367E3,1.5464473E3,5.7918945E2,1.4169519E3,1.2949544E2,9.509436E1,4.840951E2,1.0025981E3,4.1435376E2,2.0034555E1,7.50598E1,7.1836057E0,4.769115E2,5.5748425E2,4.4511383E2,2.713902E2,1.4296358E2,1.7298038E1,2.7365177E0,3.7348957E1,3.7710846E1,1.6887114E0,5.4948945E0],"tree_param":{"num_deleted":"0","num_feature":"11","num_nodes":"23","size_leaf_vector":"1"}},{"base_weights":[1.2127688E-3,-5.203175E-1,1.4067174E0,-7.0989007E-1,7.862654E-2,5.6703895E-1,1.5726258E0,-9.5899165E-1,-1.0997743E-1,3.0472672E-1,7.841887E-2,9.5571005E-1,7.899921E-2,-6.1247714E-2,-4.022761E-2,-1.802132E-2,1.821777E-2,-7.661746E-3,4.860526E-2,5.449784E-3,5.8024473E-2],"categories":[],"categories_nodes":[],"categories_segments":[],"categories_sizes":[],"default_left":[0,0,0,0,0,0,0,0,0,0,0,0,0,0,0,0,0,0,0,0,0],"id":6,"left_children":[1,3,5,7,-1,9,11,13,15,17,-1,19,-1,-1,-1,-1,-1,-1,-1,-1,-1],"loss_changes":[1.5446849E3,6.1091235E2,7.8559204E1,2.1060693E2,0E0,2.4648148E1,6.491699E-1,3.9933105E1,4.941166E1,2.3695868E1,0E0,1.2844744E0,0E0,0E0,0E0,0E0,0E0,0E0,0E0,0E0,0E0],"parents":[2147483647,0,0,1,1,2,2,3,3,5,5,6,6,7,7,8,8,9,9,11,11],"right_children":[2,4,6,8,-1,10,12,14,16,18,-1,20,-1,-1,-1,-1,-1,-1,-1,-1,-1],"split_conditions":[1.2727273E-1,1.7819326E-1,1.7422867E-1,4.118568E-2,7.862654E-2,1.7390794E-1,1.798825E-1,1.6793163E-1,2.777778E-1,1.7894666E-1,7.841887E-2,7E0,7.899921E-2,-6.1247714E-2,-4.022761E-2,-1.802132E-2,1.821777E-2,-7.661746E-3,4.860526E-2,5.449784E-3,5.8024473E-2],"split_indices":[1,0,1,2,0,0,1,4,2,2,0,9,0,0,0,0,0,0,0,0,0],"split_type":[0,0,0,0,0,0,0,0,0,0,0,0,0,0,0,0,0,0,0,0,0],"sum_hessian":[2.1053098E3,1.5359908E3,5.6931903E2,1.409021E3,1.26969925E2,9.465888E1,4.7466013E2,9.9518994E2,4.13831E2,7.6042885E1,1.8615995E1,7.1375284E0,4.675226E2,3.6304794E2,6.32142E2,2.709885E2,1.428425E2,4.555381E1,3.0489077E1,1.6884493E0,5.449079E0],"tree_param":{"num_deleted":"0","num_feature":"11","num_nodes":"21","size_leaf_vector":"1"}},{"base_weights":[1.4341479E-3,-4.9811485E-1,1.3637664E0,-6.7882943E-1,7.641911E-2,5.436704E-1,1.5283298E0,-9.189051E-1,-1.0462679E-1,2.91204E-1,7.6016806E-2,9.2191386E-1,7.678466E-2,-5.453361E-2,-3.4503132E-2,-1.715113E-2,1.7330429E-2,-7.287434E-3,4.668703E-2,5.2792146E-3,5.604293E-2],"categories":[],"categories_nodes":[],"categories_segments":[],"categories_sizes":[],"default_left":[0,0,0,0,0,0,0,0,0,0,0,0,0,0,0,0,0,0,0,0,0],"id":7,"left_children":[1,3,5,7,-1,9,11,13,15,17,-1,19,-1,-1,-1,-1,-1,-1,-1,-1,-1],"loss_changes":[1.418835E3,5.596897E2,7.465991E1,1.9307056E2,0E0,2.2991165E1,6.619873E-1,3.808313E1,4.468253E1,2.1685255E1,0E0,1.1946163E0,0E0,0E0,0E0,0E0,0E0,0E0,0E0,0E0,0E0],"parents":[2147483647,0,0,1,1,2,2,3,3,5,5,6,6,7,7,8,8,9,9,11,11],"right_children":[2,4,6,8,-1,10,12,14,16,18,-1,20,-1,-1,-1,-1,-1,-1,-1,-1,-1],"split_conditions":[1.2727273E-1,1.7819326E-1,1.7422867E-1,4.118568E-2,7.641911E-2,1.7390794E-1,1.798825E-1,2.2142345E-1,2.777778E-1,1.7894666E-1,7.6016806E-2,7E0,7.678466E-2,-5.453361E-2,-3.4503132E-2,-1.715113E-2,1.7330429E-2,-7.287434E-3,4.668703E-2,5.2792146E-3,5.604293E-2],"split_indices":[1,0,1,2,0,0,1,4,2,2,0,9,0,0,0,0,0,0,0,0,0],"split_type":[0,0,0,0,0,0,0,0,0,0,0,0,0,0,0,0,0,0,0,0,0],"sum_hessian":[2.082832E3,1.5244653E3,5.5836664E2,1.400261E3,1.2420443E2,9.403749E1,4.6432916E2,9.869953E2,4.1326562E2,7.57535E1,1.8283989E1,7.084516E0,4.5724463E2,5.616557E2,4.253396E2,2.705624E2,1.4270322E2,4.555041E1,3.0203085E1,1.6881701E0,5.396346E0],"tree_param":{"num_deleted":"0","num_feature":"11","num_nodes":"21","size_leaf_vector":"1"}},{"base_weights":[1.6588434E-3,-4.7716638E-1,1.3245736E0,-6.4948547E-1,7.443152E-2,5.2161694E-1,1.4884489E0,-8.811606E-1,-9.954494E-2,2.783666E-1,7.384802E-2,8.900836E-1,7.479291E-2,-5.6771852E-2,-3.6731977E-2,-1.6324168E-2,1.648808E-2,-3.1617217E-2,2.7937694E-2,5.1140212E-3,5.4187663E-2],"categories":[],"categories_nodes":[],"categories_segments":[],"categories_sizes":[],"default_left":[0,0,0,0,0,0,0,0,0,0,0,0,0,0,0,0,0,0,0,0,0],"id":8,"left_children":[1,3,5,7,-1,9,11,13,15,17,-1,19,-1,-1,-1,-1,-1,-1,-1,-1,-1],"loss_changes":[1.3053372E3,5.135051E2,7.128516E1,1.7723895E2,0E0,2.1517786E1,6.826172E-1,3.564557E1,4.040959E1,1.9873703E1,0E0,1.1136546E0,0E0,0E0,0E0,0E0,0E0,0E0,0E0,0E0,0E0],"parents":[2147483647,0,0,1,1,2,2,3,3,5,5,6,6,7,7,8,8,9,9,11,11],"right_children":[2,4,6,8,-1,10,12,14,16,18,-1,20,-1,-1,-1,-1,-1,-1,-1,-1,-1],"split_conditions":[1.2727273E-1,1.7819326E-1,1.7422867E-1,4.118568E-2,7.443152E-2,1.7390794E-1,1.798825E-1,1.6793163E-1,2.777778E-1,-7.1428575E-2,7.384802E-2,7E0,7.479291E-2,-5.6771852E-2,-3.6731977E-2,-1.6324168E-2,1.648808E-2,-3.1617217E-2,2.7937694E-2,5.1140212E-3,5.4187663E-2],"split_indices":[1,0,1,2,0,0,1,4,2,2,0,9,0,0,0,0,0,0,0,0,0],"split_type":[0,0,0,0,0,0,0,0,0,0,0,0,0,0,0,0,0,0,0,0,0],"sum_hessian":[2.0586975E3,1.5120533E3,5.4664404E2,1.3908068E3,1.2124664E2,9.336358E1,4.532805E2,9.7814026E2,4.1266644E2,7.544507E1,1.7918507E1,7.025646E0,4.4625485E2,3.5511526E2,6.23025E2,2.701175E2,1.4254898E2,1.746445E1,5.7980618E1,1.6878763E0,5.33777E0],"tree_param":{"num_deleted":"0","num_feature":"11","num_nodes":"21","size_leaf_vector":"1"}},{"base_weights":[1.854896E-3,-4.573446E-1,1.2882979E0,-6.2169194E-1,7.263409E-2,5.3317475E-1,7.299384E-2,-7.960537E-1,5.5454247E-2,1.2851612E-1,1.0543473E0,-4.7133926E-2,-2.568367E-2,-8.7811565E-3,2.574193E-2,-4.715565E-3,6.676612E-2,1.1947419E-3,5.5703163E-2],"categories":[],"categories_nodes":[],"categories_segments":[],"categories_sizes":[],"default_left":[0,0,0,0,0,0,0,0,0,0,0,0,0,0,0,0,0,0,0],"id":9,"left_children":[1,3,5,7,-1,9,-1,11,13,15,17,-1,-1,-1,-1,-1,-1,-1,-1],"loss_changes":[1.2023673E3,4.7175412E2,6.8591736E1,1.6319427E2,0E0,2.11034E1,0E0,4.5016113E1,3.02262E1,1.5676826E1,2.673397E0,0E0,0E0,0E0,0E0,0E0,0E0,0E0,0E0],"parents":[2147483647,0,0,1,1,2,2,3,3,5,5,7,7,8,8,9,9,10,10],"right_children":[2,4,6,8,-1,10,-1,12,14,16,18,-1,-1,-1,-1,-1,-1,-1,-1],"split_conditions":[1.2727273E-1,1.7819326E-1,1.798825E-1,1.2760662E-1,7.263409E-2,1.7894666E-1,7.299384E-2,-5.1304396E-2,1.3333334E-2,1.7819326E-1,-2.2727273E-1,-4.7133926E-2,-2.568367E-2,-8.7811565E-3,2.574193E-2,-4.715565E-3,6.676612E-2,1.1947419E-3,5.5703163E-2],"split_indices":[1,0,1,2,0,2,0,1,1,0,0,0,0,0,0,0,0,0,0],"split_type":[0,0,0,0,0,0,0,0,0,0,0,0,0,0,0,0,0,0,0],"sum_hessian":[2.0333811E3,1.4989656E3,5.344155E2,1.3808274E3,1.1813816E2,9.9707466E1,4.3470807E2,1.0979382E3,2.828892E2,5.6829456E1,4.287801E1,7.211473E2,3.76791E2,1.8862541E2,9.426378E1,4.8749996E1,8.079459E0,2.4254184E0,4.045259E1],"tree_param":{"num_deleted":"0","num_feature":"11","num_nodes":"19","size_leaf_vector":"1"}},{"base_weights":[2.0668393E-3,-4.3847436E-1,1.2550263E0,-5.952241E-1,7.100226E-2,4.7857547E-1,1.4198023E0,-8.315089E-1,-1.2467458E-1,2.4948381E-1,7.038967E-2,8.4065735E-1,7.1362495E-2,-5.0346073E-2,-3.0239103E-2,-1.6033532E-2,1.5515289E-2,-6.955956E-3,4.1876163E-2,4.6943855E-3,5.139315E-2],"categories":[],"categories_nodes":[],"categories_segments":[],"categories_sizes":[],"default_left":[0,0,0,0,0,0,0,0,0,0,0,0,0,0,0,0,0,0,0,0,0],"id":10,"left_children":[1,3,5,7,-1,9,11,13,15,17,-1,19,-1,-1,-1,-1,-1,-1,-1,-1,-1],"loss_changes":[1.1089961E3,4.3389026E2,6.618793E1,1.5239197E2,0E0,1.9447407E1,6.575928E-1,3.569745E1,3.9288517E1,1.7443825E1,0E0,1.0080099E0,0E0,0E0,0E0,0E0,0E0,0E0,0E0,0E0,0E0],"parents":[2147483647,0,0,1,1,2,2,3,3,5,5,6,6,7,7,8,8,9,9,11,11],"right_children":[2,4,6,8,-1,10,12,14,16,18,-1,20,-1,-1,-1,-1,-1,-1,-1,-1,-1],"split_conditions":[1.2727273E-1,1.7819326E-1,1.7422867E-1,5.276932E-3,7.100226E-2,1.7390794E-1,1.798825E-1,2.2142345E-1,2.777778E-1,1.7894666E-1,7.038967E-2,7E0,7.1362495E-2,-5.0346073E-2,-3.0239103E-2,-1.6033532E-2,1.5515289E-2,-6.955956E-3,4.1876163E-2,4.6943855E-3,5.139315E-2],"split_indices":[1,0,1,2,0,0,1,4,2,2,0,9,0,0,0,0,0,0,0,0,0],"split_type":[0,0,0,0,0,0,0,0,0,0,0,0,0,0,0,0,0,0,0,0,0],"sum_hessian":[2.0071255E3,1.4854801E3,5.2164545E2,1.3705647E3,1.1491532E2,9.20054E1,4.2964008E2,9.118935E2,4.5867126E2,7.482608E1,1.7179316E1,6.9007034E0,4.2273935E2,5.1218695E2,3.997065E2,3.163784E2,1.4229288E2,4.5512676E1,2.9313406E1,1.6841387E0,5.2165647E0],"tree_param":{"num_deleted":"0","num_feature":"11","num_nodes":"21","size_leaf_vector":"1"}},{"base_weights":[2.2823897E-3,-4.2057207E-1,1.2243118E0,-5.7010436E-1,6.951543E-2,4.9238238E-1,6.987808E-2,-7.812749E-1,-8.091398E-2,1.18346825E-1,9.843696E-1,-4.414467E-2,-2.1625718E-2,-1.470266E-2,1.6561221E-2,-4.2766645E-3,6.3574366E-2,-3.256776E-4,5.2186888E-2],"categories":[],"categories_nodes":[],"categories_segments":[],"categories_sizes":[],"default_left":[0,0,0,0,0,0,0,0,0,0,0,0,0,0,0,0,0,0,0],"id":11,"left_children":[1,3,5,7,-1,9,-1,11,13,15,17,-1,-1,-1,-1,-1,-1,-1,-1],"loss_changes":[1.0242131E3,3.9953302E2,6.3924133E1,1.4052383E2,0E0,1.8114054E1,0E0,3.3303223E1,3.6240967E1,1.3607654E1,2.515812E0,0E0,0E0,0E0,0E0,0E0,0E0,0E0,0E0],"parents":[2147483647,0,0,1,1,2,2,3,3,5,5,7,7,8,8,9,9,10,10],"right_children":[2,4,6,8,-1,10,-1,12,14,16,18,-1,-1,-1,-1,-1,-1,-1,-1],"split_conditions":[1.2727273E-1,1.7819326E-1,1.798825E-1,4.118568E-2,6.951543E-2,1.7894666E-1,6.987808E-2,3.1212375E-1,1.026584E-2,1.7819326E-1,-2.2727273E-1,-4.414467E-2,-2.1625718E-2,-1.470266E-2,1.6561221E-2,-4.2766645E-3,6.3574366E-2,-3.256776E-4,5.2186888E-2],"split_indices":[1,0,1,2,0,2,0,4,1,0,0,0,0,0,0,0,0,0,0],"split_type":[0,0,0,0,0,0,0,0,0,0,0,0,0,0,0,0,0,0,0],"sum_hessian":[1.9800681E3,1.4715342E3,5.085339E2,1.3599246E3,1.1160971E2,9.806792E1,4.1046597E2,9.4946747E2,4.1045706E2,5.6417103E1,4.1650818E1,7.3405426E2,2.1541322E2,2.7073285E2,1.397242E2,4.872767E1,7.6894326E0,2.4047449E0,3.924607E1],"tree_param":{"num_deleted":"0","num_feature":"11","num_nodes":"19","size_leaf_vector":"1"}},{"base_weights":[2.4787039E-3,-4.8696008E-1,9.937749E-1,-6.223867E-1,6.801909E-2,3.6936584E-1,1.3628399E0,-7.419556E-1,5.0837755E-2,1.912669E-1,6.806654E-2,7.958331E-1,6.852304E-2,-5.0142955E-2,-2.9704934E-2,-9.94408E-3,2.2770189E-2,-8.578463E-3,2.9612944E-2,4.3047587E-3,4.8880555E-2],"categories":[],"categories_nodes":[],"categories_segments":[],"categories_sizes":[],"default_left":[0,0,0,0,0,0,0,0,0,0,0,0,0,0,0,0,0,0,0,0,0],"id":12,"left_children":[1,3,5,7,-1,9,11,13,15,17,-1,19,-1,-1,-1,-1,-1,-1,-1,-1,-1],"loss_changes":[9.4848724E2,3.2826895E2,1.4840607E2,9.8247406E1,0E0,4.2390587E1,6.627197E-1,3.9373352E1,1.8774986E1,3.0049494E1,0E0,9.1779184E-1,0E0,0E0,0E0,0E0,0E0,0E0,0E0,0E0,0E0],"parents":[2147483647,0,0,1,1,2,2,3,3,5,5,6,6,7,7,8,8,9,9,11,11],"right_children":[2,4,6,8,-1,10,12,14,16,18,-1,20,-1,-1,-1,-1,-1,-1,-1,-1,-1],"split_conditions":[7.070606E-2,1.7819326E-1,1.7422867E-1,1.7894666E-1,6.801909E-2,1.7819326E-1,1.798825E-1,1.6793163E-1,2.8836176E-1,8.334E-2,6.806654E-2,7E0,6.852304E-2,-5.0142955E-2,-2.9704934E-2,-9.94408E-3,2.2770189E-2,-8.578463E-3,2.9612944E-2,4.3047587E-3,4.8880555E-2],"split_indices":[1,0,1,2,0,0,1,4,4,2,0,9,0,0,0,0,0,0,0,0,0],"split_type":[0,0,0,0,0,0,0,0,0,0,0,0,0,0,0,0,0,0,0,0,0],"sum_hessian":[1.9529258E3,1.3077507E3,6.4517505E2,1.2190468E3,8.870388E1,2.404189E2,4.0475616E2,1.0351038E3,1.8394302E2,2.0483527E2,3.558363E1,6.766246E0,3.979899E2,3.723262E2,6.627776E2,1.14052345E2,6.989068E1,1.078341E2,9.700117E1,1.6800904E0,5.0861554E0],"tree_param":{"num_deleted":"0","num_feature":"11","num_nodes":"21","size_leaf_vector":"1"}},{"base_weights":[2.6818716E-3,-3.3942094E-1,1.3378165E0,-4.8400304E-1,6.731201E-2,7.704414E-1,6.728248E-2,-6.396588E-1,2.0024376E-1,-2.2621292E-3,9.058766E-1,-3.8099647E-2,-9.561131E-3,-6.7669735E-3,2.3718147E-2,1.110928E-2,5.8950614E-2],"categories":[],"categories_nodes":[],"categories_segments":[],"categories_sizes":[],"default_left":[0,0,0,0,0,0,0,0,0,0,0,0,0,0,0,0,0],"id":13,"left_children":[1,3,5,7,-1,9,-1,11,13,-1,15,-1,-1,-1,-1,-1,-1],"loss_changes":[8.802662E2,3.7454626E2,7.102661E-1,1.5069513E2,0E0,8.9078474E-1,0E0,6.3048035E1,2.4234867E1,0E0,9.788623E-1,0E0,0E0,0E0,0E0,0E0,0E0],"parents":[2147483647,0,0,1,1,2,2,3,3,5,5,7,7,8,8,10,10],"right_children":[2,4,6,8,-1,10,-1,12,14,-1,16,-1,-1,-1,-1,-1,-1],"split_conditions":[1.7422867E-1,1.7819326E-1,1.798825E-1,1.6986573E-1,6.731201E-2,-1.6352254E-1,6.728248E-2,2.2191522E-3,-1.3435498E-2,-2.2621292E-3,9.785714E2,-3.8099647E-2,-9.561131E-3,-6.7669735E-3,2.3718147E-2,1.110928E-2,5.8950614E-2],"split_indices":[1,0,1,2,0,2,0,1,1,0,3,0,0,0,0,0,0],"split_type":[0,0,0,0,0,0,0,0,0,0,0,0,0,0,0,0,0],"sum_hessian":[1.9252302E3,1.5331384E3,3.9209174E2,1.412683E3,1.204554E2,6.692433E0,3.853993E2,1.1509293E3,2.6175378E2,1.0478007E0,5.6446323E0,9.0369934E2,2.4722993E2,1.1791082E2,1.4384296E2,2.1289876E0,3.5156446E0],"tree_param":{"num_deleted":"0","num_feature":"11","num_nodes":"17","size_leaf_vector":"1"}},{"base_weights":[2.8660265E-3,-3.2566613E-1,1.3148406E0,-4.6363047E-1,6.614124E-2,7.481475E-1,6.6143714E-2,-6.9973403E-1,-3.673747E-2,3.1557494E-1,5.624298E-2,-4.777632E-2,-2.7768169E-2,-1.3410433E-2,1.6018843E-2,-2.2782754E-2,3.443524E-2],"categories":[],"categories_nodes":[],"categories_segments":[],"categories_sizes":[],"default_left":[0,0,0,0,0,0,0,0,0,0,0,0,0,0,0,0,0],"id":14,"left_children":[1,3,5,7,-1,9,-1,11,13,15,-1,-1,-1,-1,-1,-1,-1],"loss_changes":[8.1871356E2,3.4610007E2,7.420654E-1,1.4133328E2,0E0,8.865695E-1,0E0,3.2815735E1,4.145865E1,1.7343737E0,0E0,0E0,0E0,0E0,0E0,0E0,0E0],"parents":[2147483647,0,0,1,1,2,2,3,3,5,5,7,7,8,8,9,9],"right_children":[2,4,6,8,-1,10,-1,12,14,16,-1,-1,-1,-1,-1,-1,-1],"split_conditions":[1.7422867E-1,1.7819326E-1,1.798825E-1,5.276932E-3,6.614124E-2,7E0,6.6143714E-2,1.6869792E-1,1.3333334E-2,2.4714285E2,5.624298E-2,-4.777632E-2,-2.7768169E-2,-1.3410433E-2,1.6018843E-2,-2.2782754E-2,3.443524E-2],"split_indices":[1,0,1,2,0,8,0,4,1,6,0,0,0,0,0,0,0],"split_type":[0,0,0,0,0,0,0,0,0,0,0,0,0,0,0,0,0],"sum_hessian":[1.8974601E3,1.5180709E3,3.793891E2,1.4014966E3,1.165743E2,6.6189423E0,3.7277017E2,9.0199E2,4.9950662E2,3.9364674E0,2.6824749E0,3.233926E2,5.785974E2,3.0321826E2,1.9628836E2,1.2114091E0,2.7250583E0],"tree_param":{"num_deleted":"0","num_feature":"11","num_nodes":"17","size_leaf_vector":"1"}},{"base_weights":[3.0190013E-3,-3.124093E-1,1.2936187E0,-4.4399685E-1,6.506291E-2,7.258376E-1,6.5095805E-2,-5.9105706E-1,1.9222496E-1,2.8221568E-3,9.064834E-1,-3.543691E-2,-8.3356E-3,2.6380195E-4,3.045916E-2,1.7573966E-2,5.4782446E-2],"categories":[],"categories_nodes":[],"categories_segments":[],"categories_sizes":[],"default_left":[0,0,0,0,0,0,0,0,0,0,0,0,0,0,0,0,0],"id":15,"left_children":[1,3,5,7,-1,9,-1,11,13,-1,15,-1,-1,-1,-1,-1,-1],"loss_changes":[7.621982E2,3.2005884E2,7.8741455E-1,1.3034268E2,0E0,8.6258507E-1,0E0,5.635147E1,2.0425873E1,0E0,2.326684E-1,0E0,0E0,0E0,0E0,0E0,0E0],"parents":[2147483647,0,0,1,1,2,2,3,3,5,5,7,7,8,8,10,10],"right_children":[2,4,6,8,-1,10,-1,12,14,-1,16,-1,-1,-1,-1,-1,-1],"split_conditions":[1.7422867E-1,1.7819326E-1,1.798825E-1,1.6986573E-1,6.506291E-2,7E0,6.5095805E-2,2.2191522E-3,4.724E-1,2.8221568E-3,2.4714285E2,-3.543691E-2,-8.3356E-3,2.6380195E-4,3.045916E-2,1.7573966E-2,5.4782446E-2],"split_indices":[1,0,1,2,0,9,0,1,2,0,6,0,0,0,0,0,0],"split_type":[0,0,0,0,0,0,0,0,0,0,0,0,0,0,0,0,0],"sum_hessian":[1.8703082E3,1.5035836E3,3.667246E2,1.3908877E3,1.1269595E2,6.556439E0,3.6016818E2,1.129808E3,2.610797E2,1.6722529E0,4.884186E0,8.839868E2,2.458211E2,1.8095757E2,8.012215E1,1.9680513E0,2.9161346E0],"tree_param":{"num_deleted":"0","num_feature":"11","num_nodes":"17","size_leaf_vector":"1"}},{"base_weights":[3.2073073E-3,-2.9976827E-1,1.2740502E0,-4.253238E-1,6.40673E-2,7.063066E-1,6.4129315E-2,-6.4866555E-1,-2.8374415E-2,2.8290612E-1,5.4228365E-2,-4.0963706E-2,-2.1645699E-2,-7.3036365E-3,2.9073609E-2,-2.25415E-2,3.240081E-2],"categories":[],"categories_nodes":[],"categories_segments":[],"categories_sizes":[],"default_left":[0,0,0,0,0,0,0,0,0,0,0,0,0,0,0,0,0],"id":16,"left_children":[1,3,5,7,-1,9,-1,11,13,15,-1,-1,-1,-1,-1,-1,-1],"loss_changes":[7.1029767E2,2.962644E2,8.1518555E-1,1.2239685E2,0E0,8.920932E-1,0E0,3.216925E1,3.584582E1,1.6008455E0,0E0,0E0,0E0,0E0,0E0,0E0,0E0],"parents":[2147483647,0,0,1,1,2,2,3,3,5,5,7,7,8,8,9,9],"right_children":[2,4,6,8,-1,10,-1,12,14,16,-1,-1,-1,-1,-1,-1,-1],"split_conditions":[1.7422867E-1,1.7819326E-1,1.798825E-1,5.276932E-3,6.40673E-2,7E0,6.4129315E-2,2.2142345E-1,4.724E-1,2.4714285E2,5.4228365E-2,-4.0963706E-2,-2.1645699E-2,-7.3036365E-3,2.9073609E-2,-2.25415E-2,3.240081E-2],"split_indices":[1,0,1,2,0,8,0,4,2,6,0,0,0,0,0,0,0],"split_type":[0,0,0,0,0,0,0,0,0,0,0,0,0,0,0,0,0],"sum_hessian":[1.8427726E3,1.4886377E3,3.5413486E2,1.3797994E3,1.0883826E2,6.4859877E0,3.4764886E2,8.8258374E2,4.972157E2,3.8851342E0,2.6008534E0,4.9129108E2,3.912927E2,4.1741626E2,7.979944E1,1.2128918E0,2.6722424E0],"tree_param":{"num_deleted":"0","num_feature":"11","num_nodes":"17","size_leaf_vector":"1"}},{"base_weights":[3.3668329E-3,-2.875757E-1,1.2558746E0,-4.0732917E-1,6.3145936E-2,6.857743E-1,6.323604E-2,-6.2350273E-1,-2.6939377E-2,2.7172953E-1,5.3021997E-2,-4.422566E-2,-2.4372568E-2,-1.2139845E-2,1.5235354E-2,3.170763E-2,-2.2685288E-2],"categories":[],"categories_nodes":[],"categories_segments":[],"categories_sizes":[],"default_left":[0,0,0,0,0,0,0,0,0,0,0,0,0,0,0,0,0],"id":17,"left_children":[1,3,5,7,-1,9,-1,11,13,15,-1,-1,-1,-1,-1,-1,-1],"loss_changes":[6.624651E2,2.7443475E2,8.6083984E-1,1.126579E2,0E0,8.629973E-1,0E0,3.0593414E1,3.5694202E1,1.5680043E0,0E0,0E0,0E0,0E0,0E0,0E0,0E0],"parents":[2147483647,0,0,1,1,2,2,3,3,5,5,7,7,8,8,9,9],"right_children":[2,4,6,8,-1,10,-1,12,14,16,-1,-1,-1,-1,-1,-1,-1],"split_conditions":[1.7422867E-1,1.7819326E-1,1.798825E-1,5.276932E-3,6.3145936E-2,7E0,6.323604E-2,1.6591346E-1,1.3333334E-2,3.9051E-2,5.3021997E-2,-4.422566E-2,-2.4372568E-2,-1.2139845E-2,1.5235354E-2,3.170763E-2,-2.2685288E-2],"split_indices":[1,0,1,2,0,8,0,4,1,0,0,0,0,0,0,0,0],"split_type":[0,0,0,0,0,0,0,0,0,0,0,0,0,0,0,0,0],"sum_hessian":[1.8159314E3,1.474251E3,3.416804E2,1.3692345E3,1.0501647E2,6.420634E0,3.3525977E2,8.7266455E2,4.9656992E2,3.8695898E0,2.551044E0,2.9712952E2,5.7553503E2,3.0095584E2,1.9561409E2,2.6643355E0,1.2052544E0],"tree_param":{"num_deleted":"0","num_feature":"11","num_nodes":"17","size_leaf_vector":"1"}},{"base_weights":[3.5020125E-3,-2.7588752E-1,1.2389975E0,-3.9010113E-1,6.229145E-2,6.6606015E-1,6.2408824E-2,-5.252925E-1,1.806019E-1,1.2134573E-3,8.490829E-1,-3.4744114E-2,-1.274713E-2,-5.7803094E-3,2.1226637E-2,1.5650254E-2,5.200246E-2],"categories":[],"categories_nodes":[],"categories_segments":[],"categories_sizes":[],"default_left":[0,0,0,0,0,0,0,0,0,0,0,0,0,0,0,0,0],"id":18,"left_children":[1,3,5,7,-1,9,-1,11,13,-1,15,-1,-1,-1,-1,-1,-1],"loss_changes":[6.1837994E2,2.5441971E2,9.0615845E-1,1.0501042E2,0E0,8.432164E-1,0E0,5.024002E1,1.8919994E1,0E0,2.5724554E-1,0E0,0E0,0E0,0E0,0E0,0E0],"parents":[2147483647,0,0,1,1,2,2,3,3,5,5,7,7,8,8,10,10],"right_children":[2,4,6,8,-1,10,-1,12,14,-1,16,-1,-1,-1,-1,-1,-1],"split_conditions":[1.7422867E-1,1.7819326E-1,1.798825E-1,1.6986573E-1,6.229145E-2,7E0,6.2408824E-2,-5.1304396E-2,-1.3435498E-2,1.2134573E-3,2.4714285E2,-3.4744114E-2,-1.274713E-2,-5.7803094E-3,2.1226637E-2,1.5650254E-2,5.200246E-2],"split_indices":[1,0,1,2,0,9,0,1,1,0,6,0,0,0,0,0,0],"split_type":[0,0,0,0,0,0,0,0,0,0,0,0,0,0,0,0,0],"sum_hessian":[1.7894574E3,1.460062E3,3.2939536E2,1.3588185E3,1.0124353E2,6.354039E0,3.2304132E2,1.0986449E3,2.6017365E2,1.6612545E0,4.692785E0,6.7416974E2,4.2447516E2,1.1773398E2,1.4243968E2,1.9257908E0,2.7669938E0],"tree_param":{"num_deleted":"0","num_feature":"11","num_nodes":"17","size_leaf_vector":"1"}},{"base_weights":[3.6586164E-3,-2.647042E-1,1.2233347E0,-3.7366349E-1,6.1497368E-2,6.486288E-1,6.1641395E-2,-5.780441E-1,-2.016235E-2,2.4256147E-1,5.1290046E-2,-3.7324693E-2,-1.8419007E-2,-2.6523713E-2,5.207843E-3,-2.2668032E-2,3.01386E-2],"categories":[],"categories_nodes":[],"categories_segments":[],"categories_sizes":[],"default_left":[0,0,0,0,0,0,0,0,0,0,0,0,0,0,0,0,0],"id":19,"left_children":[1,3,5,7,-1,9,-1,11,13,15,-1,-1,-1,-1,-1,-1,-1],"loss_changes":[5.777093E2,2.3606236E2,9.370117E-1,9.746361E1,0E0,8.6659646E-1,0E0,2.9916779E1,3.1478058E1,1.4807311E0,0E0,0E0,0E0,0E0,0E0,0E0,0E0],"parents":[2147483647,0,0,1,1,2,2,3,3,5,5,7,7,8,8,9,9],"right_children":[2,4,6,8,-1,10,-1,12,14,16,-1,-1,-1,-1,-1,-1,-1],"split_conditions":[1.7422867E-1,1.7819326E-1,1.798825E-1,5.276932E-3,6.1497368E-2,7E0,6.1641395E-2,2.2142345E-1,1.3989197E-1,2.4714285E2,5.1290046E-2,-3.7324693E-2,-1.8419007E-2,-2.6523713E-2,5.207843E-3,-2.2668032E-2,3.01386E-2],"split_indices":[1,0,1,2,0,8,0,4,4,6,0,0,0,0,0,0,0],"split_type":[0,0,0,0,0,0,0,0,0,0,0,0,0,0,0,0,0],"sum_hessian":[1.7630017E3,1.4456921E3,3.173097E2,1.3481617E3,9.753028E1,6.2828174E0,3.1102686E2,8.538587E2,4.9430307E2,3.8167605E0,2.466057E0,4.7204468E2,3.8181406E2,9.619007E1,3.98113E2,1.2135665E0,2.603194E0],"tree_param":{"num_deleted":"0","num_feature":"11","num_nodes":"17","size_leaf_vector":"1"}},{"base_weights":[3.769894E-3,-2.5385347E-1,1.2086896E0,-3.577271E-1,6.0757983E-2,6.303068E-1,6.0928207E-2,-5.1355016E-1,7.8719184E-2,2.3282711E-1,5.022883E-2,-4.1029163E-2,-1.8023811E-2,-3.1959925E-2,9.543672E-3,2.9600028E-2,-2.2993695E-2],"categories":[],"categories_nodes":[],"categories_segments":[],"categories_sizes":[],"default_left":[0,0,0,0,0,0,0,0,0,0,0,0,0,0,0,0,0],"id":20,"left_children":[1,3,5,7,-1,9,-1,11,13,15,-1,-1,-1,-1,-1,-1,-1],"loss_changes":[5.4005927E2,2.1915152E2,9.8220825E-1,9.113498E1,0E0,8.395531E-1,0E0,4.61008E1,2.8566626E1,1.4667459E0,0E0,0E0,0E0,0E0,0E0,0E0,0E0],"parents":[2147483647,0,0,1,1,2,2,3,3,5,5,7,7,8,8,9,9],"right_children":[2,4,6,8,-1,10,-1,12,14,16,-1,-1,-1,-1,-1,-1,-1],"split_conditions":[1.7422867E-1,1.7819326E-1,1.798825E-1,2.2191522E-3,6.0757983E-2,7E0,6.0928207E-2,1.6869792E-1,1.1553354E-1,3.9051E-2,5.022883E-2,-4.1029163E-2,-1.8023811E-2,-3.1959925E-2,9.543672E-3,2.9600028E-2,-2.2993695E-2],"split_indices":[1,0,1,1,0,8,0,4,4,0,0,0,0,0,0,0,0],"split_type":[0,0,0,0,0,0,0,0,0,0,0,0,0,0,0,0,0],"sum_hessian":[1.7378065E3,1.4323464E3,3.0546005E2,1.3384606E3,9.388581E1,6.2157345E0,2.9924432E2,9.8618823E2,3.5227237E2,3.8010502E0,2.4146843E0,3.266462E2,6.5954205E2,4.6961956E1,3.0531042E2,2.5988765E0,1.2021737E0],"tree_param":{"num_deleted":"0","num_feature":"11","num_nodes":"17","size_leaf_vector":"1"}},{"base_weights":[3.8732E-3,-2.4331851E-1,1.1950073E0,-3.4228608E-1,6.0068257E-2,6.126314E-1,6.0264356E-2,-4.6946225E-1,1.8184699E-1,-2.189785E-4,7.9836285E-1,-3.1651847E-2,-1.06850285E-2,5.684372E-4,2.7663022E-2,1.4375958E-2,5.008758E-2],"categories":[],"categories_nodes":[],"categories_segments":[],"categories_sizes":[],"default_left":[0,0,0,0,0,0,0,0,0,0,0,0,0,0,0,0,0],"id":21,"left_children":[1,3,5,7,-1,9,-1,11,13,-1,15,-1,-1,-1,-1,-1,-1],"loss_changes":[5.051748E2,2.035628E2,1.0268555E0,8.877637E1,0E0,8.2267475E-1,0E0,4.467227E1,1.6489777E1,0E0,2.8340673E-1,0E0,0E0,0E0,0E0,0E0,0E0],"parents":[2147483647,0,0,1,1,2,2,3,3,5,5,7,7,8,8,10,10],"right_children":[2,4,6,8,-1,10,-1,12,14,-1,16,-1,-1,-1,-1,-1,-1],"split_conditions":[1.7422867E-1,1.7819326E-1,1.798825E-1,1.6986573E-1,6.0068257E-2,7E0,6.0264356E-2,-5.1304396E-2,5.5555556E-2,-2.189785E-4,6.8965517E-3,-3.1651847E-2,-1.06850285E-2,5.684372E-4,2.7663022E-2,1.4375958E-2,5.008758E-2],"split_indices":[1,0,1,2,0,9,0,1,1,0,5,0,0,0,0,0,0],"split_type":[0,0,0,0,0,0,0,0,0,0,0,0,0,0,0,0,0],"sum_hessian":[1.7137354E3,1.4198705E3,2.938648E2,1.329553E3,9.031753E1,6.1482553E0,2.8771655E2,1.0700253E3,2.5952765E2,1.6484448E0,4.4998107E0,6.517303E2,4.18295E2,1.7858705E2,8.09406E1,1.9687128E0,2.531098E0],"tree_param":{"num_deleted":"0","num_feature":"11","num_nodes":"17","size_leaf_vector":"1"}},{"base_weights":[4.0200083E-3,-2.3338611E-1,1.1822315E0,-3.9048526E-1,6.3131803E-1,5.9682196E-1,5.9645515E-2,-5.0525844E-1,1.16580516E-1,2.4974784E-1,5.9423704E-2,2.051991E-1,4.8766352E-2,-3.8273714E-2,-1.8341398E-2,-1.8593789E-3,2.7887393E-2,-3.200795E-2,1.7670438E-2,-2.3017226E-2,2.8171748E-2],"categories":[],"categories_nodes":[],"categories_segments":[],"categories_sizes":[],"default_left":[0,0,0,0,0,0,0,0,0,0,0,0,0,0,0,0,0,0,0,0,0],"id":22,"left_children":[1,3,5,7,9,11,-1,13,15,17,-1,19,-1,-1,-1,-1,-1,-1,-1,-1,-1],"loss_changes":[4.7292108E2,1.9140628E2,1.0606079E0,6.9399124E1,4.5779663E1,8.4946895E-1,0E0,3.4723114E1,1.4993934E1,1.2209607E1,0E0,1.39106E0,0E0,0E0,0E0,0E0,0E0,0E0,0E0,0E0,0E0],"parents":[2147483647,0,0,1,1,2,2,3,3,4,4,5,5,7,7,8,8,9,9,11,11],"right_children":[2,4,6,8,10,12,-1,14,16,18,-1,20,-1,-1,-1,-1,-1,-1,-1,-1,-1],"split_conditions":[1.7422867E-1,9.2989706E-2,1.798825E-1,1.6986573E-1,1.7819326E-1,7E0,5.9645515E-2,1.6490372E-1,5.0307214E-1,1.1553354E-1,5.9423704E-2,2.4714285E2,4.8766352E-2,-3.8273714E-2,-1.8341398E-2,-1.8593789E-3,2.7887393E-2,-3.200795E-2,1.7670438E-2,-2.3017226E-2,2.8171748E-2],"split_indices":[1,0,1,2,0,8,0,4,2,4,0,6,0,0,0,0,0,0,0,0,0],"split_type":[0,0,0,0,0,0,0,0,0,0,0,0,0,0,0,0,0,0,0,0,0],"sum_hessian":[1.6887406E3,1.4061978E3,2.8254276E2,1.1904633E3,2.1573451E2,6.0808616E0,2.764619E2,9.707417E2,2.1972159E2,1.2890306E2,8.683146E1,3.7465737E0,2.334288E0,3.3551843E2,6.3522327E2,1.6361098E2,5.611061E1,1.2908742E1,1.15994316E2,1.2112457E0,2.5353281E0],"tree_param":{"num_deleted":"0","num_feature":"11","num_nodes":"21","size_leaf_vector":"1"}},{"base_weights":[4.125435E-3,-2.2376512E-1,1.1702203E0,-3.1377047E-1,5.882032E-2,5.802944E-1,5.9067797E-2,-5.0323766E-1,4.030911E-3,1.9673704E-1,4.7816362E-2,-3.0261323E-2,-8.62991E-3,-6.7189382E-3,1.9471325E-2,2.7619282E-2,-2.3194168E-2],"categories":[],"categories_nodes":[],"categories_segments":[],"categories_sizes":[],"default_left":[0,0,0,0,0,0,0,0,0,0,0,0,0,0,0,0,0],"id":23,"left_children":[1,3,5,7,-1,9,-1,11,13,15,-1,-1,-1,-1,-1,-1,-1],"loss_changes":[4.4296976E2,1.7609828E2,1.1046753E0,7.894055E1,0E0,8.2350564E-1,0E0,2.7592285E1,2.6224972E1,1.3678634E0,0E0,0E0,0E0,0E0,0E0,0E0,0E0],"parents":[2147483647,0,0,1,1,2,2,3,3,5,5,7,7,8,8,9,9],"right_children":[2,4,6,8,-1,10,-1,12,14,16,-1,-1,-1,-1,-1,-1,-1],"split_conditions":[1.7422867E-1,1.7819326E-1,1.798825E-1,5.276932E-3,5.882032E-2,7E0,5.9067797E-2,3.1212375E-1,4.5454547E-2,3.9051E-2,4.7816362E-2,-3.0261323E-2,-8.62991E-3,-6.7189382E-3,1.9471325E-2,2.7619282E-2,-2.3194168E-2],"split_indices":[1,0,1,2,0,8,0,4,0,0,0,0,0,0,0,0,0],"split_type":[0,0,0,0,0,0,0,0,0,0,0,0,0,0,0,0,0],"sum_hessian":[1.6649313E3,1.3934221E3,2.7150916E2,1.3099897E3,8.343241E1,6.0141416E0,2.65495E2,8.2033685E2,4.8965292E2,3.7313342E0,2.2828074E0,6.26314E2,1.9402281E2,3.6074686E2,1.2890607E2,2.5320365E0,1.1992977E0],"tree_param":{"num_deleted":"0","num_feature":"11","num_nodes":"17","size_leaf_vector":"1"}},{"base_weights":[4.2369184E-3,-2.1444142E-1,1.1589375E0,-3.002212E-1,5.825452E-2,5.64328E-1,5.8527738E-2,-5.1616263E-1,-2.7724452E-2,-1.4943846E-3,7.527601E-1,-3.353203E-2,-5.0742268E-3,-3.4291632E-2,4.364087E-3,1.2431201E-2,4.8107494E-2],"categories":[],"categories_nodes":[],"categories_segments":[],"categories_sizes":[],"default_left":[0,0,0,0,0,0,0,0,0,0,0,0,0,0,0,0,0],"id":24,"left_children":[1,3,5,7,-1,9,-1,11,13,-1,15,-1,-1,-1,-1,-1,-1],"loss_changes":[4.151332E2,1.6392342E2,1.1477051E0,7.660897E1,0E0,8.0039024E-1,0E0,4.6464737E1,4.371192E1,0E0,3.2162023E-1,0E0,0E0,0E0,0E0,0E0,0E0],"parents":[2147483647,0,0,1,1,2,2,3,3,5,5,7,7,8,8,10,10],"right_children":[2,4,6,8,-1,10,-1,12,14,-1,16,-1,-1,-1,-1,-1,-1],"split_conditions":[1.7422867E-1,1.7819326E-1,1.798825E-1,-5.1304396E-2,5.825452E-2,7E0,5.8527738E-2,3.1212375E-1,1.1553354E-1,-1.4943846E-3,6.8965517E-3,-3.353203E-2,-5.0742268E-3,-3.4291632E-2,4.364087E-3,1.2431201E-2,4.8107494E-2],"split_indices":[1,0,1,1,0,9,0,4,4,0,5,0,0,0,0,0,0],"split_type":[0,0,0,0,0,0,0,0,0,0,0,0,0,0,0,0,0],"sum_hessian":[1.6420558E3,1.3812816E3,2.607742E2,1.3011575E3,8.012408E1,5.947367E0,2.5482683E2,7.254092E2,5.757483E2,1.6344765E0,4.3128905E0,5.280719E2,1.9733727E2,8.490826E1,4.9084006E2,1.9075534E0,2.405337E0],"tree_param":{"num_deleted":"0","num_feature":"11","num_nodes":"17","size_leaf_vector":"1"}},{"base_weights":[4.3070596E-3,-2.0543577E-1,1.1483457E0,-3.463118E-1,5.9244436E-1,5.4996777E-1,5.8022227E-2,-4.4499716E-1,1.8311216E-1,2.4895503E-1,5.7723124E-2,1.7180483E-1,4.652208E-2,-2.5716413E-2,2.8805435E-3,-1.1824339E-2,2.3960525E-2,-2.9260203E-2,1.7212342E-2,-2.325687E-2,2.6401252E-2],"categories":[],"categories_nodes":[],"categories_segments":[],"categories_sizes":[],"default_left":[0,0,0,0,0,0,0,0,0,0,0,0,0,0,0,0,0,0,0,0,0],"id":25,"left_children":[1,3,5,7,9,11,-1,13,15,17,-1,19,-1,-1,-1,-1,-1,-1,-1,-1,-1],"loss_changes":[3.8928278E2,1.5430772E2,1.1814575E0,6.0994644E1,3.950139E1,8.303685E-1,0E0,3.4283524E1,2.2959803E1,1.0471372E1,0E0,1.3070176E0,0E0,0E0,0E0,0E0,0E0,0E0,0E0,0E0,0E0],"parents":[2147483647,0,0,1,1,2,2,3,3,4,4,5,5,7,7,8,8,9,9,11,11],"right_children":[2,4,6,8,10,12,-1,14,16,18,-1,20,-1,-1,-1,-1,-1,-1,-1,-1,-1],"split_conditions":[1.7422867E-1,9.2989706E-2,1.798825E-1,5.882353E-2,1.7819326E-1,7E0,5.8022227E-2,2.3416086E-1,1.7629915E-1,1.1553354E-1,5.7723124E-2,2.4714285E2,4.652208E-2,-2.5716413E-2,2.8805435E-3,-1.1824339E-2,2.3960525E-2,-2.9260203E-2,1.7212342E-2,-2.325687E-2,2.6401252E-2],"split_indices":[1,0,1,1,0,8,0,2,4,4,0,6,0,0,0,0,0,0,0,0,0],"split_type":[0,0,0,0,0,0,0,0,0,0,0,0,0,0,0,0,0,0,0,0,0],"sum_hessian":[1.62034E3,1.3699923E3,2.503477E2,1.164883E3,2.0510919E2,5.88223E0,2.4446548E2,9.81997E2,1.828861E2,1.282E2,7.69092E1,3.6780624E0,2.2041676E0,8.6293774E2,1.19059265E2,7.574694E1,1.0713915E2,1.2616586E1,1.1558341E2,1.2095532E0,2.4685092E0],"tree_param":{"num_deleted":"0","num_feature":"11","num_nodes":"21","size_leaf_vector":"1"}},{"base_weights":[4.4014854E-3,-1.9689219E-1,1.1383327E0,-2.7479938E-1,5.7223197E-2,5.3496826E-1,5.7548475E-2,-4.5419884E-1,1.923163E-2,1.6447362E-1,4.5660976E-2,-3.307807E-2,-1.4491049E-2,-3.9033168E-3,2.6018841E-2,2.5828866E-2,-2.3294566E-2],"categories":[],"categories_nodes":[],"categories_segments":[],"categories_sizes":[],"default_left":[0,0,0,0,0,0,0,0,0,0,0,0,0,0,0,0,0],"id":26,"left_children":[1,3,5,7,-1,9,-1,11,13,15,-1,-1,-1,-1,-1,-1,-1],"loss_changes":[3.652417E2,1.4232593E2,1.2235413E0,6.779936E1,0E0,8.051536E-1,0E0,2.7015732E1,2.3833254E1,1.2757608E0,0E0,0E0,0E0,0E0,0E0,0E0,0E0],"parents":[2147483647,0,0,1,1,2,2,3,3,5,5,7,7,8,8,9,9],"right_children":[2,4,6,8,-1,10,-1,12,14,16,-1,-1,-1,-1,-1,-1,-1],"split_conditions":[1.7422867E-1,1.7819326E-1,1.798825E-1,5.276932E-3,5.7223197E-2,7E0,5.7548475E-2,-1E-1,4.724E-1,3.9051E-2,4.5660976E-2,-3.307807E-2,-1.4491049E-2,-3.9033168E-3,2.6018841E-2,2.5828866E-2,-2.3294566E-2],"split_indices":[1,0,1,2,0,8,0,0,2,0,0,0,0,0,0,0,0],"split_type":[0,0,0,0,0,0,0,0,0,0,0,0,0,0,0,0,0],"sum_hessian":[1.5981782E3,1.3579445E3,2.4023378E2,1.2841548E3,7.3789734E1,5.8171396E0,2.3441664E2,7.97205E2,4.8694977E2,3.6635466E0,2.1535933E0,3.5117435E2,4.4603067E2,4.0848593E2,7.846383E1,2.4663982E0,1.1971481E0],"tree_param":{"num_deleted":"0","num_feature":"11","num_nodes":"17","size_leaf_vector":"1"}},{"base_weights":[4.4952333E-3,-1.886366E-1,1.1288781E0,-3.1949067E-1,5.644867E-1,5.204665E-1,5.710395E-2,-4.141986E-1,1.8154186E-1,2.4281429E-1,5.6752153E-2,1.5737085E-1,4.483149E-2,-3.403051E-2,-1.4420697E-2,-1.0939509E-2,2.3181794E-2,-2.781578E-2,1.6652465E-2,-1.8196734E-2,2.9019793E-2],"categories":[],"categories_nodes":[],"categories_segments":[],"categories_sizes":[],"default_left":[0,0,0,0,0,0,0,0,0,0,0,0,0,0,0,0,0,0,0,0,0],"id":27,"left_children":[1,3,5,7,9,11,-1,13,15,17,-1,19,-1,-1,-1,-1,-1,-1,-1,-1,-1],"loss_changes":[3.4284747E2,1.3296603E2,1.2643433E0,5.457773E1,3.639708E1,7.8113353E-1,0E0,3.218477E1,2.0800873E1,9.490947E0,0E0,1.2363715E0,0E0,0E0,0E0,0E0,0E0,0E0,0E0,0E0,0E0],"parents":[2147483647,0,0,1,1,2,2,3,3,4,4,5,5,7,7,8,8,9,9,11,11],"right_children":[2,4,6,8,10,12,-1,14,16,18,-1,20,-1,-1,-1,-1,-1,-1,-1,-1,-1],"split_conditions":[1.7422867E-1,9.2989706E-2,1.798825E-1,5.882353E-2,1.7819326E-1,7E0,5.710395E-2,1.6591346E-1,1.7629915E-1,1.1553354E-1,5.6752153E-2,1.3539597E-1,4.483149E-2,-3.403051E-2,-1.4420697E-2,-1.0939509E-2,2.3181794E-2,-2.781578E-2,1.6652465E-2,-1.8196734E-2,2.9019793E-2],"split_indices":[1,0,1,1,0,8,0,4,4,4,0,2,0,0,0,0,0,0,0,0,0],"split_type":[0,0,0,0,0,0,0,0,0,0,0,0,0,0,0,0,0,0,0,0,0],"sum_hessian":[1.5768402E3,1.3464045E3,2.3043561E2,1.1475885E3,1.9881602E2,5.7521954E0,2.2468341E2,9.652962E2,1.8229233E2,1.2804912E2,7.07669E1,3.648652E0,2.103543E0,3.081739E2,6.571223E2,7.544682E1,1.06845505E2,1.246781E1,1.15581314E2,1.6970345E0,1.9516177E0],"tree_param":{"num_deleted":"0","num_feature":"11","num_nodes":"21","size_leaf_vector":"1"}},{"base_weights":[4.5634164E-3,-1.8063162E-1,1.1200064E0,-2.5138047E-1,5.6307595E-2,5.082432E-1,5.668637E-2,-4.5202574E-1,-4.2207083E-3,-7.996051E-3,6.54169E-1,-3.0244244E-2,-2.5050878E-3,-3.0734947E-2,5.0039557E-3,2.6467382E-3,4.778877E-2],"categories":[],"categories_nodes":[],"categories_segments":[],"categories_sizes":[],"default_left":[0,0,0,0,0,0,0,0,0,0,0,0,0,0,0,0,0],"id":28,"left_children":[1,3,5,7,-1,9,-1,11,13,-1,15,-1,-1,-1,-1,-1,-1],"loss_changes":[3.2200095E2,1.23878204E2,1.2868042E0,6.292939E1,0E0,7.5606215E-1,0E0,4.3000366E1,3.6329544E1,0E0,9.7942185E-1,0E0,0E0,0E0,0E0,0E0,0E0],"parents":[2147483647,0,0,1,1,2,2,3,3,5,5,7,7,8,8,10,10],"right_children":[2,4,6,8,-1,10,-1,12,14,-1,16,-1,-1,-1,-1,-1,-1],"split_conditions":[1.7422867E-1,1.7819326E-1,1.798825E-1,-5.1304396E-2,5.6307595E-2,-1.6352254E-1,5.668637E-2,3.1212375E-1,1.1553354E-1,-7.996051E-3,9.785714E2,-3.0244244E-2,-2.5050878E-3,-3.0734947E-2,5.0039557E-3,2.6467382E-3,4.778877E-2],"split_indices":[1,0,1,1,0,2,0,4,4,0,3,0,0,0,0,0,0],"split_type":[0,0,0,0,0,0,0,0,0,0,0,0,0,0,0,0,0],"sum_hessian":[1.5567847E3,1.3358362E3,2.2094846E2,1.267995E3,6.784123E1,5.681339E0,2.1526712E2,6.993947E2,5.686002E2,1.0011901E0,4.6801486E0,5.0632498E2,1.9306975E2,8.225561E1,4.8634464E2,1.9561632E0,2.7239854E0],"tree_param":{"num_deleted":"0","num_feature":"11","num_nodes":"17","size_leaf_vector":"1"}},{"base_weights":[4.5991065E-3,-1.7294598E-1,1.11155E0,-2.4034199E-1,5.588738E-2,4.9461243E-1,5.6293655E-2,-4.120317E-1,3.5482254E-2,1.4211139E-1,4.3448802E-2,-3.0798933E-2,-1.2600787E-2,-1.9480534E-2,6.8486384E-3,-2.3312548E-2,2.4774091E-2],"categories":[],"categories_nodes":[],"categories_segments":[],"categories_sizes":[],"default_left":[0,0,0,0,0,0,0,0,0,0,0,0,0,0,0,0,0],"id":29,"left_children":[1,3,5,7,-1,9,-1,11,13,15,-1,-1,-1,-1,-1,-1,-1],"loss_changes":[3.0254565E2,1.1567085E2,1.3233643E0,5.976101E1,0E0,7.4897254E-1,0E0,2.5224411E1,2.0975569E1,1.2200525E0,0E0,0E0,0E0,0E0,0E0,0E0,0E0],"parents":[2147483647,0,0,1,1,2,2,3,3,5,5,7,7,8,8,9,9],"right_children":[2,4,6,8,-1,10,-1,12,14,16,-1,-1,-1,-1,-1,-1,-1],"split_conditions":[1.7422867E-1,1.7819326E-1,1.798825E-1,5.276932E-3,5.588738E-2,7E0,5.6293655E-2,-1E-1,1.3989197E-1,2.4714285E2,4.3448802E-2,-3.0798933E-2,-1.2600787E-2,-1.9480534E-2,6.8486384E-3,-2.3312548E-2,2.4774091E-2],"split_indices":[1,0,1,2,0,8,0,0,4,6,0,0,0,0,0,0,0],"split_type":[0,0,0,0,0,0,0,0,0,0,0,0,0,0,0,0,0],"sum_hessian":[1.5374304E3,1.3256514E3,2.1177895E2,1.2606385E3,6.501284E1,5.611401E0,2.0616754E2,7.7668744E2,4.8395114E2,3.6006422E0,2.0107589E0,3.4021716E2,4.3647025E2,9.272668E1,3.912245E2,1.2056155E0,2.3950264E0],"tree_param":{"num_deleted":"0","num_feature":"11","num_nodes":"17","size_leaf_vector":"1"}},{"base_weights":[4.6432167E-3,-1.6558857E-1,1.1035007E0,-2.8363922E-1,5.320669E-1,4.8136768E-1,5.5923928E-2,-4.3647084E-1,-1.1956053E-2,2.4360414E-1,5.548954E-2,-3.4024206E-3,6.731714E-1,-2.9575845E-2,-6.9523393E-3,-2.1874039E-2,6.807904E-3,1.5876947E-3,2.6969967E-2,8.447895E-3,4.506634E-2],"categories":[],"categories_nodes":[],"categories_segments":[],"categories_sizes":[],"default_left":[0,0,0,0,0,0,0,0,0,0,0,0,0,0,0,0,0,0,0,0,0],"id":30,"left_children":[1,3,5,7,9,11,-1,13,15,17,-1,-1,19,-1,-1,-1,-1,-1,-1,-1,-1],"loss_changes":[2.8439456E2,1.0856996E2,1.3618927E0,4.6771645E1,3.1537403E1,7.360256E-1,0E0,3.3164154E1,2.5686483E1,8.040384E0,0E0,0E0,4.1678023E-1,0E0,0E0,0E0,0E0,0E0,0E0,0E0,0E0],"parents":[2147483647,0,0,1,1,2,2,3,3,4,4,5,5,7,7,8,8,9,9,12,12],"right_children":[2,4,6,8,10,12,-1,14,16,18,-1,-1,20,-1,-1,-1,-1,-1,-1,-1,-1],"split_conditions":[1.7422867E-1,9.2989706E-2,1.798825E-1,-1.3435498E-2,1.7819326E-1,7E0,5.5923928E-2,2.74511E-1,1.3989197E-1,2.3532763E-1,5.548954E-2,-3.4024206E-3,6.8965517E-3,-2.9575845E-2,-6.9523393E-3,-2.1874039E-2,6.807904E-3,1.5876947E-3,2.6969967E-2,8.447895E-3,4.506634E-2],"split_indices":[1,0,1,1,0,9,0,4,4,4,0,0,5,0,0,0,0,0,0,0,0],"split_type":[0,0,0,0,0,0,0,0,0,0,0,0,0,0,0,0,0,0,0,0,0],"sum_hessian":[1.518358E3,1.3154254E3,2.0293256E2,1.125562E3,1.898635E2,5.5497923E0,1.9738277E2,7.199548E2,4.0560718E2,1.27582214E2,6.2281277E1,1.6030685E0,3.9467237E0,4.726009E2,2.4735391E2,1.0422374E2,3.0138342E2,7.4984924E1,5.259729E1,1.771757E0,2.1749668E0],"tree_param":{"num_deleted":"0","num_feature":"11","num_nodes":"21","size_leaf_vector":"1"}},{"base_weights":[4.6937373E-3,-1.5848969E-1,1.0958627E0,-2.1967705E-1,5.511228E-2,4.6931273E-1,5.5575456E-2,-3.8418525E-1,4.0762056E-2,1.2151158E-1,4.241162E-2,-2.913107E-2,-1.15098E-2,-2.4305077E-3,2.4998458E-2,2.383048E-2,-2.4181057E-2],"categories":[],"categories_nodes":[],"categories_segments":[],"categories_sizes":[],"default_left":[0,0,0,0,0,0,0,0,0,0,0,0,0,0,0,0,0],"id":31,"left_children":[1,3,5,7,-1,9,-1,11,13,15,-1,-1,-1,-1,-1,-1,-1],"loss_changes":[2.6744858E2,1.0103705E2,1.3939056E0,5.3441967E1,0E0,7.524339E-1,0E0,2.3221863E1,1.9873253E1,1.2086241E0,0E0,0E0,0E0,0E0,0E0,0E0,0E0],"parents":[2147483647,0,0,1,1,2,2,3,3,5,5,7,7,8,8,9,9],"right_children":[2,4,6,8,-1,10,-1,12,14,16,-1,-1,-1,-1,-1,-1,-1],"split_conditions":[1.7422867E-1,1.7819326E-1,1.798825E-1,5.276932E-3,5.511228E-2,7E0,5.5575456E-2,-1E-1,4.724E-1,3.9051E-2,4.241162E-2,-2.913107E-2,-1.15098E-2,-2.4305077E-3,2.4998458E-2,2.383048E-2,-2.4181057E-2],"split_indices":[1,0,1,2,0,8,0,0,2,0,0,0,0,0,0,0,0],"split_type":[0,0,0,0,0,0,0,0,0,0,0,0,0,0,0,0,0],"sum_hessian":[1.5000325E3,1.3056312E3,1.944013E2,1.2459855E3,5.9645752E1,5.4914837E0,1.8890982E2,7.633407E2,4.8264474E2,3.5519316E0,1.9395522E0,3.3231897E2,4.3102176E2,4.047628E2,7.788196E1,2.372256E0,1.1796757E0],"tree_param":{"num_deleted":"0","num_feature":"11","num_nodes":"17","size_leaf_vector":"1"}},{"base_weights":[4.7549405E-3,-1.517011E-1,1.0885639E0,-2.1002313E-1,5.4753937E-2,4.567412E-1,5.524667E-2,-3.9523166E-1,1.2322567E-2,1.15766466E-1,4.1690435E-2,-2.8407712E-2,-3.386093E-3,-2.7806196E-2,5.375632E-3,-2.3352433E-2,2.3334188E-2],"categories":[],"categories_nodes":[],"categories_segments":[],"categories_sizes":[],"default_left":[0,0,0,0,0,0,0,0,0,0,0,0,0,0,0,0,0],"id":32,"left_children":[1,3,5,7,-1,9,-1,11,13,15,-1,-1,-1,-1,-1,-1,-1],"loss_changes":[2.5160506E2,9.45153E1,1.4312286E0,5.104957E1,0E0,7.3038745E-1,0E0,3.8261612E1,3.0592457E1,1.1462127E0,0E0,0E0,0E0,0E0,0E0,0E0,0E0],"parents":[2147483647,0,0,1,1,2,2,3,3,5,5,7,7,8,8,9,9],"right_children":[2,4,6,8,-1,10,-1,12,14,16,-1,-1,-1,-1,-1,-1,-1],"split_conditions":[1.7422867E-1,1.7819326E-1,1.798825E-1,-5.1304396E-2,5.4753937E-2,7E0,5.524667E-2,2.8042844E-1,1.1553354E-1,2.4714285E2,4.1690435E-2,-2.8407712E-2,-3.386093E-3,-2.7806196E-2,5.375632E-3,-2.3352433E-2,2.3334188E-2],"split_indices":[1,0,1,1,0,8,0,4,4,6,0,0,0,0,0,0,0],"split_type":[0,0,0,0,0,0,0,0,0,0,0,0,0,0,0,0,0],"sum_hessian":[1.4818225E3,1.2956462E3,1.8617632E2,1.2385411E3,5.7105106E1,5.4316044E0,1.807447E2,6.752755E2,5.6326556E2,3.538671E0,1.8929335E0,4.414557E2,2.3381982E2,8.00986E1,4.8316696E2,1.2055376E0,2.3331335E0],"tree_param":{"num_deleted":"0","num_feature":"11","num_nodes":"17","size_leaf_vector":"1"}},{"base_weights":[4.765568E-3,-1.451552E-1,1.0815969E0,-2.8709385E-1,3.4463012E-1,4.4462124E-1,5.493615E-2,-3.7077594E-1,1.9295949E-1,1.6711085E-1,5.441301E-2,-4.306221E-3,6.3878435E-1,-3.0768663E-2,-1.275254E-2,-8.515959E-3,2.1859111E-2,-1.523137E-2,1.4752469E-2,7.0517333E-3,4.361398E-2],"categories":[],"categories_nodes":[],"categories_segments":[],"categories_sizes":[],"default_left":[0,0,0,0,0,0,0,0,0,0,0,0,0,0,0,0,0,0,0,0,0],"id":33,"left_children":[1,3,5,7,9,11,-1,13,15,17,-1,-1,19,-1,-1,-1,-1,-1,-1,-1,-1],"loss_changes":[2.367984E2,8.9609856E1,1.4669647E0,4.019584E1,3.806775E1,7.117741E-1,0E0,2.3928429E1,1.3287134E1,1.4278555E1,0E0,0E0,4.3309355E-1,0E0,0E0,0E0,0E0,0E0,0E0,0E0,0E0],"parents":[2147483647,0,0,1,1,2,2,3,3,4,4,5,5,7,7,8,8,9,9,12,12],"right_children":[2,4,6,8,10,12,-1,14,16,18,-1,-1,20,-1,-1,-1,-1,-1,-1,-1,-1],"split_conditions":[1.7422867E-1,4.6795554E-2,1.798825E-1,5.882353E-2,1.7819326E-1,7E0,5.493615E-2,1.6793163E-1,1.7629915E-1,1.3989197E-1,5.441301E-2,-4.306221E-3,6.8965517E-3,-3.0768663E-2,-1.275254E-2,-8.515959E-3,2.1859111E-2,-1.523137E-2,1.4752469E-2,7.0517333E-3,4.361398E-2],"split_indices":[1,0,1,1,0,9,0,4,4,4,0,0,5,0,0,0,0,0,0,0,0],"split_type":[0,0,0,0,0,0,0,0,0,0,0,0,0,0,0,0,0,0,0,0,0],"sum_hessian":[1.464822E3,1.2865663E3,1.7825574E2,9.9781555E2,2.8875076E2,5.373134E0,1.728826E2,8.4989154E2,1.4792403E2,2.3409285E2,5.4657894E1,1.588204E0,3.7849298E0,2.7157385E2,5.783177E2,5.9588856E1,8.8335175E1,4.9648094E1,1.8444476E2,1.720755E0,2.064175E0],"tree_param":{"num_deleted":"0","num_feature":"11","num_nodes":"21","size_leaf_vector":"1"}},{"base_weights":[4.7954326E-3,-1.3885194E-1,1.0749481E0,-1.9178995E-1,5.4088093E-2,4.3356732E-1,5.4642536E-2,-3.9519447E-1,-1.520863E-3,9.717266E-2,4.0744044E-2,-2.3616958E-2,3.8771722E-3,-3.3371802E-2,4.7016237E-3,2.2409165E-2,-2.4050346E-2],"categories":[],"categories_nodes":[],"categories_segments":[],"categories_sizes":[],"default_left":[0,0,0,0,0,0,0,0,0,0,0,0,0,0,0,0,0],"id":34,"left_children":[1,3,5,7,-1,9,-1,11,13,15,-1,-1,-1,-1,-1,-1,-1],"loss_changes":[2.2294736E2,8.283287E1,1.4969635E0,4.7462803E1,0E0,7.312814E-1,0E0,2.1653137E1,4.044651E1,1.1272764E0,0E0,0E0,0E0,0E0,0E0,0E0,0E0],"parents":[2147483647,0,0,1,1,2,2,3,3,5,5,7,7,8,8,9,9],"right_children":[2,4,6,8,-1,10,-1,12,14,16,-1,-1,-1,-1,-1,-1,-1],"split_conditions":[1.7422867E-1,1.7819326E-1,1.798825E-1,-5.997298E-2,5.4088093E-2,7E0,5.4642536E-2,3.1928572E3,1.1553354E-1,3.9051E-2,4.0744044E-2,-2.3616958E-2,3.8771722E-3,-3.3371802E-2,4.7016237E-3,2.2409165E-2,-2.4050346E-2],"split_indices":[1,0,1,2,0,8,0,3,4,0,0,0,0,0,0,0,0],"split_type":[0,0,0,0,0,0,0,0,0,0,0,0,0,0,0,0,0],"sum_hessian":[1.4483326E3,1.2776967E3,1.7063591E2,1.2253942E3,5.230248E1,5.318344E0,1.6531757E2,5.9173315E2,6.336611E2,3.492287E0,1.8260573E0,5.0871786E2,8.301528E1,7.876431E1,5.548967E2,2.3129442E0,1.1793426E0],"tree_param":{"num_deleted":"0","num_feature":"11","num_nodes":"17","size_leaf_vector":"1"}},{"base_weights":[4.79827E-3,-1.3280708E-1,1.0685583E0,-2.6615644E-1,3.2998458E-1,4.2205882E-1,5.436462E-2,-3.4657806E-1,1.8998216E-1,1.6633499E-1,5.37779E-2,9.227006E-2,4.0071726E-2,-2.9215276E-2,-1.1780431E-2,-7.623482E-3,2.097301E-2,2.2398399E-3,3.198903E-2,-1.9060094E-2,2.5624199E-2],"categories":[],"categories_nodes":[],"categories_segments":[],"categories_sizes":[],"default_left":[0,0,0,0,0,0,0,0,0,0,0,0,0,0,0,0,0,0,0,0,0],"id":35,"left_children":[1,3,5,7,9,11,-1,13,15,17,-1,19,-1,-1,-1,-1,-1,-1,-1,-1,-1],"loss_changes":[2.0997638E2,7.847537E1,1.5311127E0,3.6258507E1,3.45427E1,7.094617E-1,0E0,2.199813E1,1.1735775E1,1.3466976E1,0E0,1.0866615E0,0E0,0E0,0E0,0E0,0E0,0E0,0E0,0E0,0E0],"parents":[2147483647,0,0,1,1,2,2,3,3,4,4,5,5,7,7,8,8,9,9,11,11],"right_children":[2,4,6,8,10,12,-1,14,16,18,-1,20,-1,-1,-1,-1,-1,-1,-1,-1,-1],"split_conditions":[1.7422867E-1,4.6795554E-2,1.798825E-1,5.882353E-2,1.7819326E-1,7E0,5.436462E-2,1.6793163E-1,1.7629915E-1,3.2085454E-1,5.37779E-2,1.3539597E-1,4.0071726E-2,-2.9215276E-2,-1.1780431E-2,-7.623482E-3,2.097301E-2,2.2398399E-3,3.198903E-2,-1.9060094E-2,2.5624199E-2],"split_indices":[1,0,1,1,0,8,0,4,4,4,0,2,0,0,0,0,0,0,0,0,0],"split_type":[0,0,0,0,0,0,0,0,0,0,0,0,0,0,0,0,0,0,0,0,0],"sum_hessian":[1.4325006E3,1.2691957E3,1.6330484E2,9.856222E2,2.8357352E2,5.261579E0,1.5804326E2,8.380977E2,1.4752449E2,2.3353651E2,5.0036987E1,3.479815E0,1.7817643E0,2.653591E2,5.7273865E2,5.9326572E1,8.819792E1,1.867027E2,4.683382E1,1.6798729E0,1.7999421E0],"tree_param":{"num_deleted":"0","num_feature":"11","num_nodes":"21","size_leaf_vector":"1"}},{"base_weights":[4.8453696E-3,-1.269611E-1,1.0625159E0,-1.7501335E-1,5.348124E-2,4.126559E-1,5.4101307E-2,-2.5804913E-1,2.5696495E-1,8.956148E-2,3.9418112E-2,-2.4511345E-2,-5.6387945E-3,7.046929E-3,3.1102914E-2,-2.3381649E-2,2.193195E-2],"categories":[],"categories_nodes":[],"categories_segments":[],"categories_sizes":[],"default_left":[0,0,0,0,0,0,0,0,0,0,0,0,0,0,0,0,0],"id":36,"left_children":[1,3,5,7,-1,9,-1,11,13,15,-1,-1,-1,-1,-1,-1,-1],"loss_changes":[1.978371E2,7.274497E1,1.5473022E0,4.361366E1,0E0,6.819993E-1,0E0,3.430815E1,8.225209E0,1.0729109E0,0E0,0E0,0E0,0E0,0E0,0E0,0E0],"parents":[2147483647,0,0,1,1,2,2,3,3,5,5,7,7,8,8,9,9],"right_children":[2,4,6,8,-1,10,-1,12,14,16,-1,-1,-1,-1,-1,-1,-1],"split_conditions":[1.7422867E-1,1.7819326E-1,1.798825E-1,2.3416086E-1,5.348124E-2,7E0,5.4101307E-2,-1E-1,4.9333334E-1,2.4714285E2,3.9418112E-2,-2.4511345E-2,-5.6387945E-3,7.046929E-3,3.1102914E-2,-2.3381649E-2,2.193195E-2],"split_indices":[1,0,1,2,0,8,0,0,5,6,0,0,0,0,0,0,0],"split_type":[0,0,0,0,0,0,0,0,0,0,0,0,0,0,0,0,0],"sum_hessian":[1.4171573E3,1.260904E3,1.5625339E2,1.2130446E3,4.785946E1,5.1999736E0,1.510534E2,1.017803E3,1.952416E2,3.461546E0,1.7384274E0,3.908178E2,6.269851E2,1.4920909E2,4.6032497E1,1.2025005E0,2.2590456E0],"tree_param":{"num_deleted":"0","num_feature":"11","num_nodes":"17","size_leaf_vector":"1"}},{"base_weights":[4.892422E-3,-1.21353164E-1,1.0566112E0,-1.6714366E-1,5.3196993E-2,4.018216E-1,5.3851526E-2,-3.7867785E-1,-1.5819091E-3,8.504116E-2,3.8782127E-2,-2.7345566E-2,1.3045815E-4,-2.8559303E-2,4.840355E-3,2.1624569E-2,-2.3769809E-2],"categories":[],"categories_nodes":[],"categories_segments":[],"categories_sizes":[],"default_left":[0,0,0,0,0,0,0,0,0,0,0,0,0,0,0,0,0],"id":37,"left_children":[1,3,5,7,-1,9,-1,11,13,15,-1,-1,-1,-1,-1,-1,-1],"loss_changes":[1.8643652E2,6.822276E1,1.5792847E0,4.230369E1,0E0,6.6184807E-1,0E0,3.4019737E1,3.8086082E1,1.0721233E0,0E0,0E0,0E0,0E0,0E0,0E0,0E0],"parents":[2147483647,0,0,1,1,2,2,3,3,5,5,7,7,8,8,9,9],"right_children":[2,4,6,8,-1,10,-1,12,14,16,-1,-1,-1,-1,-1,-1,-1],"split_conditions":[1.7422867E-1,1.7819326E-1,1.798825E-1,-1E-1,5.3196993E-2,7E0,5.3851526E-2,3.1212375E-1,1.1553354E-1,3.9051E-2,3.8782127E-2,-2.7345566E-2,1.3045815E-4,-2.8559303E-2,4.840355E-3,2.1624569E-2,-2.3769809E-2],"split_indices":[1,0,1,1,0,8,0,4,4,0,0,0,0,0,0,0,0],"split_type":[0,0,0,0,0,0,0,0,0,0,0,0,0,0,0,0,0],"sum_hessian":[1.4021897E3,1.2527031E3,1.4948662E2,1.2069355E3,4.5767612E1,5.1460476E0,1.4434056E2,5.2933276E2,6.776027E2,3.449982E0,1.6960657E0,3.6697833E2,1.6235446E2,9.909661E1,5.785061E2,2.2705946E0,1.1793873E0],"tree_param":{"num_deleted":"0","num_feature":"11","num_nodes":"17","size_leaf_vector":"1"}},{"base_weights":[4.8639737E-3,-1.13646224E-1,5.361433E-2,-1.5777278E-1,5.3026825E-2,-3.995443E-1,-1.9580986E-2,-2.766946E-2,-7.0937434E-3,-1.5222265E-2,8.534726E-3],"categories":[],"categories_nodes":[],"categories_segments":[],"categories_sizes":[],"default_left":[0,0,0,0,0,0,0,0,0,0,0],"id":38,"left_children":[1,3,-1,5,-1,7,9,-1,-1,-1,-1],"loss_changes":[1.7582957E2,6.498966E1,0E0,4.03073E1,0E0,1.7316154E1,4.1725407E1,0E0,0E0,0E0,0E0],"parents":[2147483647,0,0,1,1,3,3,5,5,6,6],"right_children":[2,4,-1,6,-1,8,10,-1,-1,-1,-1],"split_conditions":[1.798825E-1,1.7819326E-1,5.361433E-2,-1E-1,5.3026825E-2,-1.00412294E-1,1.6869792E-1,-2.766946E-2,-7.0937434E-3,-1.5222265E-2,8.534726E-3],"split_indices":[1,0,0,0,0,1,4,0,0,0,0],"split_type":[0,0,0,0,0,0,0,0,0,0,0],"sum_hessian":[1.3879888E3,1.2500913E3,1.378974E2,1.205648E3,4.4443405E1,4.3780356E2,7.6784436E2,2.7341183E2,1.6439175E2,3.0725232E2,4.6059207E2],"tree_param":{"num_deleted":"0","num_feature":"11","num_nodes":"11","size_leaf_vector":"1"}},{"base_weights":[4.8199105E-3,-1.085645E-1,5.338883E-2,-1.505889E-1,5.2761197E-2,-3.398114E-1,2.1483717E-2,-2.0891933E-2,6.805456E-3,-2.967763E-2,5.3540785E-3],"categories":[],"categories_nodes":[],"categories_segments":[],"categories_sizes":[],"default_left":[0,0,0,0,0,0,0,0,0,0,0],"id":39,"left_children":[1,3,-1,5,-1,7,9,-1,-1,-1,-1],"loss_changes":[1.6594893E2,6.1011177E1,0E0,3.9136093E1,0E0,2.131314E1,3.3248013E1,0E0,0E0,0E0,0E0],"parents":[2147483647,0,0,1,1,3,3,5,5,6,6],"right_children":[2,4,-1,6,-1,8,10,-1,-1,-1,-1],"split_conditions":[1.798825E-1,1.7819326E-1,5.338883E-2,-5.997298E-2,5.2761197E-2,3.1928572E3,1.1553354E-1,-2.0891933E-2,6.805456E-3,-2.967763E-2,5.3540785E-3],"split_indices":[1,0,0,2,0,3,4,0,0,0,0],"split_type":[0,0,0,0,0,0,0,0,0,0,0],"sum_hessian":[1.3749482E3,1.2432319E3,1.3171632E2,1.2007437E3,4.248824E1,5.714092E2,6.293345E2,4.9102728E2,8.038194E1,7.616203E1,5.531724E2],"tree_param":{"num_deleted":"0","num_feature":"11","num_nodes":"11","size_leaf_vector":"1"}},{"base_weights":[4.7750324E-3,-1.0374176E-1,5.317418E-2,-2.2012539E-1,3.0451006E-1,-2.9779232E-1,2.0059808E-1,1.7074567E-1,5.2505314E-2,-2.6288748E-2,-9.691822E-3,6.4082877E-3,5.309981E-2,2.9352803E-3,3.0173901E-2],"categories":[],"categories_nodes":[],"categories_segments":[],"categories_sizes":[],"default_left":[0,0,0,0,0,0,0,0,0,0,0,0,0,0,0],"id":40,"left_children":[1,3,-1,5,7,9,11,13,-1,-1,-1,-1,-1,-1,-1],"loss_changes":[1.5668054E2,5.8842705E1,0E0,3.1533062E1,2.723136E1,1.9177902E1,9.2662735E0,1.1320551E1,0E0,0E0,0E0,0E0,0E0,0E0,0E0],"parents":[2147483647,0,0,1,1,3,3,4,4,5,5,6,6,7,7],"right_children":[2,4,-1,6,8,10,12,14,-1,-1,-1,-1,-1,-1,-1],"split_conditions":[1.798825E-1,4.6795554E-2,5.317418E-2,5.882353E-2,1.7819326E-1,1.6793163E-1,5.4906976E-1,3.2085454E-1,5.2505314E-2,-2.6288748E-2,-9.691822E-3,6.4082877E-3,5.309981E-2,2.9352803E-3,3.0173901E-2],"split_indices":[1,0,0,1,0,4,2,4,0,0,0,0,0,0,0],"split_type":[0,0,0,0,0,0,0,0,0,0,0,0,0,0,0],"sum_hessian":[1.3618116E3,1.2360223E3,1.2578931E2,9.6218524E2,2.738371E2,8.1248926E2,1.4969598E2,2.3322429E2,4.061282E1,2.5318309E2,5.5930615E2,1.3914453E2,1.0551449E1,1.8616055E2,4.706374E1],"tree_param":{"num_deleted":"0","num_feature":"11","num_nodes":"15","size_leaf_vector":"1"}},{"base_weights":[4.8080296E-3,-9.904842E-2,5.2969623E-2,-1.3721593E-1,5.225832E-2,-2.777489E-1,7.785137E-2,-2.0135755E-2,2.752155E-3,-3.337814E-2,6.625858E-3],"categories":[],"categories_nodes":[],"categories_segments":[],"categories_sizes":[],"default_left":[0,0,0,0,0,0,0,0,0,0,0],"id":41,"left_children":[1,3,-1,5,-1,7,9,-1,-1,-1,-1],"loss_changes":[1.4795586E2,5.3851677E1,0E0,3.601847E1,0E0,2.9987656E1,1.9299969E1,0E0,0E0,0E0,0E0],"parents":[2147483647,0,0,1,1,3,3,5,5,6,6],"right_children":[2,4,-1,6,-1,8,10,-1,-1,-1,-1],"split_conditions":[1.798825E-1,1.7819326E-1,5.2969623E-2,-1.3435498E-2,5.225832E-2,3.1602702E-1,9.2341505E-2,-2.0135755E-2,2.752155E-3,-3.337814E-2,6.625858E-3],"split_indices":[1,0,0,1,0,4,4,0,0,0,0],"split_type":[0,0,0,0,0,0,0,0,0,0,0],"sum_hessian":[1.3489237E3,1.228815E3,1.20108765E2,1.1900002E3,3.8814693E1,7.1953674E2,4.704635E2,5.229533E2,1.9658347E2,3.1378567E1,4.3908493E2],"tree_param":{"num_deleted":"0","num_feature":"11","num_nodes":"11","size_leaf_vector":"1"}},{"base_weights":[4.7513777E-3,-9.462087E-2,5.2774437E-2,-2.0390166E-1,2.900355E-1,-2.7673447E-1,1.8627132E-1,1.6660836E-1,5.2019425E-2,-2.4820065E-2,-8.902333E-3,-5.53911E-3,1.925363E-2,-2.116852E-3,1.935888E-2],"categories":[],"categories_nodes":[],"categories_segments":[],"categories_sizes":[],"default_left":[0,0,0,0,0,0,0,0,0,0,0,0,0,0,0],"id":42,"left_children":[1,3,-1,5,7,9,11,13,-1,-1,-1,-1,-1,-1,-1],"loss_changes":[1.3977917E2,5.1471844E1,0E0,2.7135185E1,2.492611E1,1.7331242E1,8.9314995E0,1.0797054E1,0E0,0E0,0E0,0E0,0E0,0E0,0E0],"parents":[2147483647,0,0,1,1,3,3,4,4,5,5,6,6,7,7],"right_children":[2,4,-1,6,8,10,12,14,-1,-1,-1,-1,-1,-1,-1],"split_conditions":[1.798825E-1,4.6795554E-2,5.2774437E-2,5.882353E-2,1.7819326E-1,1.6793163E-1,1.7629915E-1,4.4444446E-2,5.2019425E-2,-2.4820065E-2,-8.902333E-3,-5.53911E-3,1.925363E-2,-2.116852E-3,1.935888E-2],"split_indices":[1,0,0,1,0,4,4,2,0,0,0,0,0,0,0],"split_type":[0,0,0,0,0,0,0,0,0,0,0,0,0,0,0],"sum_hessian":[1.3367433E3,1.2220768E3,1.1466652E2,9.520652E2,2.700116E2,8.025462E2,1.4951898E2,2.3292012E2,3.709148E1,2.4753473E2,5.550115E2,6.0123608E1,8.939537E1,1.2002676E2,1.12893364E2],"tree_param":{"num_deleted":"0","num_feature":"11","num_nodes":"15","size_leaf_vector":"1"}},{"base_weights":[4.7322954E-3,-9.037667E-2,5.2587938E-2,-1.2506048E-1,5.1787853E-2,-3.548015E-1,4.4009313E-3,-2.7115017E-2,-8.484503E-3,-1.7923152E-2,6.2513254E-3],"categories":[],"categories_nodes":[],"categories_segments":[],"categories_sizes":[],"default_left":[0,0,0,0,0,0,0,0,0,0,0],"id":43,"left_children":[1,3,-1,5,-1,7,9,-1,-1,-1,-1],"loss_changes":[1.3208707E2,4.7625248E1,0E0,3.511479E1,0E0,1.467651E1,3.313827E1,0E0,0E0,0E0,0E0],"parents":[2147483647,0,0,1,1,3,3,5,5,6,6],"right_children":[2,4,-1,6,-1,8,10,-1,-1,-1,-1],"split_conditions":[1.798825E-1,1.7819326E-1,5.2587938E-2,-1E-1,5.1787853E-2,-1.6666667E-1,1.3989197E-1,-2.7115017E-2,-8.484503E-3,-1.7923152E-2,6.2513254E-3],"split_indices":[1,0,0,0,0,1,4,0,0,0,0],"split_type":[0,0,0,0,0,0,0,0,0,0,0],"sum_hessian":[1.3244657E3,1.2150111E3,1.0945454E2,1.1795704E3,3.5440666E1,4.2450583E2,7.5506464E2,2.0993436E2,2.1457147E2,1.8788882E2,5.6717584E2],"tree_param":{"num_deleted":"0","num_feature":"11","num_nodes":"11","size_leaf_vector":"1"}},{"base_weights":[4.662969E-3,-8.627303E-2,5.240952E-2,-1.1931371E-1,5.1562916E-2,-1.9423951E-1,2.557817E-1,-2.0505948E-2,-3.6405164E-3,7.0879892E-3,3.0738002E-2],"categories":[],"categories_nodes":[],"categories_segments":[],"categories_sizes":[],"default_left":[0,0,0,0,0,0,0,0,0,0,0],"id":44,"left_children":[1,3,-1,5,-1,7,9,-1,-1,-1,-1],"loss_changes":[1.2485481E2,4.481245E1,0E0,3.3112976E1,0E0,2.5689945E1,7.947813E0,0E0,0E0,0E0,0E0],"parents":[2147483647,0,0,1,1,3,3,5,5,6,6],"right_children":[2,4,-1,6,-1,8,10,-1,-1,-1,-1],"split_conditions":[1.798825E-1,1.7819326E-1,5.240952E-2,2.3416086E-1,5.1562916E-2,-1.0823218E-1,4.9333334E-1,-2.0505948E-2,-3.6405164E-3,7.0879892E-3,3.0738002E-2],"split_indices":[1,0,0,2,0,0,5,0,0,0,0],"split_type":[0,0,0,0,0,0,0,0,0,0,0],"sum_hessian":[1.3137734E3,1.2093081E3,1.04465294E2,1.1754484E3,3.3859802E1,9.801452E2,1.9530316E2,3.5199084E2,6.2815436E2,1.4928181E2,4.6021336E1],"tree_param":{"num_deleted":"0","num_feature":"11","num_nodes":"11","size_leaf_vector":"1"}},{"base_weights":[4.656621E-3,-8.233204E-2,5.223855E-2,-1.1383109E-1,5.1343936E-2,-2.8563258E-1,3.8580816E-2,-1.8256478E-2,9.782887E-3,-2.643606E-2,5.7463837E-3],"categories":[],"categories_nodes":[],"categories_segments":[],"categories_sizes":[],"default_left":[0,0,0,0,0,0,0,0,0,0,0],"id":45,"left_children":[1,3,-1,5,-1,7,9,-1,-1,-1,-1],"loss_changes":[1.18041534E2,4.2183563E1,0E0,3.0690296E1,0E0,2.1149895E1,2.6989538E1,0E0,0E0,0E0,0E0],"parents":[2147483647,0,0,1,1,3,3,5,5,6,6],"right_children":[2,4,-1,6,-1,8,10,-1,-1,-1,-1],"split_conditions":[1.798825E-1,1.7819326E-1,5.223855E-2,-5.997298E-2,5.1343936E-2,3.1928572E3,1.1553354E-1,-1.8256478E-2,9.782887E-3,-2.643606E-2,5.7463837E-3],"split_indices":[1,0,0,2,0,3,4,0,0,0,0],"split_type":[0,0,0,0,0,0,0,0,0,0,0],"sum_hessian":[1.3026908E3,1.2030002E3,9.969057E1,1.1706537E3,3.234651E1,5.4991046E2,6.207432E2,4.721625E2,7.774795E1,7.2927055E1,5.4781616E2],"tree_param":{"num_deleted":"0","num_feature":"11","num_nodes":"11","size_leaf_vector":"1"}},{"base_weights":[4.5960806E-3,-7.859608E-2,5.2074503E-2,-1.7591307E-1,2.6698592E-1,-2.3981799E-1,2.163349E-1,1.6228454E-1,5.1130276E-2,-1.646542E-2,3.4589213E-4,7.3190317E-3,5.284501E-2,2.945355E-3,2.7902314E-2],"categories":[],"categories_nodes":[],"categories_segments":[],"categories_sizes":[],"default_left":[0,0,0,0,0,0,0,0,0,0,0,0,0,0,0],"id":46,"left_children":[1,3,-1,5,7,9,11,13,-1,-1,-1,-1,-1,-1,-1],"loss_changes":[1.1163849E2,4.034079E1,0E0,2.3500664E1,2.0693027E1,1.777443E1,7.582306E0,9.489897E0,0E0,0E0,0E0,0E0,0E0,0E0,0E0],"parents":[2147483647,0,0,1,1,3,3,4,4,5,5,6,6,7,7],"right_children":[2,4,-1,6,8,10,12,14,-1,-1,-1,-1,-1,-1,-1],"split_conditions":[1.798825E-1,4.6795554E-2,5.2074503E-2,7.070606E-2,1.7819326E-1,3.1212375E-1,5.4906976E-1,3.2085454E-1,5.1130276E-2,-1.646542E-2,3.4589213E-4,7.3190317E-3,5.284501E-2,2.945355E-3,2.7902314E-2],"split_indices":[1,0,0,1,0,4,2,4,0,0,0,0,0,0,0],"split_type":[0,0,0,0,0,0,0,0,0,0,0,0,0,0,0],"sum_hessian":[1.2922385E3,1.1971157E3,9.512288E1,9.3445984E2,2.6265585E2,8.0388043E2,1.3057939E2,2.3175748E2,3.0898378E1,5.8967303E2,2.1420738E2,1.2163105E2,8.94834E0,1.8466876E2,4.7088722E1],"tree_param":{"num_deleted":"0","num_feature":"11","num_nodes":"15","size_leaf_vector":"1"}},{"base_weights":[4.6296185E-3,-7.4925296E-2,5.191685E-2,-1.0355222E-1,5.092134E-2,-2.8734848E-1,3.3907704E-2,-2.1877628E-2,4.0990054E-3,-2.2418885E-2,5.6163766E-3],"categories":[],"categories_nodes":[],"categories_segments":[],"categories_sizes":[],"default_left":[0,0,0,0,0,0,0,0,0,0,0],"id":47,"left_children":[1,3,-1,5,-1,7,9,-1,-1,-1,-1],"loss_changes":[1.055904E2,3.742312E1,0E0,2.93867E1,0E0,2.7642006E1,2.5244112E1,0E0,0E0,0E0,0E0],"parents":[2147483647,0,0,1,1,3,3,5,5,6,6],"right_children":[2,4,-1,6,-1,8,10,-1,-1,-1,-1],"split_conditions":[1.798825E-1,1.7819326E-1,5.191685E-2,-1E-1,5.092134E-2,3.2568493E-1,1.1553354E-1,-2.1877628E-2,4.0990054E-3,-2.2418885E-2,5.6163766E-3],"split_indices":[1,0,0,1,0,4,4,0,0,0,0],"split_type":[0,0,0,0,0,0,0,0,0,0,0],"sum_hessian":[1.2820383E3,1.1912837E3,9.075459E1,1.1617708E3,2.951302E1,4.966349E2,6.651358E2,3.5291956E2,1.4371533E2,9.236561E1,5.727702E2],"tree_param":{"num_deleted":"0","num_feature":"11","num_nodes":"11","size_leaf_vector":"1"}},{"base_weights":[4.551751E-3,-7.152102E-2,5.176509E-2,-3.102808E-1,5.554065E-2,-5.1662725E-1,-1.364376E-1,-2.0255312E-1,2.1480209E-1,-3.911032E-2,-1.4375107E-2,-2.6466543E-2,-7.249225E-4,-2.5098685E-2,-8.714149E-4,8.537447E-3,5.0408583E-2],"categories":[],"categories_nodes":[],"categories_segments":[],"categories_sizes":[],"default_left":[0,0,0,0,0,0,0,0,0,0,0,0,0,0,0,0,0],"id":48,"left_children":[1,3,-1,5,7,9,11,13,15,-1,-1,-1,-1,-1,-1,-1,-1],"loss_changes":[9.991436E1,3.6018417E1,0E0,1.4720634E1,3.191457E1,1.1226101E1,1.0779057E1,1.6420368E1,1.6603214E1,0E0,0E0,0E0,0E0,0E0,0E0,0E0,0E0],"parents":[2147483647,0,0,1,1,3,3,4,4,5,5,6,6,7,7,8,8],"right_children":[2,4,-1,6,8,10,12,14,16,-1,-1,-1,-1,-1,-1,-1,-1],"split_conditions":[1.798825E-1,-1E-1,5.176509E-2,6E0,1.6869792E-1,2.3807514E-1,-3.2363635E-1,-4E-2,1.7819326E-1,-3.911032E-2,-1.4375107E-2,-2.6466543E-2,-7.249225E-4,-2.5098685E-2,-8.714149E-4,8.537447E-3,5.0408583E-2],"split_indices":[1,0,0,8,4,4,1,1,0,0,0,0,0,0,0,0,0],"split_type":[0,0,0,0,0,0,0,0,0,0,0,0,0,0,0,0,0],"sum_hessian":[1.2722782E3,1.1857002E3,8.6577995E1,4.1133133E2,7.743689E2,1.8718126E2,2.2415007E2,2.95393E2,4.789759E2,8.557606E1,1.0160521E2,5.2299114E1,1.7185097E2,1.1220359E2,1.831894E2,4.5493036E2,2.4045532E1],"tree_param":{"num_deleted":"0","num_feature":"11","num_nodes":"17","size_leaf_vector":"1"}},{"base_weights":[4.4042263E-3,-6.8310834E-2,5.161875E-2,-9.45512E-2,5.0551128E-2,-1.551794E-1,2.8568396E-1,-3.2506783E-2,-5.505858E-3,4.828816E-3,2.5511354E-2],"categories":[],"categories_nodes":[],"categories_segments":[],"categories_sizes":[],"default_left":[0,0,0,0,0,0,0,0,0,0,0],"id":49,"left_children":[1,3,-1,5,-1,7,9,-1,-1,-1,-1],"loss_changes":[9.45755E1,3.356417E1,0E0,2.6660816E1,0E0,2.2153019E1,6.707897E0,0E0,0E0,0E0,0E0],"parents":[2147483647,0,0,1,1,3,3,5,5,6,6],"right_children":[2,4,-1,6,-1,8,10,-1,-1,-1,-1],"split_conditions":[1.798825E-1,1.7819326E-1,5.161875E-2,2.777778E-1,5.0551128E-2,-3.956605E-1,2.8571429E-2,-3.2506783E-2,-5.505858E-3,4.828816E-3,2.5511354E-2],"split_indices":[1,0,0,2,0,1,5,0,0,0,0],"split_type":[0,0,0,0,0,0,0,0,0,0,0],"sum_hessian":[1.2632983E3,1.1807124E3,8.258592E1,1.1535793E3,2.7133005E1,9.954479E2,1.581315E2,8.194541E1,9.1350244E2,8.661524E1,7.151626E1],"tree_param":{"num_deleted":"0","num_feature":"11","num_nodes":"11","size_leaf_vector":"1"}},{"base_weights":[4.3717683E-3,-6.5137185E-2,5.1477384E-2,-1.5249114E-1,2.4671613E-1,-2.1660961E-1,1.8027736E-1,1.5742415E-1,5.0352436E-2,-1.4390214E-2,2.6825662E-3,5.8127637E-3,4.9173474E-2,-6.826418E-3,1.4323545E-2],"categories":[],"categories_nodes":[],"categories_segments":[],"categories_sizes":[],"default_left":[0,0,0,0,0,0,0,0,0,0,0,0,0,0,0],"id":50,"left_children":[1,3,-1,5,7,9,11,13,-1,-1,-1,-1,-1,-1,-1],"loss_changes":[8.9522835E1,3.2089886E1,0E0,1.9663393E1,1.7346777E1,1.4862194E1,7.554469E0,8.837027E0,0E0,0E0,0E0,0E0,0E0,0E0,0E0],"parents":[2147483647,0,0,1,1,3,3,4,4,5,5,6,6,7,7],"right_children":[2,4,-1,6,8,10,12,14,-1,-1,-1,-1,-1,-1,-1],"split_conditions":[1.798825E-1,4.6795554E-2,5.1477384E-2,5.882353E-2,1.7819326E-1,5.882353E-1,5.4906976E-1,-8.3333336E-2,5.0352436E-2,-1.4390214E-2,2.6825662E-3,5.8127637E-3,4.9173474E-2,-6.826418E-3,1.4323545E-2],"split_indices":[1,0,0,1,0,5,2,2,0,0,0,0,0,0,0],"split_type":[0,0,0,0,0,0,0,0,0,0,0,0,0,0,0],"sum_hessian":[1.2543628E3,1.1755918E3,7.877098E1,9.187497E2,2.5684207E2,7.706152E2,1.4813455E2,2.3092924E2,2.5912836E1,6.098879E2,1.6072731E2,1.3825874E2,9.875802E0,7.043318E1,1.6049606E2],"tree_param":{"num_deleted":"0","num_feature":"11","num_nodes":"15","size_leaf_vector":"1"}},{"base_weights":[4.3834965E-3,-6.206162E-2,5.134059E-2,-2.8456846E-1,5.5535138E-2,-4.863721E-1,-1.16102986E-1,-1.9006799E-1,2.065751E-1,-3.7582483E-2,-1.305473E-2,-2.447624E-2,-1.6376478E-4,-2.380778E-2,-8.141987E-4,-1.2521421E-2,1.3730417E-2],"categories":[],"categories_nodes":[],"categories_segments":[],"categories_sizes":[],"default_left":[0,0,0,0,0,0,0,0,0,0,0,0,0,0,0,0,0],"id":51,"left_children":[1,3,-1,5,7,9,11,13,15,-1,-1,-1,-1,-1,-1,-1,-1],"loss_changes":[8.47517E1,3.0668571E1,0E0,1.3719757E1,2.8501093E1,1.0802986E1,9.358756E0,1.4543868E1,1.4854731E1,0E0,0E0,0E0,0E0,0E0,0E0,0E0,0E0],"parents":[2147483647,0,0,1,1,3,3,4,4,5,5,6,6,7,7,8,8],"right_children":[2,4,-1,6,8,10,12,14,16,-1,-1,-1,-1,-1,-1,-1,-1],"split_conditions":[1.798825E-1,-1E-1,5.134059E-2,6E0,1.6869792E-1,2.3807514E-1,-3.2363635E-1,-4E-2,-3.3191714E-1,-3.7582483E-2,-1.305473E-2,-2.447624E-2,-1.6376478E-4,-2.380778E-2,-8.141987E-4,-1.2521421E-2,1.3730417E-2],"split_indices":[1,0,0,8,4,4,1,1,2,0,0,0,0,0,0,0,0],"split_type":[0,0,0,0,0,0,0,0,0,0,0,0,0,0,0,0,0],"sum_hessian":[1.2455963E3,1.1704696E3,7.5126656E1,4.042194E2,7.6625024E2,1.830536E2,2.2116577E2,2.9168637E2,4.7456387E2,8.299066E1,1.0006294E2,5.054386E1,1.7062192E2,1.0956983E2,1.8211653E2,6.1145664E1,4.134182E2],"tree_param":{"num_deleted":"0","num_feature":"11","num_nodes":"17","size_leaf_vector":"1"}},{"base_weights":[4.167532E-3,-5.930453E-2,5.1207956E-2,-8.300051E-2,5.012514E-2,-5.851397E-1,-4.2817164E-2,-3.2417234E-2,2.289133E-2,-8.791474E-3,7.7576726E-3],"categories":[],"categories_nodes":[],"categories_segments":[],"categories_sizes":[],"default_left":[0,0,0,0,0,0,0,0,0,0,0],"id":52,"left_children":[1,3,-1,5,-1,7,9,-1,-1,-1,-1],"loss_changes":[8.028261E1,2.9457539E1,0E0,2.3036228E1,0E0,5.874054E0,2.7921543E1,0E0,0E0,0E0,0E0],"parents":[2147483647,0,0,1,1,3,3,5,5,6,6],"right_children":[2,4,-1,6,-1,8,10,-1,-1,-1,-1],"split_conditions":[1.798825E-1,1.7819326E-1,5.1207956E-2,-3.956605E-1,5.012514E-2,1.2091196E0,2.3680846E-1,-3.2417234E-2,2.289133E-2,-8.791474E-3,7.7576726E-3],"split_indices":[1,0,0,1,0,4,4,0,0,0,0],"split_type":[0,0,0,0,0,0,0,0,0,0,0],"sum_hessian":[1.2381207E3,1.1664752E3,7.164559E1,1.1419133E3,2.4561842E1,8.360512E1,1.0583082E3,7.918479E1,4.4203258E0,6.3307214E2,4.2523605E2],"tree_param":{"num_deleted":"0","num_feature":"11","num_nodes":"11","size_leaf_vector":"1"}},{"base_weights":[4.1187997E-3,-5.649639E-2,5.1079076E-2,-7.90779E-2,4.99316E-2,-2.6892582E-1,2.3870949E-2,-2.3256376E-2,-5.3286315E-3,-1.4265214E-2,6.1352802E-3],"categories":[],"categories_nodes":[],"categories_segments":[],"categories_sizes":[],"default_left":[0,0,0,0,0,0,0,0,0,0,0],"id":53,"left_children":[1,3,-1,5,-1,7,9,-1,-1,-1,-1],"loss_changes":[7.6039185E1,2.7805029E1,0E0,2.2291473E1,0E0,1.2723452E1,2.2654305E1,0E0,0E0,0E0,0E0],"parents":[2147483647,0,0,1,1,3,3,5,5,6,6],"right_children":[2,4,-1,6,-1,8,10,-1,-1,-1,-1],"split_conditions":[1.798825E-1,1.7819326E-1,5.1079076E-2,-1E-1,4.99316E-2,6E0,1.3989197E-1,-2.3256376E-2,-5.3286315E-3,-1.4265214E-2,6.1352802E-3],"split_indices":[1,0,0,0,0,8,4,0,0,0,0],"split_type":[0,0,0,0,0,0,0,0,0,0,0],"sum_hessian":[1.2309915E3,1.16267E3,6.832142E1,1.139214E3,2.345603E1,3.9998663E2,7.3922736E2,1.80269E2,2.1971764E2,1.7861041E2,5.6061694E2],"tree_param":{"num_deleted":"0","num_feature":"11","num_nodes":"11","size_leaf_vector":"1"}},{"base_weights":[4.047365E-3,-5.384592E-2,5.0953623E-2,-7.53719E-2,4.9739715E-2,-1.3101892E-1,2.7007747E-1,-1.8746745E-2,-2.6554659E-3,4.421661E-3,2.4308404E-2],"categories":[],"categories_nodes":[],"categories_segments":[],"categories_sizes":[],"default_left":[0,0,0,0,0,0,0,0,0,0,0],"id":54,"left_children":[1,3,-1,5,-1,7,9,-1,-1,-1,-1],"loss_changes":[7.2037766E1,2.6255579E1,0E0,2.1900255E1,0E0,1.8608927E1,6.163826E0,0E0,0E0,0E0,0E0],"parents":[2147483647,0,0,1,1,3,3,5,5,6,6],"right_children":[2,4,-1,6,-1,8,10,-1,-1,-1,-1],"split_conditions":[1.798825E-1,1.7819326E-1,5.0953623E-2,2.777778E-1,4.9739715E-2,1.4875658E-1,2.8571429E-2,-1.8746745E-2,-2.6554659E-3,4.421661E-3,2.4308404E-2],"split_indices":[1,0,0,2,0,4,5,0,0,0,0],"split_type":[0,0,0,0,0,0,0,0,0,0,0],"sum_hessian":[1.2239668E3,1.158819E3,6.514781E1,1.1364193E3,2.2399742E1,9.7929016E2,1.5712909E2,2.3614992E2,7.4314026E2,8.613438E1,7.099472E1],"tree_param":{"num_deleted":"0","num_feature":"11","num_nodes":"11","size_leaf_vector":"1"}},{"base_weights":[4.0259794E-3,-5.1296998E-2,5.0831225E-2,-2.5500357E-1,5.545767E-2,-4.4513166E-1,-9.9079065E-2,-3.2562498E-2,3.9150447E-1,-3.3903774E-2,-8.883839E-3,-9.864975E-3,1.6085511E-2,-4.0855664E-3,3.157623E-2,1.5398909E-2,5.0854065E-2],"categories":[],"categories_nodes":[],"categories_segments":[],"categories_sizes":[],"default_left":[0,0,0,0,0,0,0,0,0,0,0,0,0,0,0,0,0],"id":55,"left_children":[1,3,-1,5,7,9,11,13,15,-1,-1,-1,-1,-1,-1,-1,-1],"loss_changes":[6.8254875E1,2.5139181E1,0E0,1.1738743E1,2.246008E1,1.1019104E1,9.141907E0,1.9710201E1,7.9214306E0,0E0,0E0,0E0,0E0,0E0,0E0,0E0,0E0],"parents":[2147483647,0,0,1,1,3,3,4,4,5,5,6,6,7,7,8,8],"right_children":[2,4,-1,6,8,10,12,14,16,-1,-1,-1,-1,-1,-1,-1,-1],"split_conditions":[1.798825E-1,-1E-1,5.0831225E-2,6E0,3.1602702E-1,-1.4285715E-1,7.9310346E-1,4.5158002E-1,1.4285715E-1,-3.3903774E-2,-8.883839E-3,-9.864975E-3,1.6085511E-2,-4.0855664E-3,3.157623E-2,1.5398909E-2,5.0854065E-2],"split_indices":[1,0,0,8,4,1,5,2,0,0,0,0,0,0,0,0,0],"split_type":[0,0,0,0,0,0,0,0,0,0,0,0,0,0,0,0,0],"sum_hessian":[1.2164718E3,1.1543534E3,6.2118366E1,3.9645648E2,7.578969E2,1.7779977E2,2.186567E2,6.01302E2,1.5659492E2,9.421046E1,8.358932E1,1.7770743E2,4.094926E1,5.6068304E2,4.061898E1,1.394659E2,1.7129019E1],"tree_param":{"num_deleted":"0","num_feature":"11","num_nodes":"17","size_leaf_vector":"1"}},{"base_weights":[3.971524E-3,-4.8859973E-2,5.071155E-2,-6.9047734E-2,4.9480814E-2,-2.7529907E-1,2.1694615E-2,-2.1166373E-2,1.0396297E-3,-2.0450516E-2,4.340883E-3],"categories":[],"categories_nodes":[],"categories_segments":[],"categories_sizes":[],"default_left":[0,0,0,0,0,0,0,0,0,0,0],"id":56,"left_children":[1,3,-1,5,-1,7,9,-1,-1,-1,-1],"loss_changes":[6.468392E1,2.4214304E1,0E0,2.1168344E1,0E0,1.5154297E1,2.20868E1,0E0,0E0,0E0,0E0],"parents":[2147483647,0,0,1,1,3,3,5,5,6,6],"right_children":[2,4,-1,6,-1,8,10,-1,-1,-1,-1],"split_conditions":[1.798825E-1,1.7819326E-1,5.071155E-2,-1.6666667E-1,4.9480814E-2,3.2085454E-1,1.1553354E-1,-2.1166373E-2,1.0396297E-3,-2.0450516E-2,4.340883E-3],"split_indices":[1,0,0,1,0,4,4,0,0,0,0],"split_type":[0,0,0,0,0,0,0,0,0,0,0],"sum_hessian":[1.2099818E3,1.1507548E3,5.922706E1,1.1297267E3,2.1028137E1,3.445511E2,7.8517554E2,2.2942325E2,1.1512783E2,1.0243297E2,6.827426E2],"tree_param":{"num_deleted":"0","num_feature":"11","num_nodes":"11","size_leaf_vector":"1"}},{"base_weights":[3.89047E-3,-4.6585288E-2,5.059427E-2,-1.00514606E-1,3.2338673E-1,-5.8069426E-1,-6.036257E-2,2.1013808E-1,4.9291033E-2,-3.223676E-2,1.1552679E-2,-6.7637223E-3,1.5600984E-2,-1.539997E-2,1.4131446E-2],"categories":[],"categories_nodes":[],"categories_segments":[],"categories_sizes":[],"default_left":[0,0,0,0,0,0,0,0,0,0,0,0,0,0,0],"id":57,"left_children":[1,3,-1,5,7,9,11,13,-1,-1,-1,-1,-1,-1,-1],"loss_changes":[6.131482E1,2.2931976E1,0E0,1.9292538E1,1.0764495E1,4.1642933E0,2.5879858E1,4.825977E0,0E0,0E0,0E0,0E0,0E0,0E0,0E0],"parents":[2147483647,0,0,1,1,3,3,4,4,5,5,6,6,7,7],"right_children":[2,4,-1,6,8,10,12,14,-1,-1,-1,-1,-1,-1,-1],"split_conditions":[1.798825E-1,9.2989706E-2,5.059427E-2,-3.956605E-1,1.7819326E-1,1.3539597E-1,3.5955185E-1,-2.7272728E-1,4.9291033E-2,-3.223676E-2,1.1552679E-2,-6.7637223E-3,1.5600984E-2,-1.539997E-2,1.4131446E-2],"split_indices":[1,0,0,1,0,2,4,2,0,0,0,0,0,0,0],"split_type":[0,0,0,0,0,0,0,0,0,0,0,0,0,0,0],"sum_hessian":[1.2031768E3,1.1467086E3,5.6468124E1,1.00145844E3,1.4525021E2,7.623993E1,9.252185E2,1.25168785E2,2.008143E1,7.085568E1,5.384244E0,7.70795E2,1.5442354E2,1.4963863E1,1.1020492E2],"tree_param":{"num_deleted":"0","num_feature":"11","num_nodes":"15","size_leaf_vector":"1"}},{"base_weights":[3.8325787E-3,-4.4375088E-2,5.0479084E-2,-2.3551127E-1,5.5168927E-2,-4.2197055E-1,-8.398238E-2,-2.3315644E-1,1.4310147E-1,-2.7001856E-2,3.665349E-3,-8.958186E-3,1.5986186E-2,-2.7825737E-2,-2.3482228E-3,5.7449336E-3,4.8896562E-2],"categories":[],"categories_nodes":[],"categories_segments":[],"categories_sizes":[],"default_left":[0,0,0,0,0,0,0,0,0,0,0,0,0,0,0,0,0],"id":58,"left_children":[1,3,-1,5,7,9,11,13,15,-1,-1,-1,-1,-1,-1,-1,-1],"loss_changes":[5.8127052E1,2.1781387E1,0E0,1.1039917E1,1.9127312E1,1.0301619E1,8.414814E0,1.0593497E1,1.3490068E1,0E0,0E0,0E0,0E0,0E0,0E0,0E0,0E0],"parents":[2147483647,0,0,1,1,3,3,4,4,5,5,6,6,7,7,8,8],"right_children":[2,4,-1,6,8,10,12,14,16,-1,-1,-1,-1,-1,-1,-1,-1],"split_conditions":[1.798825E-1,-1E-1,5.0479084E-2,6E0,1.3989197E-1,4.2571944E-1,7.9310346E-1,-4E-2,1.7819326E-1,-2.7001856E-2,3.665349E-3,-8.958186E-3,1.5986186E-2,-2.7825737E-2,-2.3482228E-3,5.7449336E-3,4.8896562E-2],"split_indices":[1,0,0,8,4,4,5,1,0,0,0,0,0,0,0,0,0],"split_type":[0,0,0,0,0,0,0,0,0,0,0,0,0,0,0,0,0],"sum_hessian":[1.1969473E3,1.1431113E3,5.3835854E1,3.90993E2,7.5211835E2,1.744922E2,2.1650081E2,1.7538622E2,5.767321E2,1.4083011E2,3.36621E1,1.7564531E2,4.08555E1,6.336016E1,1.12026054E2,5.589857E2,1.774641E1],"tree_param":{"num_deleted":"0","num_feature":"11","num_nodes":"17","size_leaf_vector":"1"}},{"base_weights":[3.736563E-3,-4.230662E-2,5.0365664E-2,-5.9911914E-2,4.8930705E-2,-5.2880174E-1,-2.378025E-2,-2.9583532E-2,2.2453746E-2,-4.3522096E-3,1.4763847E-2],"categories":[],"categories_nodes":[],"categories_segments":[],"categories_sizes":[],"default_left":[0,0,0,0,0,0,0,0,0,0,0],"id":59,"left_children":[1,3,-1,5,-1,7,9,-1,-1,-1,-1],"loss_changes":[5.5117584E1,2.055881E1,0E0,1.8999113E1,0E0,5.198639E0,2.1077244E1,0E0,0E0,0E0,0E0],"parents":[2147483647,0,0,1,1,3,3,5,5,6,6],"right_children":[2,4,-1,6,-1,8,10,-1,-1,-1,-1],"split_conditions":[1.798825E-1,1.7819326E-1,5.0365664E-2,-3.956605E-1,4.8930705E-2,1.2091196E0,3.5955185E-1,-2.9583532E-2,2.2453746E-2,-4.3522096E-3,1.4763847E-2],"split_indices":[1,0,0,1,0,4,4,0,0,0,0],"split_type":[0,0,0,0,0,0,0,0,0,0,0],"sum_hessian":[1.190896E3,1.1395713E3,5.132465E1,1.1211785E3,1.8392876E1,7.923895E1,1.0419395E3,7.48234E1,4.4155445E0,8.701332E2,1.7180632E2],"tree_param":{"num_deleted":"0","num_feature":"11","num_nodes":"11","size_leaf_vector":"1"}},{"base_weights":[3.6983502E-3,-4.025142E-2,5.025376E-2,-2.220416E-1,5.3976785E-2,-3.3800635E-1,1.4176996E-2,-1.4102556E-1,1.7127544E-1,-2.5269821E-2,-4.0888824E-3,-1.953653E-2,8.261623E-3,-2.0705266E-2,9.350604E-4,-1.2438632E-2,1.1658313E-2],"categories":[],"categories_nodes":[],"categories_segments":[],"categories_sizes":[],"default_left":[0,0,0,0,0,0,0,0,0,0,0,0,0,0,0,0,0],"id":60,"left_children":[1,3,-1,5,7,9,11,13,15,-1,-1,-1,-1,-1,-1,-1,-1],"loss_changes":[5.2264927E1,1.9500734E1,0E0,1.0649513E1,1.7182049E1,1.1139242E1,7.949331E0,1.2320705E1,1.224625E1,0E0,0E0,0E0,0E0,0E0,0E0,0E0,0E0],"parents":[2147483647,0,0,1,1,3,3,4,4,5,5,6,6,7,7,8,8],"right_children":[2,4,-1,6,8,10,12,14,16,-1,-1,-1,-1,-1,-1,-1,-1],"split_conditions":[1.798825E-1,-1E-1,5.025376E-2,2.07542E3,1.6869792E-1,-9.3333334E-2,-3E-1,-4E-2,-3.3191714E-1,-2.5269821E-2,-4.0888824E-3,-1.953653E-2,8.261623E-3,-2.0705266E-2,9.350604E-4,-1.2438632E-2,1.1658313E-2],"split_indices":[1,0,0,3,4,1,0,1,2,0,0,0,0,0,0,0,0],"split_type":[0,0,0,0,0,0,0,0,0,0,0,0,0,0,0,0,0],"sum_hessian":[1.1856426E3,1.1367128E3,4.8929768E1,3.8759225E2,7.4912054E2,2.5967926E2,1.2791299E2,2.8128986E2,4.678307E2,1.5648058E2,1.0319869E2,3.4322926E1,9.3590065E1,1.0322197E2,1.780679E2,5.969126E1,4.0813943E2],"tree_param":{"num_deleted":"0","num_feature":"11","num_nodes":"17","size_leaf_vector":"1"}},{"base_weights":[3.5248797E-3,-3.844812E-2,5.014307E-2,-5.5145063E-2,4.8714746E-2,-5.32298E-1,-2.3085086E-2,-3.554515E-2,-2.3589616E-3,-6.819699E-3,7.1870126E-3],"categories":[],"categories_nodes":[],"categories_segments":[],"categories_sizes":[],"default_left":[0,0,0,0,0,0,0,0,0,0,0],"id":61,"left_children":[1,3,-1,5,-1,7,9,-1,-1,-1,-1],"loss_changes":[4.9581123E1,1.9237478E1,0E0,1.7075455E1,0E0,6.0560665E0,1.982491E1,0E0,0E0,0E0,0E0],"parents":[2147483647,0,0,1,1,3,3,5,5,6,6],"right_children":[2,4,-1,6,-1,8,10,-1,-1,-1,-1],"split_conditions":[1.798825E-1,1.7819326E-1,5.014307E-2,-3.5970834E-1,4.8714746E-2,-4.347826E-2,2.3680846E-1,-3.554515E-2,-2.3589616E-3,-6.819699E-3,7.1870126E-3],"split_indices":[1,0,0,0,0,2,4,0,0,0,0],"split_type":[0,0,0,0,0,0,0,0,0,0,0],"sum_hessian":[1.1801273E3,1.1334817E3,4.664569E1,1.1160275E3,1.7454226E1,6.9282555E1,1.0467449E3,5.0298763E1,1.8983795E1,6.234654E2,4.2327948E2],"tree_param":{"num_deleted":"0","num_feature":"11","num_nodes":"11","size_leaf_vector":"1"}},{"base_weights":[3.4547567E-3,-3.6612872E-2,5.003332E-2,-5.2539974E-2,4.8523586E-2,-1.9401985E-1,5.3189725E-2,-1.6273119E-2,3.9049715E-3,-2.4557332E-2,4.979262E-3],"categories":[],"categories_nodes":[],"categories_segments":[],"categories_sizes":[],"default_left":[0,0,0,0,0,0,0,0,0,0,0],"id":62,"left_children":[1,3,-1,5,-1,7,9,-1,-1,-1,-1],"loss_changes":[4.7031445E1,1.8203371E1,0E0,1.6689611E1,0E0,1.7090511E1,1.6184782E1,0E0,0E0,0E0,0E0],"parents":[2147483647,0,0,1,1,3,3,5,5,6,6],"right_children":[2,4,-1,6,-1,8,10,-1,-1,-1,-1],"split_conditions":[1.798825E-1,1.7819326E-1,5.003332E-2,-8.106941E-2,4.8523586E-2,1.9801871E3,1.0399687E-1,-1.6273119E-2,3.9049715E-3,-2.4557332E-2,4.979262E-3],"split_indices":[1,0,0,2,0,3,4,0,0,0,0],"split_type":[0,0,0,0,0,0,0,0,0,0,0],"sum_hessian":[1.1751667E3,1.130699E3,4.446782E1,1.1140283E3,1.6670595E1,4.761045E2,6.379238E2,3.2090222E2,1.5520229E2,4.934905E1,5.885748E2],"tree_param":{"num_deleted":"0","num_feature":"11","num_nodes":"11","size_leaf_vector":"1"}},{"base_weights":[3.3866314E-3,-3.488399E-2,4.9924247E-2,-9.280028E-2,2.3323211E-1,-1.4372568E-1,2.4319354E-1,-3.2458296E-1,2.9701644E-1,-1.0434217E-2,5.008889E-3,-4.0231645E-3,2.0792997E-2,1.5356001E-2,-3.614265E-2,1.1636729E-2,4.5418065E-2],"categories":[],"categories_nodes":[],"categories_segments":[],"categories_sizes":[],"default_left":[0,0,0,0,0,0,0,0,0,0,0,0,0,0,0,0,0],"id":63,"left_children":[1,3,-1,5,7,9,11,13,15,-1,-1,-1,-1,-1,-1,-1,-1],"loss_changes":[4.4619705E1,1.7542784E1,0E0,1.5924122E1,7.2380695E0,1.280706E1,6.8845572E0,5.5241165E0,6.887746E0,0E0,0E0,0E0,0E0,0E0,0E0,0E0,0E0],"parents":[2147483647,0,0,1,1,3,3,4,4,5,5,6,6,7,7,8,8],"right_children":[2,4,-1,6,8,10,12,14,16,-1,-1,-1,-1,-1,-1,-1,-1],"split_conditions":[1.798825E-1,7.070606E-2,4.9924247E-2,7.692308E-2,-2.3912713E-1,5.882353E-1,1.8135138E-1,1E-1,3.7537113E-1,-1.0434217E-2,5.008889E-3,-4.0231645E-3,2.0792997E-2,1.5356001E-2,-3.614265E-2,1.1636729E-2,4.5418065E-2],"split_indices":[1,1,0,0,2,5,4,1,4,0,0,0,0,0,0,0,0],"split_type":[0,0,0,0,0,0,0,0,0,0,0,0,0,0,0,0,0],"sum_hessian":[1.1697281E3,1.1273367E3,4.239145E1,9.276146E2,1.9972202E2,8.060211E2,1.2159351E2,2.007456E1,1.7964745E2,6.3661597E2,1.6940515E2,4.248706E1,7.910645E1,7.8509293E0,1.222363E1,1.6380438E2,1.5843059E1],"tree_param":{"num_deleted":"0","num_feature":"11","num_nodes":"17","size_leaf_vector":"1"}},{"base_weights":[3.3433882E-3,-3.3194788E-2,4.9815584E-2,-4.817264E-2,4.82679E-2,-4.9211442E-1,-1.4819895E-2,-3.364588E-2,-7.301051E-3,-3.6935639E-3,1.4035321E-2],"categories":[],"categories_nodes":[],"categories_segments":[],"categories_sizes":[],"default_left":[0,0,0,0,0,0,0,0,0,0,0],"id":64,"left_children":[1,3,-1,5,-1,7,9,-1,-1,-1,-1],"loss_changes":[4.233414E1,1.6879818E1,0E0,1.6425589E1,0E0,4.7526875E0,1.8053215E1,0E0,0E0,0E0,0E0],"parents":[2147483647,0,0,1,1,3,3,5,5,6,6],"right_children":[2,4,-1,6,-1,8,10,-1,-1,-1,-1],"split_conditions":[1.798825E-1,1.7819326E-1,4.9815584E-2,-3.956605E-1,4.82679E-2,1.1E1,3.5955185E-1,-3.364588E-2,-7.301051E-3,-3.6935639E-3,1.4035321E-2],"split_indices":[1,0,0,1,0,9,4,0,0,0,0],"split_type":[0,0,0,0,0,0,0,0,0,0,0],"sum_hessian":[1.164921E3,1.1245092E3,4.0411903E1,1.108829E3,1.5680191E1,7.652241E1,1.0323065E3,4.964367E1,2.6878742E1,8.610113E2,1.7129526E2],"tree_param":{"num_deleted":"0","num_feature":"11","num_nodes":"11","size_leaf_vector":"1"}},{"base_weights":[3.2819516E-3,-3.1592455E-2,4.9707074E-2,-5.499311E-1,-3.3651697E-3,-6.0948104E-1,6.6851974E-1,-7.889378E-2,2.4804132E-1,2.1552337E-2,-3.2793727E-2,5.4208387E-2,-2.6636175E-3,-1.4669186E-2,2.1811614E-3,1.0006332E-2,4.729012E-2],"categories":[],"categories_nodes":[],"categories_segments":[],"categories_sizes":[],"default_left":[0,0,0,0,0,0,0,0,0,0,0,0,0,0,0,0,0],"id":65,"left_children":[1,3,-1,5,7,9,11,13,15,-1,-1,-1,-1,-1,-1,-1,-1],"loss_changes":[4.017143E1,1.6430275E1,0E0,4.6154995E0,2.0262812E1,2.9771519E0,1.011568E0,2.1575943E1,8.052911E0,0E0,0E0,0E0,0E0,0E0,0E0,0E0,0E0],"parents":[2147483647,0,0,1,1,3,3,4,4,5,5,6,6,7,7,8,8],"right_children":[2,4,-1,6,8,10,12,14,16,-1,-1,-1,-1,-1,-1,-1,-1],"split_conditions":[1.798825E-1,-3.799962E-1,4.9707074E-2,1.9333334E1,3.1602702E-1,-9.366197E-1,4.9452406E-1,-1E-1,1.4285715E-1,2.1552337E-2,-3.2793727E-2,5.4208387E-2,-2.6636175E-3,-1.4669186E-2,2.1811614E-3,1.0006332E-2,4.729012E-2],"split_indices":[1,0,0,5,4,5,4,1,0,0,0,0,0,0,0,0,0],"split_type":[0,0,0,0,0,0,0,0,0,0,0,0,0,0,0,0,0],"sum_hessian":[1.1606056E3,1.1220808E3,3.8524773E1,5.699512E1,1.0650857E3,5.481587E1,2.179252E0,8.1955707E2,2.4552864E2,1.9858363E0,5.2830032E1,1.064312E0,1.1149398E0,2.9743842E2,5.2211865E2,2.309559E2,1.4572741E1],"tree_param":{"num_deleted":"0","num_feature":"11","num_nodes":"17","size_leaf_vector":"1"}},{"base_weights":[3.2583063E-3,-3.003556E-2,4.959848E-2,-4.4127725E-2,4.8014622E-2,-4.6986496E-1,-1.2703933E-2,-2.6635692E-2,2.2592667E-2,-9.81559E-3,3.6905669E-3],"categories":[],"categories_nodes":[],"categories_segments":[],"categories_sizes":[],"default_left":[0,0,0,0,0,0,0,0,0,0,0],"id":66,"left_children":[1,3,-1,5,-1,7,9,-1,-1,-1,-1],"loss_changes":[3.812129E1,1.5679029E1,0E0,1.4786022E1,0E0,4.64172E0,1.6387035E1,0E0,0E0,0E0,0E0],"parents":[2147483647,0,0,1,1,3,3,5,5,6,6],"right_children":[2,4,-1,6,-1,8,10,-1,-1,-1,-1],"split_conditions":[1.798825E-1,1.7819326E-1,4.959848E-2,-3.956605E-1,4.8014622E-2,1.2091196E0,1.6591346E-1,-2.6635692E-2,2.2592667E-2,-9.81559E-3,3.6905669E-3],"split_indices":[1,0,0,1,0,4,4,0,0,0,0],"split_type":[0,0,0,0,0,0,0,0,0,0,0],"sum_hessian":[1.1561622E3,1.119436E3,3.672627E1,1.1046721E3,1.4763818E1,7.497259E1,1.0296996E3,7.058189E1,4.3907E0,3.293866E2,7.00313E2],"tree_param":{"num_deleted":"0","num_feature":"11","num_nodes":"11","size_leaf_vector":"1"}},{"base_weights":[3.212828E-3,-2.857053E-2,4.9489558E-2,-7.639819E-2,2.583231E-1,-1.633107E-1,9.3129255E-2,8.613667E-2,4.637071E-1,-1.5510239E-2,-7.458572E-4,1.1572688E-2,-9.740299E-3,-6.1829663E-3,1.8070787E-2,8.916797E-3,3.2363217E-2],"categories":[],"categories_nodes":[],"categories_segments":[],"categories_sizes":[],"default_left":[0,0,0,0,0,0,0,0,0,0,0,0,0,0,0,0,0],"id":67,"left_children":[1,3,-1,5,7,9,11,13,15,-1,-1,-1,-1,-1,-1,-1,-1],"loss_changes":[3.6181305E1,1.5359569E1,0E0,1.4144817E1,5.617264E0,1.3822443E1,1.3015344E1,5.141077E0,3.6939898E0,0E0,0E0,0E0,0E0,0E0,0E0,0E0,0E0],"parents":[2147483647,0,0,1,1,3,3,4,4,5,5,6,6,7,7,8,8],"right_children":[2,4,-1,6,8,10,12,14,16,-1,-1,-1,-1,-1,-1,-1,-1],"split_conditions":[1.798825E-1,2.777778E-1,4.9489558E-2,1.9801871E3,2.8571429E-2,-6.235911E-2,7.798571E2,2.655448E-2,-4.4167202E-2,-1.5510239E-2,-7.458572E-4,1.1572688E-2,-9.740299E-3,-6.1829663E-3,1.8070787E-2,8.916797E-3,3.2363217E-2],"split_indices":[1,2,0,3,5,1,6,1,0,0,0,0,0,0,0,0,0],"split_type":[0,0,0,0,0,0,0,0,0,0,0,0,0,0,0,0,0],"sum_hessian":[1.1519575E3,1.1169454E3,3.501219E1,9.5797614E2,1.5896924E2,6.3332355E2,3.2465262E2,8.724534E1,7.17239E1,3.1772183E2,3.1560168E2,2.1943289E2,1.0521973E2,4.9824116E1,3.7421223E1,2.884734E1,4.287656E1],"tree_param":{"num_deleted":"0","num_feature":"11","num_nodes":"17","size_leaf_vector":"1"}},{"base_weights":[3.1575758E-3,-2.7194964E-2,4.938008E-2,-1.8870178E-1,5.561753E-2,-3.6524978E-1,-4.8357505E-2,-3.810429E-1,9.6486986E-2,-3.1712264E-2,-7.5111277E-3,-7.1302177E-3,1.6227854E-2,-2.3863334E-2,5.981272E-2,3.8460412E-3,4.777748E-2],"categories":[],"categories_nodes":[],"categories_segments":[],"categories_sizes":[],"default_left":[0,0,0,0,0,0,0,0,0,0,0,0,0,0,0,0,0],"id":68,"left_children":[1,3,-1,5,7,9,11,13,15,-1,-1,-1,-1,-1,-1,-1,-1],"loss_changes":[3.4345028E1,1.4925248E1,0E0,9.353347E0,1.3205982E1,9.584255E0,7.4923234E0,1.0187027E1,1.1281945E1,0E0,0E0,0E0,0E0,0E0,0E0,0E0,0E0],"parents":[2147483647,0,0,1,1,3,3,4,4,5,5,6,6,7,7,8,8],"right_children":[2,4,-1,6,8,10,12,14,16,-1,-1,-1,-1,-1,-1,-1,-1],"split_conditions":[1.798825E-1,-1E-1,4.938008E-2,6E0,1.0175142E-1,2.3807514E-1,7.5E-1,2.7053782E-1,1.7819326E-1,-3.1712264E-2,-7.5111277E-3,-7.1302177E-3,1.6227854E-2,-2.3863334E-2,5.981272E-2,3.8460412E-3,4.777748E-2],"split_indices":[1,0,0,8,4,4,5,2,0,0,0,0,0,0,0,0,0],"split_type":[0,0,0,0,0,0,0,0,0,0,0,0,0,0,0,0,0],"sum_hessian":[1.1475188E3,1.1141399E3,3.337897E1,3.7720642E2,7.369334E2,1.6634628E2,2.1086012E2,6.235819E1,6.7457526E2,7.303327E1,9.331302E1,1.6881343E2,4.2046688E1,5.9430046E1,2.9281437E0,6.606184E2,1.3956824E1],"tree_param":{"num_deleted":"0","num_feature":"11","num_nodes":"17","size_leaf_vector":"1"}},{"base_weights":[3.1177474E-3,-2.5866505E-2,4.9269762E-2,-5.173077E-1,4.2250287E-4,-5.766585E-1,6.592691E-1,-7.04602E-2,2.3482326E-1,2.1655098E-2,-3.1159043E-2,5.2490003E-2,-2.1529037E-3,-1.3571135E-2,2.13843E-3,-9.348441E-3,1.5271437E-2],"categories":[],"categories_nodes":[],"categories_segments":[],"categories_sizes":[],"default_left":[0,0,0,0,0,0,0,0,0,0,0,0,0,0,0,0,0],"id":69,"left_children":[1,3,-1,5,7,9,11,13,15,-1,-1,-1,-1,-1,-1,-1,-1],"loss_changes":[3.2603767E1,1.4372603E1,0E0,4.3248053E0,1.7578028E1,2.8211613E0,9.172025E-1,1.849582E1,7.372608E0,0E0,0E0,0E0,0E0,0E0,0E0,0E0,0E0],"parents":[2147483647,0,0,1,1,3,3,4,4,5,5,6,6,7,7,8,8],"right_children":[2,4,-1,6,8,10,12,14,16,-1,-1,-1,-1,-1,-1,-1,-1],"split_conditions":[1.798825E-1,-3.799962E-1,4.9269762E-2,1.9333334E1,3.1602702E-1,-9.366197E-1,4.9452406E-1,-1E-1,-3.941301E-1,2.1655098E-2,-3.1159043E-2,5.2490003E-2,-2.1529037E-3,-1.3571135E-2,2.13843E-3,-9.348441E-3,1.5271437E-2],"split_indices":[1,0,0,5,4,5,4,1,2,0,0,0,0,0,0,0,0],"split_type":[0,0,0,0,0,0,0,0,0,0,0,0,0,0,0,0,0],"sum_hessian":[1.1432789E3,1.1114567E3,3.18223E1,5.5488503E1,1.0559681E3,5.3309277E1,2.1792278E0,8.1132355E2,2.4464455E2,1.9819479E0,5.1327328E1,1.0825357E0,1.0966921E0,2.918827E2,5.1944086E2,3.4843563E1,2.0980098E2],"tree_param":{"num_deleted":"0","num_feature":"11","num_nodes":"17","size_leaf_vector":"1"}},{"base_weights":[3.0488947E-3,-2.4624702E-2,4.915843E-2,-3.7424885E-2,4.759353E-2,-4.417461E-1,-8.178422E-3,-3.1149803E-2,-5.2169613E-3,-9.022576E-3,3.6141933E-3],"categories":[],"categories_nodes":[],"categories_segments":[],"categories_sizes":[],"default_left":[0,0,0,0,0,0,0,0,0,0,0],"id":70,"left_children":[1,3,-1,5,-1,7,9,-1,-1,-1,-1],"loss_changes":[3.0955853E1,1.3910658E1,0E0,1.2964386E1,0E0,4.4578295E0,1.420313E1,0E0,0E0,0E0,0E0],"parents":[2147483647,0,0,1,1,3,3,5,5,6,6],"right_children":[2,4,-1,6,-1,8,10,-1,-1,-1,-1],"split_conditions":[1.798825E-1,1.7819326E-1,4.915843E-2,-3.956605E-1,4.759353E-2,1.1E1,1.6591346E-1,-3.1149803E-2,-5.2169613E-3,-9.022576E-3,3.6141933E-3],"split_indices":[1,0,0,1,0,9,4,0,0,0,0],"split_type":[0,0,0,0,0,0,0,0,0,0,0],"sum_hessian":[1.1394028E3,1.1090634E3,3.0339436E1,1.0956628E3,1.3400589E1,7.295692E1,1.0227059E3,4.691074E1,2.6046177E1,3.2519888E2,6.97507E2],"tree_param":{"num_deleted":"0","num_feature":"11","num_nodes":"11","size_leaf_vector":"1"}},{"base_weights":[2.978633E-3,-2.3441264E-2,4.904583E-2,-7.476552E-2,2.1183746E-1,-4.430964E-1,-3.632401E-2,-3.2412916E-1,2.7370548E-1,-3.3150543E-2,5.50826E-3,-1.6746964E-2,1.1889089E-3,1.573789E-2,-3.4347057E-2,2.0836433E-2,2.43068E-3],"categories":[],"categories_nodes":[],"categories_segments":[],"categories_sizes":[],"default_left":[0,0,0,0,0,0,0,0,0,0,0,0,0,0,0,0,0],"id":71,"left_children":[1,3,-1,5,7,9,11,13,15,-1,-1,-1,-1,-1,-1,-1,-1],"loss_changes":[2.9394041E1,1.3393743E1,0E0,1.2871627E1,6.6758966E0,1.0527935E1,1.4819502E1,5.0875998E0,5.7306747E0,0E0,0E0,0E0,0E0,0E0,0E0,0E0,0E0],"parents":[2147483647,0,0,1,1,3,3,4,4,5,5,6,6,7,7,8,8],"right_children":[2,4,-1,6,8,10,12,14,16,-1,-1,-1,-1,-1,-1,-1,-1],"split_conditions":[1.798825E-1,7.070606E-2,4.904583E-2,1.1553354E-1,-2.3912713E-1,2.2222222E-1,-2.3809524E-1,9.901845E-2,7.185714E2,-3.3150543E-2,5.50826E-3,-1.6746964E-2,1.1889089E-3,1.573789E-2,-3.4347057E-2,2.0836433E-2,2.43068E-3],"split_indices":[1,1,0,4,2,5,0,1,6,0,0,0,0,0,0,0,0],"split_type":[0,0,0,0,0,0,0,0,0,0,0,0,0,0,0,0,0],"sum_hessian":[1.1357814E3,1.1068547E3,2.8926672E1,9.0920154E2,1.9765314E2,8.492815E1,8.2427344E2,2.0015821E1,1.7763731E2,6.063009E1,2.4298058E1,1.3733873E2,6.869347E2,7.2976356E0,1.2718186E1,1.0809959E2,6.9537735E1],"tree_param":{"num_deleted":"0","num_feature":"11","num_nodes":"17","size_leaf_vector":"1"}},{"base_weights":[2.8485572E-3,-2.2382382E-2,4.8931744E-2,-3.4561638E-2,4.736975E-2,-6.342445E-2,3.6121133E-1,-5.7462007E-3,8.202444E-3,2.1957606E-2,-3.641961E-2],"categories":[],"categories_nodes":[],"categories_segments":[],"categories_sizes":[],"default_left":[0,0,0,0,0,0,0,0,0,0,0],"id":72,"left_children":[1,3,-1,5,-1,7,9,-1,-1,-1,-1],"loss_changes":[2.7917112E1,1.3089392E1,0E0,1.2504991E1,0E0,1.1959513E1,6.6400623E0,0E0,0E0,0E0,0E0],"parents":[2147483647,0,0,1,1,3,3,5,5,6,6],"right_children":[2,4,-1,6,-1,8,10,-1,-1,-1,-1],"split_conditions":[1.798825E-1,1.7819326E-1,4.8931744E-2,4.724E-1,4.736975E-2,2.9857144E3,5.6557812E3,-5.7462007E-3,8.202444E-3,2.1957606E-2,-3.641961E-2],"split_indices":[1,0,0,2,0,3,3,0,0,0,0],"split_type":[0,0,0,0,0,0,0,0,0,0,0],"sum_hessian":[1.13203E3,1.1044493E3,2.7580719E1,1.0917032E3,1.27461405E1,1.018282E3,7.342122E1,8.307063E2,1.8757567E2,6.907701E1,4.3442073E0],"tree_param":{"num_deleted":"0","num_feature":"11","num_nodes":"11","size_leaf_vector":"1"}},{"base_weights":[2.8266222E-3,-2.1265589E-2,4.881595E-2,-3.2898836E-2,4.7163863E-2,-4.8177224E-1,-9.109276E-3,-2.7068695E-2,3.3170503E-2,-3.7514244E-3,1.0466404E-2],"categories":[],"categories_nodes":[],"categories_segments":[],"categories_sizes":[],"default_left":[0,0,0,0,0,0,0,0,0,0,0],"id":73,"left_children":[1,3,-1,5,-1,7,9,-1,-1,-1,-1],"loss_changes":[2.6510864E1,1.24094515E1,0E0,1.1645752E1,0E0,4.1057453E0,1.4949119E1,0E0,0E0,0E0,0E0],"parents":[2147483647,0,0,1,1,3,3,5,5,6,6],"right_children":[2,4,-1,6,-1,8,10,-1,-1,-1,-1],"split_conditions":[1.798825E-1,1.7819326E-1,4.881595E-2,-3.799962E-1,4.7163863E-2,1.9333334E1,3.1602702E-1,-2.7068695E-2,3.3170503E-2,-3.7514244E-3,1.0466404E-2],"split_indices":[1,0,0,0,0,5,4,0,0,0,0],"split_type":[0,0,0,0,0,0,0,0,0,0,0],"sum_hessian":[1.1284691E3,1.1021705E3,2.629861E1,1.0899902E3,1.2180365E1,5.3891266E1,1.0360989E3,5.1726395E1,2.1648707E0,7.9641595E2,2.3968294E2],"tree_param":{"num_deleted":"0","num_feature":"11","num_nodes":"11","size_leaf_vector":"1"}},{"base_weights":[2.8134154E-3,-2.0184267E-2,4.869822E-2,-6.898377E-2,2.0308675E-1,-4.23329E-1,-3.251706E-2,-8.6016816E-1,2.3250419E-1,-3.205074E-2,5.5319755E-3,-9.849593E-3,3.1555728E-3,-5.164736E-2,-4.1260817E-3,3.386649E-2,6.690617E-3],"categories":[],"categories_nodes":[],"categories_segments":[],"categories_sizes":[],"default_left":[0,0,0,0,0,0,0,0,0,0,0,0,0,0,0,0,0],"id":74,"left_children":[1,3,-1,5,7,9,11,13,15,-1,-1,-1,-1,-1,-1,-1,-1],"loss_changes":[2.5176912E1,1.2013478E1,0E0,1.1674414E1,6.386531E0,9.871909E0,1.2928863E1,6.5882254E-1,8.393283E0,0E0,0E0,0E0,0E0,0E0,0E0,0E0,0E0],"parents":[2147483647,0,0,1,1,3,3,4,4,5,5,6,6,7,7,8,8],"right_children":[2,4,-1,6,8,10,12,14,16,-1,-1,-1,-1,-1,-1,-1,-1],"split_conditions":[1.798825E-1,7.070606E-2,4.869822E-2,1.1553354E-1,1E1,2.2222222E-1,-1.0823218E-1,2.0388742E-1,1.2E2,-3.205074E-2,5.5319755E-3,-9.849593E-3,3.1555728E-3,-5.164736E-2,-4.1260817E-3,3.386649E-2,6.690617E-3],"split_indices":[1,1,0,4,6,5,0,2,6,0,0,0,0,0,0,0,0],"split_type":[0,0,0,0,0,0,0,0,0,0,0,0,0,0,0,0,0],"sum_hessian":[1.1253993E3,